486 300
tá -0.020167345 -0.06350866 -0.06966836 0.06472674 -0.17792183 -0.123922765 -0.060816787 0.24814217 -0.07440127 -0.055533387 0.14566761 -0.14521134 -0.039569225 0.17391585 -0.17125559 -0.06385761 0.14062198 -0.14958481 -0.07452725 -0.22839987 -0.2498529 -0.082705855 0.07443406 0.15549229 0.17056754 -0.038165882 -0.038741782 -0.056987815 -0.17005333 0.03587415 -0.07130083 0.022373285 0.29310042 0.10273386 -0.1461577 0.13477801 0.15622862 -0.20253313 -0.016624194 0.12783746 -0.19783556 -0.012062062 0.031930935 -0.04426156 0.061231576 0.010503361 -0.06644464 0.08668976 0.26824388 0.005450237 -0.11445596 0.12257027 -0.020202773 0.06868764 0.06339785 0.24109553 -0.029355697 -0.018469498 0.007573821 0.03033854 0.13816497 -0.05417249 -0.18072237 0.08600753 -0.16496287 0.057679884 -8.312607e-06 0.13951413 0.064552575 -0.001032619 0.08027488 -0.16279599 0.05915438 0.04474117 0.27519032 -0.05122021 0.02331891 0.011439265 0.12541847 -0.07801129 0.01651549 -0.13408697 0.04028252 0.35846955 -0.030813226 -0.18643394 0.09967795 0.010069932 -0.051710136 -0.18260431 0.15440285 -0.07861848 -0.02304982 0.20228474 0.07143436 0.1830584 -0.093891755 -0.01880187 0.014426652 0.21232323 -0.07528889 0.03032802 0.18107237 0.19208671 0.15154327 -0.24196984 -0.0390431 0.19537976 -0.023440842 -0.07686607 -0.065855235 -0.13795845 0.011420916 0.11758299 0.069666155 0.015494918 -0.010778247 0.060375933 0.04704089 -0.09100223 0.35797173 0.013763461 0.23704416 -0.058186397 0.018133678 0.17210084 0.04617217 -0.16994794 0.0002447068 0.028199391 0.07570908 -0.059417516 0.14312285 -0.19259869 0.11808272 -0.01687352 -0.19574976 -0.08275247 0.12645273 0.121853426 0.23333244 -0.0002623247 0.11091224 0.03172657 0.09139693 0.029833537 -0.13941939 0.0001313698 0.064066514 -0.019086013 0.10864721 -0.16400413 -0.102198906 -0.15952133 -0.07142847 -0.0019931905 0.0063136173 0.018495047 0.15982419 -0.024050182 -0.0010118153 -0.063171215 -0.0009992539 0.13368331 0.21523038 0.20177142 0.14144538 -0.06175859 0.06368463 0.046420977 0.04773252 0.032243714 -0.028878555 0.038597777 0.03863414 0.048654076 0.047227874 -0.02985749 0.1663146 0.036753364 -0.35270092 -0.01844266 -0.064035974 0.08042007 0.107546344 -0.013814106 0.1539663 -0.05788312 -0.16991977 -0.12941809 0.2585596 -0.014244148 0.09765013 0.12398849 -0.06436005 -0.004247423 0.0031312376 -0.20621343 0.0898139 -0.022548083 -0.08941587 -0.014377813 0.049049668 -0.046187945 0.28965425 0.09080498 0.011105809 -0.019161215 0.014705599 -0.13481532 0.053287078 -0.09735637 0.053570632 -0.11466833 0.057887387 0.041174065 -0.0028133846 0.07437547 -0.038761456 -0.24901214 -0.2245407 -0.055268724 -0.09339824 -0.02309041 -0.2538503 -0.16579312 0.30630565 0.10219824 -0.027507726 -0.028869815 0.09535678 -0.11404851 0.069493435 0.056953143 0.0093283225 -0.19512233 0.17743677 -0.023066306 0.016342122 -0.0044507002 -0.047746576 -0.042896397 -0.009253405 0.0040617986 0.008650706 -0.22331443 0.04599514 0.12753583 -0.1048979 0.08131642 -0.08844556 -0.18416941 0.012176661 -0.17418873 0.08461711 -0.09823582 -0.10783925 0.084333025 -0.25277227 0.09988515 0.024491858 -0.15764719 0.37014928 -0.0969493 -0.107319124 -0.109925054 0.024238165 0.10133807 -0.14848584 0.087290026 -0.0027833383 0.0546129 -0.08643767 -0.06781965 -0.118138984 0.108983 0.067064956 0.049650695 -0.0030159084 0.0234645 -0.12632652 -0.057293925 -0.1193452 -0.057979234 -0.025110768 -0.023458332 0.055800375 0.112871096 0.076725096 -0.040402293 -0.080107324 0.14322156 0.23211433 0.039302573 0.19078743 0.21188591 -0.16547433 -0.14256442 -0.048948668 -0.04337226
senhor -0.07255359 0.24728838 0.036896966 -0.07593738 -0.14510342 -0.100362115 -0.0076126554 0.20844647 0.0047749095 -0.03590254 0.05188162 -0.022502942 0.15891926 -0.18695094 0.05134385 -0.2401807 0.2843647 -0.06838719 0.103081845 -0.09787511 -0.055267718 -0.3594753 0.18124829 0.2939695 -0.056626484 0.17058343 0.10209821 -0.049959272 -0.027243389 -0.30428967 0.24229147 0.0629984 0.15637982 0.008625397 0.16331935 -0.07045581 0.33096442 -0.18434164 -0.17665301 0.24410419 -0.14660485 -0.008824612 0.09423554 -0.11851949 0.099141 -0.12686592 0.008017927 -0.10910247 0.2585892 -0.11815358 -0.045590296 0.20811193 -0.0010387406 0.02831088 -0.1287764 0.32941422 -0.07080932 0.18093063 -0.09980485 -0.056465525 0.05179735 -0.0640563 -0.056955542 -0.0030071838 -0.03858134 -0.09675333 -0.09836813 0.175114 0.14609404 0.029655864 0.23881781 -0.1646982 0.13587731 -0.003756669 -0.049023934 -0.22337668 0.14899878 -0.111693636 0.09206135 0.013883735 -0.077347524 -0.15011065 -0.21382864 0.323207 -0.11925501 -0.26683673 -0.016907372 -0.093046635 0.20720373 -0.014571682 -0.3233879 -0.20350443 -0.0001442146 -0.12104815 0.068156235 0.007850307 -0.1133164 -0.15437524 -0.25385746 -0.4128459 -0.0667352 -0.012577745 0.25196475 0.101485744 0.24829586 -0.04069631 -0.107861824 0.052472167 -0.15180631 0.16260716 -0.08955624 -0.19472541 0.2655057 0.07592723 -0.09681245 -0.03395827 0.0921497 0.13171297 0.30407786 -0.022844184 0.033565648 -0.0042313123 0.19157897 0.08122361 -0.16546358 0.27545366 -0.04802429 0.19395441 -0.18965231 -0.38379565 0.12808676 0.12227041 0.11430645 -0.09685706 0.12922049 -0.27319333 -0.12798935 -0.11132198 0.0060636145 0.16311851 0.22080137 -0.074341156 -0.06270151 0.086732574 0.10274862 -0.19401559 -0.15937887 -0.06187813 0.17236884 -0.20120722 0.01878649 0.08921025 0.112725325 -0.29848048 0.1563568 -0.18921353 -0.29541084 -0.21694677 -0.0005105287 -0.21384324 -0.009289405 -0.16115777 -0.056479868 0.14520869 0.06683184 0.2682707 0.13084558 0.09019521 0.09506152 0.20485058 -0.23382638 0.0070782183 -0.23343988 -0.08377666 0.21699655 -0.009518484 -0.064815 -0.016849948 0.24464452 0.30243403 -0.2628481 -0.15483369 -0.026792247 0.022033578 -0.12807174 -0.2917039 -0.019659337 -0.058791764 0.073658876 -0.094608545 0.16673233 0.040150717 0.23066951 0.0037372669 -0.0066138622 -0.04983357 -0.0053085187 0.022722578 0.25483924 -0.0050256588 0.004570217 0.04456188 0.07936298 -0.34675187 -0.072990514 -0.109340414 0.13602224 0.05425403 -0.036652125 -0.17103724 -0.003666099 -0.040903285 0.015999846 -0.22069661 0.005561676 0.042200275 -0.053951867 -0.056463618 0.15746158 -0.12934521 -0.4733605 -0.013576128 -0.04453615 0.0009531214 -0.12675606 0.22932522 -0.14076631 -0.250766 -0.038145978 0.016768344 0.24015057 -0.0511162 0.2797777 -0.19337578 -0.042599287 -0.0071052974 0.05191872 -0.17844999 0.4705383 -0.25585395 0.2004569 -0.2700363 -0.12960608 -0.031565126 -0.029842215 -0.1595051 0.15337363 0.03159936 -0.25749308 0.06440955 -0.018076798 -0.12647195 -0.11550439 0.08683325 0.03584908 -0.10203568 -0.13152507 -0.12745613 -0.30495912 0.11435674 -0.050658166 -0.2878399 0.016651776 -0.17864019 0.17596172 -0.069197744 0.25408936 0.059577856 -0.02136708 0.013659721 -0.049800634 0.082789026 0.14986028 -0.0068953177 -0.022735287 -0.02566646 -0.031774927 0.095543005 -0.052095402 0.06376438 -0.0028280746 0.063583076 -0.034294013 0.18143274 0.029232588 -0.16838227 -0.024984093 0.41573408 0.08555525 0.013511363 0.122481674 0.26848164 0.11449565 -0.14022999 0.13162823 0.20489511 -0.13952084 0.06366416 0.07589046 -0.45768505
gente 0.072364755 0.15381566 -0.054061733 0.032268852 -0.050695155 -0.12237163 0.11029282 0.18895775 0.12200901 -0.11072844 0.060846813 -0.34492812 0.13128099 0.0039389753 -0.3731077 -0.19980283 0.37382197 0.06420243 0.1722386 -0.26795775 -0.04379735 0.09989252 0.18255317 0.06364786 0.15238571 0.000883001 -0.17544433 -0.016478742 -0.23078158 -0.32674983 0.113566145 0.06785371 0.35043147 0.0015724746 -0.19631451 -0.059590682 0.09973713 -0.27812448 -0.13671002 -0.06930133 -0.08229868 0.055792198 -0.039661024 -0.20548654 -0.10783962 0.17696097 -0.029443057 -0.16535173 -0.0061018565 0.0335177 0.025300499 0.005240313 -0.07443758 0.26431623 -0.068333864 0.20725551 0.031838425 -0.004001526 -0.18818869 -0.06287218 0.021359123 -0.18512121 0.0014787889 -0.08499618 -0.21773385 0.07878649 0.05040738 0.0036660503 -0.3141443 -0.045467354 -0.0519284 0.05135775 0.08125028 0.053317685 0.10971726 -0.17364065 0.18342778 0.10307231 -0.05227049 0.050007693 -0.041552622 -0.10715932 -0.1284571 0.21027966 -0.030042298 -0.18072186 -0.062814675 0.03370067 -0.1874839 0.09269211 0.10057521 -0.0116452165 -0.030231362 -0.019719133 0.059281234 0.13998263 0.13268264 -0.09670242 0.115602165 0.14124452 0.057911877 -0.0458124 0.055093758 0.3864663 0.18510228 -0.17773622 -0.20797698 -0.14112574 -0.20420973 -0.04587103 -0.19548294 0.13269742 0.02936392 -0.014208629 0.23123164 0.020839836 0.06292742 0.20511173 0.09168972 -0.3023578 0.08383085 0.24432093 0.10757895 0.053558506 0.113529734 0.03379679 -0.17386496 -0.0641628 0.11723932 0.3827821 0.09519172 0.22412264 0.01094767 -0.17913578 0.17972362 0.041952454 -0.23395309 0.051930152 0.0032625212 -0.16948041 0.048314784 -0.016755244 0.104803786 0.087115265 0.33951437 -0.07882387 -0.11918411 -0.06501838 0.26803443 0.055981506 0.01052272 -0.26034108 -0.08027092 0.095187865 -0.021926949 0.023859875 -0.20006579 0.10168563 -0.12439864 0.4210229 0.09313151 -0.02778974 -0.059040755 0.1054782 0.1285278 -0.05106036 -0.06225215 -0.018900087 0.028152067 0.036845993 -0.10740095 0.0132561 -0.07774487 -0.07082594 0.06399571 -0.094501495 0.035331793 -0.04248227 0.2034799 -0.14028625 -0.11633146 -0.040975414 -0.15161318 0.019659545 -0.051287834 0.00094511884 0.12630826 0.0006955586 -0.11058361 -0.22079372 0.2361027 -0.031708945 -0.054464 0.22751117 -0.034704816 -0.17236885 0.03093211 -0.17520888 0.00759257 -0.11764168 -0.22244784 0.19074202 -0.018260263 0.068467766 0.17234543 -0.031556834 0.25073808 -0.03125097 -0.124393985 -0.0735541 -0.037210617 -0.09381367 0.22354099 -0.04158229 0.013185583 -0.013691434 -0.10915343 -0.20171043 -0.053930238 -0.28599915 -0.12503164 -0.10310044 -0.10330452 0.012387031 -0.23200515 0.26895833 0.13335751 -0.067179024 -0.22007756 -0.15245965 0.0674588 -0.04705845 0.035564404 0.13024798 -0.043607034 0.03766023 0.2014678 0.18839467 0.053786907 0.036126006 0.02241181 -0.019134378 0.11622825 -0.011126165 -0.04682821 -0.23543516 -0.068613864 0.21303767 -0.03482682 0.0877881 -0.018492078 -0.012557008 0.08242947 -0.18845388 0.22792637 -0.0024390446 0.035222728 -0.033791937 -0.18337497 -0.3027477 -0.01791855 -0.17656997 0.20413248 0.1100273 0.023852177 -0.15379156 -0.004360566 0.07319572 -0.070083454 -0.03802507 -0.10328 0.06814942 -0.006811574 0.06629384 -0.16498832 0.017459318 0.08025875 0.073550984 0.08506848 0.17530891 -0.14138788 -0.14750627 -0.043016203 -0.18390465 0.041843407 -0.06628659 -0.033829007 0.17798823 0.07547651 0.07289194 0.1326689 0.08469988 0.012588136 -0.06728722 0.13748683 -0.02139059 0.010975395 -0.14095828 -0.057628285 -0.06973176
certo 0.07954396 -0.027503856 -0.11697582 0.38033673 0.11066968 -0.19800803 -0.080574386 0.1964341 0.1072408 0.019557822 -0.026248073 0.12973613 -0.3107856 0.051391605 0.027321696 -0.08939449 0.21501441 -0.07863089 0.22403201 -0.12999097 -0.019521073 -0.19085848 0.15087296 0.14216323 0.27754793 -0.112850524 -0.0883913 -0.031131245 -0.24431589 -0.19794123 0.34762776 0.07273983 0.07375925 0.10724393 -0.26887444 0.30331624 0.11005936 -0.10521514 0.34308144 0.35916087 0.02386059 0.14183486 -0.081480965 -0.14764123 0.09931129 0.05502231 0.21212634 0.14322913 0.007264828 0.14408728 -0.06065311 0.33277062 0.045125403 0.27742237 0.06850717 0.16596237 0.24691497 0.053091872 0.30506593 -0.120212734 -0.1309259 0.21265382 -0.09984041 0.04782381 0.045928925 0.1240397 -0.0051697623 -0.26232728 0.118401095 -0.039175723 -0.15592405 0.108405486 0.2129455 -0.25300443 0.1530712 0.116573654 0.16206536 -0.14629975 0.07275898 0.06393844 0.045914892 -0.10983409 -0.1797033 0.36657467 -0.08221867 -0.22387803 -0.36836052 0.117320895 0.42352143 0.15904471 -0.12343646 0.13168761 0.023510126 0.2592445 0.2385704 0.39189306 -0.01882518 -0.10675458 0.03879523 -0.18077287 0.115760006 -0.0531072 0.32201406 -0.07429302 -0.010828236 -0.33499926 -0.15276554 0.27525046 -0.14152117 -0.08995863 0.030272923 0.049356032 0.15182583 0.1337134 -0.14008696 0.10170714 0.04682106 0.14575462 0.122983634 -0.056683183 -0.2682194 0.10248347 0.17404252 -0.14357509 -0.11714008 0.0265874 0.0052206116 -0.295637 -0.072899796 0.061069287 0.09066586 0.034850907 0.27200606 0.2685898 0.0923209 0.15559463 0.16024593 -0.051588178 -0.26280153 -0.10751872 0.02026914 -0.23908842 -0.1619309 0.30646822 -0.039019525 -0.2058546 0.03166103 -0.37293535 -0.09449621 -0.13977692 0.050603777 0.057481784 -0.008496985 -0.12846586 0.026808672 -0.11893308 -0.114189796 -0.2171552 0.21669519 0.066083394 -0.061534375 0.11083399 0.0056901025 -0.018884748 -0.4247288 -0.11828891 -0.1150678 -0.2846268 0.041878093 -0.056706857 -0.0321192 0.22902068 0.108191125 0.19291963 0.35691193 -0.020571845 -0.04758275 -0.004994032 -0.06823148 0.2906448 0.016974388 0.1347281 0.018695908 0.26266074 -0.18727031 -0.123696014 0.14327754 -0.03223837 -0.1331103 0.19460854 -0.15974309 0.06899832 -0.10012028 0.18823975 -0.05398066 -0.018130133 0.053132456 -0.07857713 0.17873125 -0.1555801 0.034405097 0.23228237 -0.014012743 0.1376367 0.040596712 0.031453796 -0.06396335 0.16734335 -0.341402 0.01429386 0.10447271 0.052737903 -0.053173367 -0.16892064 -0.120878555 -0.15830536 -0.16995847 -0.40400138 0.05649911 0.00922907 -0.23201658 0.062356282 -0.08986649 -0.28816974 -0.30027327 -0.5241036 -0.21729785 -0.06579388 -0.08762555 -0.14997897 -0.1294869 -0.07539277 -0.050138 -0.02070163 -0.05392005 0.08233324 -0.23899534 -0.096838914 0.015317479 -0.14771834 -0.07151248 -0.10103448 0.0541832 0.026335986 0.042083926 -0.20686087 0.12081997 0.26332346 0.0061558727 0.4662494 0.23449282 -0.023277685 0.26185066 0.17874186 -0.0800046 -0.04900673 -0.14523196 0.21915494 -0.24751082 -0.15620413 0.22543028 -0.048556115 -0.15064068 -0.31072357 -0.0077525796 0.056177348 0.298782 0.3043994 -0.080989435 -0.07056287 -0.030309975 0.03979846 0.10040793 -0.035849858 0.30344617 0.4520861 -0.2871398 0.40162793 0.04090246 -0.06822068 -0.029363029 0.25188908 -0.18953907 -0.02596427 -0.08710742 -0.02424741 -0.115965955 -0.10455377 0.25368845 0.40632868 -0.073881224 0.11473735 -0.17088275 0.09156942 0.0663611 -0.038341943 -0.14643915 -0.071180075 0.2443527 -0.23653907
pra -0.15588123 0.13950312 0.098729454 -0.15053803 0.04797593 -0.13378422 0.113123104 0.37993574 0.051599413 -0.14415853 0.07970326 -0.17639144 -0.16916147 -0.016675038 -0.10578365 -0.18756388 0.26555255 0.13473049 0.23184226 -0.1300443 -0.024252068 -0.14226776 0.03796673 0.2551069 0.22144356 -0.11262692 -0.22509289 0.07086343 -0.12800811 -0.10124632 0.23342153 0.048823677 0.08716297 -0.089488484 -0.07049652 0.026620036 -0.10156153 -0.23820616 0.23024315 0.058383647 -0.11142982 0.15499769 -0.10436017 -0.17202634 -0.1250393 -0.09027887 0.04859678 -0.029399525 -0.05015941 0.13373265 -0.09584215 -0.021958804 -0.036794726 -0.067607775 -0.10200484 0.14109299 -0.022461947 0.1956359 0.09055998 0.010910375 0.07628072 0.15482758 0.046790544 0.032596774 -0.10287292 0.08246293 0.0154192075 0.06466064 -0.20015319 0.060266998 -0.081654355 -0.02394084 0.08758437 0.020976711 0.0800915 -0.009099601 -0.023936968 -0.21628398 -0.01202134 -0.001081632 -0.2336053 -0.05137837 -0.16555607 0.28322017 0.0031588806 -0.14305092 0.10238614 -0.2345091 -0.055465113 0.0049532657 -0.050526876 -0.34265715 0.023397671 0.041147728 0.10701766 0.037337776 0.10095411 -0.12768689 0.0016535836 0.2785091 0.0023945114 0.15379268 -0.028570564 0.025518242 -0.08761224 -0.042244714 -0.14133307 0.057793207 -0.21310717 -0.12777904 -0.0595788 0.0432068 0.007934803 0.06813663 0.25102395 -0.10297733 0.077320196 0.35070193 -0.12297231 -0.19665599 0.069592446 0.054551773 0.2858231 0.07466202 0.2427499 0.070017725 -0.12014907 -0.22416984 0.11907387 0.23006423 0.05703423 -0.046938177 0.13336796 -0.19501796 0.10712915 -0.21079266 -0.3196171 0.044421412 0.09825995 -0.10192102 -0.004191316 0.12837322 0.15474068 -0.017773833 0.07395927 0.030508399 -0.32290006 0.023782322 0.3599578 0.015674813 0.12562265 0.1181958 -0.084269576 -0.107163794 -0.09877254 -0.11785198 0.07989232 0.0071929665 -0.09211866 0.2533822 0.12289876 0.02384323 0.16726008 -0.1284717 0.055978075 -0.10491368 0.09070057 0.016303645 0.14491564 0.08994234 0.041296624 -0.009002573 -0.146979 0.082397 0.18442146 0.064918466 0.08939378 -0.09242357 0.026513463 0.021214081 -0.14387208 -0.015913134 -0.030822165 0.09667311 -0.15138212 -0.14385785 0.08491483 -0.060077015 -0.16889843 -0.044023067 0.104736194 0.1462209 -0.044309095 0.2044687 -0.26993066 -0.10882215 0.059277777 -0.09327332 -0.05781198 0.14899775 0.024026446 0.07740806 -0.11571894 -0.058187954 0.32924426 -0.15269946 0.0717968 0.22042298 0.19870733 -0.090525985 -0.11020953 -0.1076618 -0.04785126 -0.16930842 0.113242276 0.18527496 -0.0834493 -0.27948195 -0.21718013 -0.1678926 -0.0041927053 0.18242599 -0.13946238 -0.1655892 0.06895602 0.03990899 0.13416524 -0.17069416 0.05204495 -0.27902362 -0.13228449 -0.062422644 0.08584016 -0.1560302 -0.03330533 -0.21956703 0.23117946 0.239819 -0.089896 0.05450812 -0.046290778 -0.16404149 0.18520327 0.010133989 0.015947543 -0.07953328 -0.26234916 0.011394545 0.025838189 0.13111152 -0.07182771 0.17133816 0.22517829 -0.07418289 0.11992767 -0.18713832 -0.087449975 0.29116625 -0.22405204 0.07848493 -0.16128297 -0.26735345 0.15954442 -0.14097981 0.07684067 0.019736508 -0.017307227 0.20864731 0.11991833 0.13980705 -0.15840647 0.06889724 -0.07708433 -0.15980402 0.0009982258 0.022849804 -0.082851246 0.07978374 -0.030816846 -0.11458566 -0.11003312 0.06313194 -0.1443121 -0.24645951 -0.05774438 0.15615956 0.100075915 0.046829216 0.06280923 -0.0052198237 0.0793534 0.22189207 0.1271805 0.04893414 0.2946675 0.1558056 -0.16169582 0.10379863 0.025050739 0.1479214
contato -0.08938666 0.22420132 -0.095390365 -0.047490712 0.020054005 -0.14672759 -0.026234116 0.17790961 -0.07484377 -0.18276128 -0.08291719 -0.32712865 0.12626246 0.016031371 -0.321004 -0.36801937 -0.038174164 0.1565224 0.30914235 -0.117196806 -0.022207115 -0.23579268 0.002876229 0.11657515 0.031188982 -0.010848799 -0.11795163 0.41761807 0.018108513 -0.016862838 -0.11748103 -0.16308989 -0.0078405235 0.16659461 0.18311356 0.008640789 0.23766473 -0.1445724 -0.24386606 0.02513426 0.12697452 -0.096501924 -0.2786347 -0.03674861 0.18777207 0.16122283 -0.014542836 -0.1907099 0.22729595 0.020276174 -0.10409955 -0.10283684 0.23959729 0.38099727 -0.124876484 0.36740613 0.20171487 0.23565537 -0.11530627 0.24591956 0.073032334 0.14478773 -0.069193125 -0.26963958 -0.03242666 -0.20026837 -0.022044973 0.021820476 -0.005617871 0.12948188 -0.2812208 0.1250357 0.06910874 -0.14399971 0.23172425 0.08776243 0.41688973 -0.13599429 -0.069680266 -0.15084021 -0.31790295 -0.082088 -0.0112969335 0.26405224 -0.35340098 -0.16188115 -0.22011563 -0.29692882 0.061845995 0.31094784 -0.1272724 -0.26178315 -0.12030347 -0.1650344 -0.010589638 0.21834773 0.31223541 0.007555753 0.02572868 0.16822197 -0.2273751 -0.02464459 0.045178544 0.22478871 0.12538463 0.022545997 -0.4743094 0.55684745 -0.092261605 -0.026137566 -0.23047838 -0.39503023 -0.05861099 0.23360234 -0.25388786 0.08800194 -0.041671682 0.25889772 -0.1283624 -0.12408333 0.17289223 0.0644828 -0.0826078 0.07117192 -0.10607715 0.18813074 -0.10304228 -0.20781025 -0.011040129 -0.0026325283 0.056527194 -0.08058392 -0.079881646 -0.20252465 -0.15473317 0.033369657 -0.04374986 -0.016346723 -0.080318525 -0.16678576 0.036844607 -0.49302194 -0.021282427 0.20454134 0.11282047 0.022746176 -0.2797096 -0.12161021 0.26728585 -0.045566633 -0.08994583 0.05228078 0.17241424 -0.04667161 0.17407268 0.14373015 -0.011224534 -0.26224446 0.04609711 -0.024288056 0.016853858 -0.0071196407 -0.0973763 -0.21610098 0.020426767 0.022136642 -0.21692355 0.39126047 0.13503158 0.18062153 -0.20572934 0.10214334 -0.03959842 -0.12850216 -0.09743993 -0.23640049 0.22151197 -0.029013654 0.35992315 -0.053600743 -0.19921361 -0.1015081 -0.046753634 0.15565585 -0.10318 -0.029969703 0.05522882 0.2725742 -0.11728619 -0.07121564 -0.06091617 -0.058210865 0.018169207 0.083365045 -0.17308192 -0.017448165 -0.22122677 0.014152405 -0.31982976 0.09159349 -0.05642332 0.16592607 0.36581165 -0.11273529 0.05875856 0.21936332 0.3883946 0.11775208 0.14451934 -0.23942836 -0.045283657 -0.07835363 0.15893754 -0.072540805 0.2564939 -0.05616155 0.024427354 -0.21343094 0.060088478 -0.09011155 0.14025302 -0.09354457 -0.32787567 -0.088554665 0.010483429 -0.023713833 -0.16382281 -0.18943319 -0.17074499 -0.0070157796 0.09625988 -0.09663624 -0.004635726 -0.34499812 -0.09751795 0.12469988 -0.21956056 -0.014868543 -0.007410307 -0.10442346 0.121668756 -0.2799069 0.11067188 0.10337386 0.17727694 -0.39009628 -0.035459455 -0.124177985 -0.16054533 0.14693816 -0.008853758 0.29706687 0.07539748 -0.2589101 0.08941066 -0.024308888 0.05552488 0.39156094 -0.14962679 -0.26579675 -0.26467416 -0.26907963 -0.054498065 -0.09399234 -0.059381455 -0.051943168 0.35452724 0.19520381 0.18157665 -0.14152183 0.05357742 0.11579214 0.012522674 0.001728238 0.38840598 0.26359665 0.010864584 0.23043847 0.15402508 0.017688692 -0.062508464 0.12467673 0.10697767 0.07304405 -0.08063335 0.31360945 0.07184267 0.18460707 0.15984873 0.012258811 0.12439288 0.13193299 0.2156276 -0.25132254 0.19647783 0.5499139 -0.10439032 0.006410013 -0.119080104 -0.118618585
nota -0.07271522 -0.1403147 -0.15628548 0.35210165 0.092940286 -0.12435022 0.06415587 0.37227067 -0.029047694 0.085008375 -0.0739603 -0.38756126 -0.15523347 0.11599297 -0.055706356 -0.13252631 0.35825086 0.10485339 0.21328852 0.020154506 -0.12470878 -0.07587618 0.07991769 -0.14249316 0.3767501 -0.14194052 0.000502203 0.2644957 0.025882602 -0.4056327 0.2211083 -0.10210739 -0.118053466 0.04239366 0.26432982 0.13672532 0.299729 0.049070396 0.031134088 -0.07546574 0.018221295 -0.012150139 -0.034671664 -0.16643547 0.13805774 0.14868483 -0.025609536 -0.13057636 0.33156118 -0.10169454 -0.07625805 0.060968008 0.21856664 0.112123504 -0.22292607 0.4049936 -0.101858795 -0.031084493 0.3243272 -0.08693564 0.016539667 0.051127672 0.19541001 0.010443271 0.109475784 0.23644379 0.35742658 0.22997482 0.023217713 -0.06299986 0.3276884 -0.08059006 0.39238063 -0.0071616373 0.00875415 -0.01822209 -0.113991946 -0.020094931 -0.36569574 -0.13810663 -0.038656738 -0.15324059 0.015461972 0.22571683 0.34916508 -0.03974153 -0.0371132 0.025052363 0.024445493 -0.3684869 0.2557676 -0.09051234 0.26207295 0.22158349 0.13309732 0.21744761 0.42191675 -0.18732719 0.13508053 -0.019644437 0.12601572 0.037292127 0.33611998 0.14791183 0.21450017 -0.11926158 0.047533248 0.14830364 0.03929341 0.008583649 -0.14835778 -0.09865955 -0.054403946 0.2784996 -0.24090417 0.08591361 0.08323795 -0.1489854 -0.17983814 -0.28353238 -0.08633807 -0.052148085 -0.24302936 -0.036391266 -0.13867643 0.35548627 0.13571276 -0.34517542 0.1454654 0.13896203 0.3554601 -0.036831517 -0.20951165 -0.05614579 -0.27893484 -0.01610926 0.03489771 -0.20351872 -0.3273215 -0.19329122 0.10264686 -0.01638825 -0.15518104 0.015546279 0.13830726 -0.14287552 -0.15327702 -0.18592319 0.28547713 0.08028053 -0.27765876 -0.10516263 0.034624744 0.12516725 0.2776606 0.050791673 0.05054567 0.08384292 0.46608305 0.041256372 0.076157205 -0.015685208 -0.055599146 0.065445326 0.0014958616 0.2768922 0.11185276 0.020702738 -0.043562002 0.32143223 -0.23580733 -0.15263824 0.20069677 -0.030087553 0.082152136 0.055182237 0.14286633 0.20109311 0.27663794 -0.34174123 -0.21656041 -0.079412036 0.20590405 0.07256195 0.011430013 -0.18043478 0.14598404 0.10940068 -0.27738956 -0.1879046 -0.04558578 0.19262055 -0.27844104 -0.011572601 -0.23319319 -0.3812457 -0.19744073 -0.008660176 0.13752219 0.39949745 0.063005924 0.047737848 -0.10057229 -0.2524687 -0.062992424 0.3348341 0.15280797 0.13086744 -0.044213146 0.17288007 0.08904497 0.12556452 0.11505222 0.009013313 0.20082974 -0.17487074 -0.18454802 -0.106651 -0.17122908 0.04894157 -0.23062374 -0.098977454 -0.56870955 0.10962541 0.15564698 -0.078508765 0.13229974 -0.27491978 -0.08443127 -0.12801348 0.11109235 -0.25306195 -0.06425352 -0.014816891 0.021074265 0.03785006 -0.020223813 0.16659915 0.12804945 0.01030519 0.23856801 -0.34884605 -0.4038995 0.4643695 0.026225902 -0.3352983 0.06304508 0.12095877 -0.14428692 0.28381768 -0.076406345 -0.06952759 0.004228034 -0.15643488 -0.23485759 0.28266338 0.13115413 -0.055575605 -0.30430508 -0.26339847 0.03991863 0.1080727 0.38255784 -0.32083285 -0.17729266 0.05077859 0.2273277 -0.04458294 0.16479531 -0.17847888 -0.08564586 0.113293834 -0.13825558 -0.08581813 0.17349935 0.2798742 -0.019217862 0.08210826 -0.17312661 -0.08580019 -0.08264869 -0.07927863 0.070747405 0.019628836 -0.219156 0.5247487 -0.105311275 -0.044133376 0.009934247 0.2678762 -0.2573843 0.10099573 -0.14866887 -0.31586033 0.4552835 0.09168625 -0.11072875 -0.219139 -0.11414361 -0.22594331
atendimento -0.06359194 0.1840767 0.0022633637 -0.012951673 -0.05449849 0.00030734017 -0.0042082444 0.15187079 0.055739656 0.12444815 0.12351713 -0.07598269 0.26253784 0.063058235 -0.15541346 -0.28418848 0.17663483 -0.2758677 0.099095486 -0.028739145 -0.05491582 -0.22375374 0.006795242 -0.024237582 0.111613385 -0.031854562 -0.50127375 0.012678889 0.08642911 -0.18037364 0.021352258 -0.062201206 -0.059134774 0.110862754 0.12320793 0.083936885 0.036045894 -0.31205708 -0.094690986 0.122431055 -0.020136455 0.102837674 -0.15338458 -0.18309724 -0.069943145 -0.11525617 0.045704257 -0.33717734 0.07307669 -0.00987287 0.08967193 0.24475801 0.1528112 0.27320918 -0.0029232795 -0.14721058 0.08072561 0.109922305 -0.15569197 -0.056022834 -0.01158048 0.011722457 -0.056088485 0.1051386 -0.09344355 -0.12630947 0.2029988 -0.032562964 0.061050255 0.00733609 -0.01812818 0.26962954 0.2018775 -0.05739173 0.002048659 -0.07613623 0.08158493 -0.24022502 0.15577292 0.45905155 -0.119337656 -0.31419295 0.17403734 0.25929514 -0.08229071 -0.07139871 0.028301802 0.19666535 0.0662766 0.015602178 0.032353774 -0.15659684 0.24996941 -0.090295866 0.033007197 0.20762226 0.095139794 0.08073454 -0.155879 -0.05733379 -0.048753828 0.029118044 0.27009702 0.2601138 0.1806122 -0.2052138 -0.230999 0.34135482 -0.09989812 -0.012993101 -0.022241112 -0.40181485 0.094361775 0.29637808 -0.020061113 0.14638785 -0.11439824 -0.11705181 0.31109548 0.16866788 0.025876516 0.21918015 -0.23998436 0.26663297 0.042931892 0.263782 0.10465956 -0.08815282 0.028153313 0.10147782 0.18543427 0.01764235 -0.12752064 -0.24789731 -0.06154453 -0.0100358855 0.29648003 -0.12969656 -0.26261142 -0.029160043 0.038945433 -0.44108307 -0.17213732 -0.15056372 -0.22147517 -0.048358444 -0.23171979 -0.16538294 -0.018669985 -0.031985383 0.081935115 -0.049514823 -0.0638591 -0.13782181 0.30309975 0.19348758 -0.01498391 -0.10040745 0.09295472 -0.0031728987 -0.37891412 0.01416053 -0.17115626 0.0486721 0.029950459 0.31017464 -0.21930556 -0.070791304 0.07469045 0.4548184 -0.35401204 0.17894389 0.036410347 0.09740443 0.10527069 -0.14248037 0.16027613 0.032738473 0.17987865 0.1107824 -0.4040477 0.03785845 0.018598936 -0.17040765 -0.3060135 0.15305112 0.21352749 0.32522413 0.38239002 -0.21038131 -0.16991259 -0.1438366 -0.15467279 0.0855237 0.13640186 -0.14254661 -0.08223709 -0.16427082 0.14096688 0.21819441 -0.11868858 0.13611148 0.12134371 -0.35271025 -0.10337017 0.101707265 -0.020189198 0.16531138 0.09082977 -0.02501073 -0.03470196 0.009754149 -0.055203993 0.018154263 0.4115619 0.22517042 0.1891815 -0.3384757 0.077134915 -0.10778528 -0.052076466 -0.012010579 -0.12600932 -0.285051 -0.21905214 -0.051520947 -0.06964311 -0.19699761 -0.020064687 -0.009077859 0.24814767 -0.23399042 -0.23041761 -0.19267873 -0.23196307 0.124854 -0.0015697436 -0.10247692 -0.008270173 0.01079393 0.2350725 -0.037308197 0.02906993 0.06454784 -0.14010368 -0.3756121 0.04238232 0.014631405 -0.26196504 0.22335105 0.23372409 -0.07222971 0.05143398 0.22914875 0.009967591 0.008264929 0.1792539 0.14121214 -0.22800902 -0.048621453 0.11232957 -0.17070302 0.048896044 -0.05644443 0.060061466 0.1091346 0.2596468 -0.004451057 -0.03525134 0.12671147 -0.08988068 0.07437683 -0.12972593 -0.24933174 0.38278452 0.061184485 0.1212288 0.2586019 -0.009537989 0.11032703 -0.102762125 -0.07447144 0.089108706 0.1543732 -0.12333267 0.25816488 -0.40053424 0.45966715 0.17162733 0.28989795 0.11951841 0.022621445 -0.098117515 -0.09431665 0.1976587 0.3897933 -0.008527837 -0.2865503 0.021031087 0.0012288765
falar -0.12314505 0.14676256 0.021165036 -0.42341393 0.10078689 -0.25507057 -0.049384415 0.17936616 0.08276173 -0.32054025 0.16232201 0.111889765 0.0383064 0.35849294 -0.17524944 0.06375255 -0.28401995 0.14753231 -0.09399104 -0.2547792 0.06232296 -0.04875989 -0.2304957 0.3371226 -0.07947657 -0.119147874 -0.11374227 0.39296108 0.07634746 -0.16604038 0.02177709 -0.019306237 -0.053637225 0.0612347 0.16323042 0.15363991 0.08583237 -0.036968026 0.1641326 0.204488 0.049866777 -0.17271456 0.16254304 -0.0019458081 0.24024923 -0.122211866 0.428852 -0.02322898 -0.08221319 -0.09558297 0.061663747 0.14198631 0.04992464 0.08102681 0.2950723 0.12723054 0.19356148 0.14825374 -0.018767022 0.22855072 0.42994487 0.20763178 -0.03623294 0.10506192 -0.20318472 0.0053422414 -0.08271525 -0.056875978 0.06704319 0.45437497 -0.075999096 -0.040115308 0.19982348 0.0031333151 0.3047772 -0.04415135 0.036155194 -0.11195128 0.0659553 -0.053688746 -0.11988933 0.015509355 -0.26881376 0.31892228 -0.09383468 -0.06726836 -0.034406338 -0.085031696 0.15263699 -0.02513148 -0.042413116 -0.21252768 -0.13723484 0.17682242 0.061676744 -0.1398256 0.32744342 -0.05956078 -0.23612542 0.043644216 0.12099534 -0.111230664 -0.20302984 0.21733859 0.19843255 0.10590497 -0.12409314 0.3695755 -0.15785347 0.31489378 -0.14438118 0.14133954 0.067148626 -0.08923255 -0.21077189 -0.15273155 0.12648992 0.24376379 -0.20685154 -0.026718006 -0.063943215 0.2741558 0.018905375 -0.104329914 0.09363178 0.07342019 -0.12030503 -0.36391124 -0.19205222 0.29620618 0.21804845 -0.23861659 0.02887329 -0.27713093 0.12756532 0.27965164 -0.072282866 -0.15107168 0.072354324 -0.18371536 -0.008099796 -0.2933825 0.04508414 0.29497406 -0.029942138 -0.09433806 0.0764923 -0.07101044 0.09985333 -0.038956974 0.012030221 -0.20001033 -0.1505396 -0.2877926 0.34586343 -0.24091719 -0.15767536 -0.09007261 -0.29669556 0.2011836 0.22556359 -0.09315034 0.07213813 0.15178314 0.2945899 0.09858594 0.33563676 0.0026096003 -0.02448717 -0.21694584 -0.20115599 -0.4007294 -0.12879243 -0.0056510535 0.10592867 -0.14503032 0.06564378 0.014228697 0.30319154 -0.07102032 0.007870887 0.21699607 -0.17382926 -0.22411944 -0.29770577 -0.023424046 0.111267075 0.25083095 -0.12778646 0.14554244 -0.19964676 -0.0066672014 0.11408102 0.17792755 0.20747688 -0.17436434 -0.291922 0.15877917 -0.111133 -0.15115954 -0.17965472 0.0419928 0.10842201 0.3403617 0.18071137 0.070085995 0.19022508 0.085474364 0.05973351 -0.022772014 -0.16895647 -0.17059201 -0.11865727 -0.22662985 -0.12249975 -0.13075554 0.113290966 -0.40090725 0.044231746 -0.2427092 0.31420955 -0.04055646 0.042118993 -0.089287415 -0.34401214 -0.124618106 0.11661878 -0.08909685 0.23678496 0.00303535 0.1120062 -0.052848335 0.10412233 0.28076538 -0.19447805 0.2240397 -0.018571693 0.23602538 -0.27120313 -0.1625876 0.077846564 -0.1747129 -0.16983368 0.030789167 -0.14228946 -0.11147764 0.01638542 -0.38126132 0.19976117 0.14508735 -0.046747368 0.30440345 0.31114155 0.11884033 -0.13547505 -0.19912302 0.18911473 0.15729748 -0.29913908 -0.11640837 0.23601289 -0.3094516 0.16626132 -0.121762976 -0.13107033 0.048190407 0.15302835 0.21765761 -0.44449028 -0.029888364 0.041982774 -0.13201801 0.05997771 -0.044577982 0.1812001 -0.1289159 0.049847435 0.21810856 -0.062361516 -0.009871209 -0.015173305 0.04629994 0.060940888 0.13468109 -0.032867413 0.11733335 -0.04937128 0.20564777 -0.10694069 0.06979773 -0.026179127 0.062241804 0.13094226 0.24884811 -0.13411 0.1965466 0.025416093 0.077171534 0.04472549 0.22390953
né 0.17690118 0.34789768 -0.06315868 0.09058451 -0.02324716 -0.17829119 0.06488329 0.18394035 0.16373286 0.02958605 0.24454248 -0.32456395 0.1463063 0.08684192 -0.194746 -0.19157045 0.3680519 0.1195816 -0.05260481 -0.036391065 -0.032112066 0.013555119 0.088075414 0.006074172 -0.006233102 0.11945823 -0.20598237 -0.14572743 -0.239714 -0.26496512 0.11838786 -0.07534422 0.06515839 -0.11577538 -0.32274282 0.16091654 0.0013361576 0.2890189 0.13364275 -0.11806066 0.07000647 0.03126641 -0.20365657 -0.28209406 0.08898336 0.073551625 -0.14245181 0.30968955 0.082842484 0.03422353 -0.1267224 -0.037104152 0.0930466 0.24686268 0.09495972 0.051650576 0.4438889 0.24054968 0.022453938 0.013153267 -0.035366654 -0.22012687 -0.05139339 -0.04963104 -0.11132194 -0.2571102 -0.37761435 0.036292426 0.18227519 -0.1012438 0.032559555 -0.04931083 0.08819728 -0.085207455 -0.07901984 -0.17513509 -0.19432524 0.18754438 0.114257 -0.03542217 -0.08658362 -0.11275217 -0.21888694 0.02907037 -0.035417136 -0.3017967 0.13712992 -0.05236448 0.0063826544 -0.12645291 -0.2067861 -0.14793943 0.024311844 0.1876434 0.16505978 0.034750946 -0.15828224 -0.1053705 0.13682923 -0.17264704 0.040389396 -0.08240164 0.15209483 0.069689356 -0.17488737 -0.0122956615 -0.102950454 -0.22596896 0.03027705 0.26332745 -0.06351629 -0.1061131 0.21535349 0.012462914 -0.1477705 0.034563914 0.249952 -0.14015174 0.3237222 -0.1483004 0.17865393 -0.07234476 0.13183992 0.010565426 0.1198267 0.060412526 0.028792923 0.008254444 0.14376745 0.16399911 0.23740049 0.14709292 0.14891541 -0.48494497 0.36094347 0.08003089 0.07049483 -0.23641178 -0.09739573 0.16930085 -0.09174218 -0.043509357 -0.04013663 -0.16913489 0.20374672 0.03586894 -0.18918353 0.0808523 0.060530715 0.024706434 0.09817676 -0.039202515 -0.21646526 -0.09676386 -0.040001094 -0.1081262 -0.19996126 -0.014914983 -0.048450712 -0.023713356 0.014045327 -0.023754492 0.05536877 0.26920888 -0.07292088 -0.21834068 -0.08026971 -0.13451412 0.21003415 0.11631959 0.31423318 -0.037503242 0.036135014 0.13415213 0.074112274 -0.10811071 -0.010510032 -0.0061356477 0.084692106 0.15591614 -0.12877382 0.0532781 -0.12874398 -0.12810162 -0.26217324 -0.19048949 -0.023670793 -0.005789469 -0.2401721 -0.25014207 0.15334725 0.030198717 -0.1491799 0.007415117 -0.12537266 0.0068044243 -0.1337981 -0.24816892 0.2324391 -0.17731056 -0.04703994 -0.021317143 -0.09918888 0.03833382 0.16252208 -0.09634944 -0.15123647 0.04803466 -0.38914466 -0.18247825 -0.22179283 -0.07520006 0.088749915 0.0033654247 0.1376282 0.01560547 -0.0020163786 -0.13553639 0.059204936 -0.31973028 -0.19009177 -0.17304915 -0.12972204 -0.20458205 0.039198156 -0.0013358633 0.3394852 0.09182781 0.0018264995 -0.118226334 0.02321402 0.11233076 0.108785704 -0.056369983 -0.05627058 0.10345468 0.40662965 -0.11005404 0.21195376 0.045691445 -0.15274459 -0.35459122 0.11402664 0.06855386 -0.17837065 -0.089158334 -0.01437359 0.12357879 -0.08483673 0.054537013 -0.30580893 -0.052425835 -0.023938075 0.135324 0.06422999 -0.14315236 0.045446604 0.07075629 -0.019730382 0.1498942 0.08702924 -0.072299525 0.041757014 0.18787408 0.061052177 0.06102863 -0.033687025 0.14074051 -0.32576638 0.17634991 -0.074340716 0.3664624 -0.104268655 -0.10908261 -0.18457578 0.0046838406 0.05775009 0.34315518 0.17073701 0.22322068 0.10502957 0.052932188 -0.10737795 -0.09509099 -0.001533712 0.051533755 -0.2066418 -0.019878095 0.09597899 0.26840466 -0.051025197 0.31073532 0.05042167 -0.10330826 0.053055737 -0.14136149 -0.09384359 -0.26966769 0.05804449 0.09154477
senhora 0.19012277 0.16795462 -0.17170659 -0.09547764 -0.06975541 -0.13589941 0.2052802 0.10202066 0.23366866 -0.031505696 -0.054021496 -0.12660037 0.3400992 -0.351264 -0.20812197 -0.5004309 0.16363533 -0.27385843 0.089811414 -0.3425841 0.21472788 -0.40468815 0.09301105 0.15874869 -0.2340772 -0.05899131 0.007089138 -0.275435 -0.038351566 -0.2546229 0.15100941 0.06705799 0.19485004 -0.15618657 0.106467515 -0.39048627 0.22485054 -0.04240384 -0.09558339 0.33860487 -0.01163887 -0.11892666 -0.027941685 0.03713319 -0.039302513 -0.23850183 0.021004068 -0.063657865 0.07058812 0.19194807 -0.037431393 0.1403288 0.016240912 0.25723672 -0.14802928 0.43900695 0.22368957 0.12780993 -0.22974508 0.11113598 0.38232026 -0.24295332 0.1364054 -0.09697571 -0.08671486 -0.12206215 -0.22361939 -0.07146287 0.056062013 -0.09329011 0.17956644 -0.34314463 0.14837685 0.07357735 0.0648385 -0.08587868 0.0030829732 -0.1438856 0.06823469 0.00811741 -0.014282566 -0.2211519 -0.18296939 0.23818752 -0.1518673 -0.18982857 0.027790504 0.20117956 0.120261654 -0.0024131285 -0.10172627 -0.2824261 -0.07389691 0.15023123 0.2501569 0.12141145 -0.15855955 -0.022318484 -0.28530136 -0.20836805 -0.20470048 -0.19284809 0.24242048 -0.061780855 -0.19816995 -0.17298341 -0.29574898 0.18530405 0.13385418 0.032870747 -0.08367117 -0.15779577 -0.036526166 0.24100098 -0.09145328 -0.2542299 0.1453662 0.017339433 0.10177224 0.0041959686 0.050763804 -0.04337667 0.21582238 -0.09505318 0.060389005 -0.011998051 -0.038343966 0.07702514 -0.16761635 0.10949517 -0.045943823 0.06515091 0.06212589 -0.39715344 0.031337846 0.017747048 -0.2029559 -0.2397969 -0.052254062 0.038031295 0.2908602 -0.01742037 0.34118015 -0.18479285 0.057179756 0.0016867535 0.028318202 -0.058848396 0.09560361 -0.09398314 0.049977247 0.12982151 0.029517436 -0.30503812 -0.12908636 -0.021256112 -0.274138 -0.02283133 0.028626468 0.10160313 0.22926836 0.057456236 -0.06275389 -0.04204691 0.1831285 -0.10905366 0.09840027 -0.08559558 0.071083575 0.41034034 -0.18950322 0.20253205 -0.11132459 0.04451716 0.15793002 0.17937608 -0.041361436 0.15950161 0.18306904 0.12083644 -0.21584776 0.02436953 0.0050835395 -0.07404434 -0.28512418 -0.012657485 0.091813736 0.028157933 0.20960437 0.17484096 0.18293451 -0.17816034 -0.0057375445 -0.10448946 -0.011520637 -0.1618499 -0.22350898 0.070614316 -0.14995934 -0.15186355 0.08596615 -0.20927246 0.04191799 -0.23946686 0.1743419 -0.011049258 0.23037104 0.16151218 0.1590057 -0.29298338 0.12750772 0.10269691 -0.2270477 -0.11879208 -0.0006303188 0.29355162 -0.10432637 -0.2674232 0.033134803 -0.077260464 -0.19870162 -0.25216192 0.20342499 -0.0065611335 0.025598451 0.047327153 0.2967328 -0.048127312 -0.13235672 0.1740801 0.20095937 -0.1291084 0.32731333 -0.1673892 0.18451479 -0.009860774 0.049693782 -0.25590923 0.10902013 -0.06471127 0.019115381 -0.30631033 -0.036364403 0.0012698288 -0.043336906 -0.20501368 0.22901726 0.023343429 -0.06720925 0.29457453 -0.039082304 -0.10355929 0.03710804 0.11675021 0.23034023 -0.18376152 -0.21441449 0.25034845 -0.15260783 0.17155781 0.15582985 -0.19373618 0.17357315 -0.007306761 -0.1335246 -0.13161744 0.3567194 0.0449369 -0.3874299 0.21522692 -0.14103931 -0.038155127 0.23819461 -0.09462675 -0.016853279 -0.07797769 -0.28192425 0.32841104 -0.05623713 -0.07494417 0.027926892 -0.18612203 0.032696716 -0.20398982 -0.026858764 0.13298234 0.14471579 0.3646127 0.06783109 -0.2073322 -0.0034191413 0.31484267 0.1452007 -0.029185545 -0.2236092 0.093241684 -0.044490725 -0.004358058 -0.16856429 -0.092929676
tchau -0.07708974 0.19988416 0.1414531 -0.038530998 -0.02843264 -0.3098235 -0.027621783 0.6004735 -0.33716896 -0.36952245 -0.11295928 0.049658302 -0.34238887 0.13644548 -0.020809308 -0.0079957945 0.1929876 0.14839996 -0.13015231 -0.16852784 -0.14963634 0.047637846 0.2166583 0.23264459 0.122399904 0.11837626 -0.08276107 0.15923043 0.13662443 -0.070727125 0.15088195 -0.14238548 0.28810024 -0.12650448 0.051026285 -0.041952953 0.20345287 0.43182263 0.2598351 0.10123959 -0.30107737 0.18779972 -0.08113918 -0.092903875 0.22993964 -0.026500454 -0.021527003 0.27101132 0.10583608 0.47136167 -0.17318198 -0.005704125 -0.30481982 0.06608379 0.0946403 0.1530678 -0.17144719 -0.017249662 0.1434201 -0.14055595 -0.25106066 -0.29643166 -0.36178002 0.08672286 -0.2184407 0.15748368 -0.1214139 0.06265865 -0.07817672 0.087883465 -0.15014915 -0.16898908 0.26817763 0.0015471971 0.11562505 0.06494646 -0.2663512 -0.07444525 0.04388689 0.019420946 0.029792199 -0.23593186 0.17518196 0.47319084 0.14865334 -0.06546381 -0.057453286 -0.16169031 0.28303075 0.46385983 0.31576747 -0.68291306 -0.22708258 -0.44184744 0.11521652 0.49131805 0.03653593 -0.24539256 0.014374781 0.21910517 -0.15441614 0.062253583 -0.29249728 -0.02825941 -0.0069574146 -0.24164855 -0.10907022 0.3654336 -0.15603375 0.16360223 -0.22399211 -0.22664832 0.18851633 0.1443843 -0.0036225263 0.037407573 -0.02167343 0.3883818 -0.31283063 -0.2954977 0.40109217 0.16863164 0.20640957 -0.07267032 0.02541914 0.029943978 -0.14919494 -0.7355455 -0.22145817 0.014323521 0.07147668 0.10411353 0.4044545 -0.6063384 0.16631891 -0.033260707 -0.22339942 -0.06269551 -0.047966797 -0.26546687 0.14504759 -0.2250275 0.29844028 0.026451113 0.32612148 0.06487956 -0.27581942 0.041397348 0.13663425 -0.059337273 -0.030634241 -0.3676976 -0.039727863 -0.547637 0.23308161 0.0014175881 0.21150078 0.04391641 0.07599857 -0.053283364 0.02772398 -0.13063152 -0.025785025 0.4638356 -0.1434855 0.21170436 -0.1311593 0.04308862 0.019073937 0.099603295 -0.023995847 -0.2685305 0.35158274 -0.20581643 -0.027070487 0.32163975 0.2424969 -0.2856317 -0.07032431 0.040038537 -0.23905218 0.35190052 0.10529916 0.017847871 0.20918305 -0.05154121 0.38859046 0.24976945 0.050793324 -0.015690329 0.07480315 0.07918839 -0.026051816 -0.064539365 -0.07985966 -0.04477054 -0.1294502 -0.022844557 -0.17283694 0.016195184 0.011237897 -0.10518279 0.17417794 -0.11797569 0.37924775 -0.06282656 0.36900935 0.08409346 -0.056017876 -0.36464128 -0.020919213 -0.41624534 -0.03434536 -0.2244884 0.2758576 0.262633 -0.111727424 -0.15863349 -0.14908817 0.00035813922 0.19850773 0.08183773 -0.18685324 -0.42911875 -0.21384302 -0.28065246 0.09308005 0.30594617 -0.12512857 -0.06497378 0.086423695 0.0099889375 0.2649574 0.087663025 0.08787222 -0.24557713 0.12213775 0.057332657 -0.03542298 -0.5094254 -0.019536033 -0.3263042 -0.21856473 0.013276196 -0.07321756 0.014271749 -0.32848436 -0.032287907 0.15132739 -0.08770878 -0.0012603448 0.14864181 0.128653 -0.3912253 0.10865725 -0.042766523 0.06715744 0.118011326 -0.45298767 -0.07379891 -0.30450225 -0.007477212 0.20740853 -0.44257587 -0.025310991 0.026336988 0.12942533 0.07179545 -0.262675 -0.056631584 -0.34112102 0.042431284 0.19307616 -0.11186568 0.28670245 -0.17404915 0.31054667 -0.30144882 -0.1366734 0.21732274 -0.26399913 -0.109179646 -0.2647535 0.25277102 -0.27522448 0.038646396 -0.012845356 -0.0052422285 0.30352822 -0.0611417 0.09380878 0.41259614 0.44718963 0.0020054341 0.10257344 0.36211228 -0.36540467 0.29816297 -0.041471876 -0.22242765
empresa 0.018034711 0.34327337 -0.024099842 0.27163047 0.0087267235 0.13743222 0.103491515 0.10679143 0.08102469 0.075563595 0.31048676 0.131184 -0.096515514 0.08402923 -0.23354769 -0.101648435 0.22990122 0.48623952 0.18762317 -0.117453225 0.11894289 -0.36521286 -0.20961851 -0.00048462197 -0.17070344 -0.06739469 -0.027760493 -0.25479433 -0.2689992 -0.069139645 -0.38431284 -0.0029726936 0.22960304 -0.21967746 -0.3300527 0.2508046 0.06853722 0.14877158 -0.09981522 0.13675068 -0.15191326 0.105018206 0.08919234 0.06522697 0.4739809 -0.11581507 0.012456398 0.2866574 0.1633504 0.17273116 -0.17865 0.08011503 -0.25700316 0.08403336 -0.072131485 0.045371376 0.406018 0.13577491 0.25059637 -0.3211462 -0.057901032 0.057153948 -0.36702275 -0.053728472 0.09543864 0.0102537405 -0.23667537 0.37350795 -0.099758685 -0.23321618 -0.12668358 -0.19227982 -0.10419227 0.122066624 0.23709045 0.053632762 -0.07371432 0.09592407 -0.08046046 0.02161414 -0.29170808 -0.14151244 -0.2937707 0.060004644 -0.07219463 -0.2529225 0.14249004 0.008955869 -0.045735992 -0.3693611 -0.11297763 -0.23977284 -0.13245055 0.15567917 0.4224853 0.30731538 -0.045896452 -0.19275078 -0.08545177 -0.22126885 0.0040857913 -0.08959192 0.028604427 0.06264495 -0.0068817264 -0.07732098 0.08149365 0.06991639 -0.15715042 0.25373507 0.003063955 -0.007486341 -0.24225853 -0.022647489 -0.20654914 -0.2792774 0.057109337 0.2703195 0.023509849 -0.12507142 -0.0014591523 0.05476656 0.24667563 -0.0034468262 0.03644047 0.13877359 0.09507311 -0.20436707 0.09765894 0.25531232 -0.12143429 0.12143993 0.47334188 -0.47484753 -0.048398767 -0.11783172 -0.17616205 -0.04856449 0.24827741 0.06393673 0.14576611 -0.12869103 -0.05420721 0.095368996 0.17352559 0.049417805 -0.05644168 0.0012176114 0.13389966 -0.18282355 0.26351756 -0.1270277 -0.14814867 -0.18836865 -0.24945849 -0.23071021 -0.25277063 -0.07516815 -0.118418194 0.124637224 0.23188297 0.009400937 0.10810554 0.011847458 -0.04280773 0.10876321 -0.13933146 -0.13634689 -0.16183233 -0.10803606 -0.080109 0.36443278 0.0071268277 -0.043815497 0.1637974 -0.026109753 -0.3131034 0.24535386 -0.3426002 0.12324228 -0.20033096 -0.02168725 -0.1918984 -0.097333096 0.01300745 0.0061867475 0.49478668 0.00874921 -0.07009195 -6.898277e-05 0.0800062 -0.0047843615 -0.009434734 0.25012985 0.163517 -0.066489086 0.094679214 -0.06329959 -0.14215511 -0.10583863 -0.46363905 -0.26331052 0.28290093 0.28213325 0.17663099 0.10810716 0.2223176 0.27458015 0.04362043 0.029977357 -0.08548088 -0.13979846 -0.25701717 -0.030604258 -0.2684143 -0.017942395 -0.19302733 -0.05163247 -0.0853452 -0.025883745 0.08558944 -0.25666133 -0.09628718 -0.06532124 0.048920885 -0.25092945 0.1180096 -0.22688103 0.15055329 0.1941407 -0.17936844 0.08224798 0.24363644 -0.08504228 -0.027719261 0.15120076 0.30250594 0.07172195 0.06558371 -0.15721503 -0.104932815 -0.24062665 0.34826958 -0.24207062 -0.019125199 0.03965508 0.30399024 -0.17712496 0.20493567 -0.2086292 0.111698546 -0.10933548 -0.07929179 0.12202107 0.008846063 0.12372659 0.009643184 -0.013275895 -0.19894958 0.10252598 -0.013800378 -0.11199821 0.21265027 -0.16866043 0.019424414 -0.1630973 -0.10118938 0.03443789 -0.12416956 0.21939668 0.12894793 -0.015092303 0.044896837 0.070613004 0.11132195 0.17153652 0.037257258 0.26431295 0.15833011 -0.30622894 0.16484612 -0.20253482 0.06775878 -0.03840177 -0.006233424 0.20006081 0.03480142 0.04488389 0.03422066 0.030141352 -0.10991635 0.16783567 -0.07897473 0.22308482 -0.120451026 0.46356496 -0.3675771 -0.46167442 0.15079077 0.07665302
suporte -0.18983267 0.03538317 -0.17282897 0.045501534 -0.14890137 -0.00505541 -0.058135714 0.03505147 0.015360084 -0.038283322 0.09461578 -0.22390346 -0.06763366 0.1132145 -0.13643147 -0.29632813 0.3451751 -0.18588862 0.25377536 -0.1958342 0.032764066 0.09733895 0.12204346 0.10047908 -0.048815712 0.1617765 -0.3334984 -0.13731575 -0.035079982 -0.2991154 -0.0076922313 0.031604607 0.056564238 -0.002609447 0.039120957 0.2354299 0.08973158 -0.014628589 -0.11733928 0.0439618 -0.28813553 -0.008215524 -0.061074745 -0.31722108 -0.0036046798 0.0949691 0.21983844 -0.10506325 -0.08580037 0.0026139712 -0.14920366 0.29763073 0.11483972 0.29437056 0.4965214 0.081914544 0.03111561 -0.24766213 -0.24125955 -0.07233344 -0.120296255 -0.1477056 -0.17742634 0.12317537 0.1277381 0.23085415 -0.03942318 0.11938909 -0.087339215 -0.1674195 0.12316008 0.21527445 0.42452434 -0.05274664 0.10372084 0.057631496 -0.01790544 0.048765004 -0.27911618 -0.20767546 -0.12190935 -0.3110079 -0.14288424 0.3781782 0.08434352 -0.18933836 -0.050589606 -0.008765293 0.048407804 0.02689016 0.12748498 0.052489873 -0.009060635 0.24323408 0.08803489 0.26882994 0.08183583 0.12273626 -0.21974863 -0.26321355 -0.15571189 -0.04880433 0.20749605 -0.028834226 0.2613491 -0.34464842 -0.20247167 -0.0671456 0.17595161 -0.0059707873 -0.16415061 -0.20207311 -0.14908403 0.34060785 0.30821365 0.023026006 -0.1707658 -0.071212105 0.27774933 0.16595437 -0.113779455 0.13100393 0.08824978 0.06926363 0.20214495 0.10155561 0.31174016 -0.063289255 0.037937652 0.1767002 0.27433893 0.117594816 -0.048922196 -0.11354925 0.026056811 -0.08000019 0.19148065 0.14380978 -0.26319012 -0.010966081 -0.0005517218 -0.019518271 -0.18317099 -0.04721771 -0.3597384 -0.15870555 -0.20445505 -0.12825584 0.30143434 0.19852577 -0.06813095 -0.09658908 0.10341882 -0.19287547 0.37276062 0.09925788 -0.075268656 0.07351878 -0.04844403 -0.058667302 -0.21775419 0.051982153 -0.27234963 0.20179111 -0.074062526 0.091783285 -0.2011328 0.05676153 0.1534674 0.340838 -0.2128117 0.21499436 0.01103644 -0.13689767 0.18026744 -0.21823283 0.1466755 -0.037834655 0.49649 -0.03380945 -0.31909996 0.008813123 -0.12162783 -0.16033562 -0.065245025 -0.10922369 0.09271658 0.48614514 -0.004981546 -0.2583223 0.044080954 0.12536553 -0.08289777 -0.04330825 0.014947594 0.05834623 -0.013783067 -0.009420561 0.10192088 0.1281779 -0.2493374 0.3085665 -0.28069633 -0.38997534 0.17790034 0.21742284 -0.060729936 0.21593904 -0.113559216 0.12617253 -0.025722364 0.0058148867 0.37890667 -0.060036637 0.049252957 0.07623991 0.0034485792 -0.20574264 -0.025232168 -0.4264729 -0.09453698 0.23270154 -0.33012962 0.12716892 -0.014329003 -0.004318358 0.14957008 -0.30264148 -0.23243333 -0.07371299 0.21105935 -0.052829374 -0.35717708 -0.1220024 -0.42213708 -0.063256726 -0.057918135 -0.17231825 0.07085001 -0.33473456 0.1274651 -0.10015668 0.06739034 -0.16202834 -0.12398849 -0.265776 0.16965453 -0.036588915 -0.09405173 0.07903476 -0.06446149 0.06966315 -0.23087978 -0.13331513 -0.15090212 -0.12102873 0.21988066 -0.029660517 -0.4372465 0.13689888 0.21069567 -0.00016689813 0.18350421 -0.0031558347 -0.16822474 -0.10153152 0.21275842 -0.0831464 0.045016076 0.17075525 0.09027288 0.13596456 -0.21138619 0.01915532 0.013679737 0.014502402 0.19280858 0.32709235 -0.1253284 -0.07793559 0.23155001 0.028239155 -0.11552726 -0.050210427 -0.2279551 -0.070906505 -0.28387737 0.23676321 0.27381718 0.39165086 0.1991816 0.21680732 0.20061764 -0.17244785 0.17494513 0.2812788 -0.09135561 -0.33515522 0.14741914 -0.0013458488
hoje -0.02796293 0.13323501 -0.3478306 -0.12645158 -0.09135581 -0.13826832 0.28124923 0.19326954 0.198381 0.18076845 0.16714826 0.10578144 -0.1333263 -0.39542806 -0.015286004 -0.10982827 0.2540263 0.17630672 0.044984333 -0.23380312 -0.1494284 -0.37566042 0.040564854 0.1289858 -0.28061384 0.108864 -0.0034290885 -0.0059644245 -0.11826242 -0.12879585 0.28553304 -0.14588404 -0.15508929 -0.096184656 0.2694902 0.21614194 -0.24917033 -0.21328525 0.092746705 0.028593158 0.030150684 -0.065953456 0.1743321 -0.084314965 -0.0859539 -0.107925065 0.04935792 0.027845526 0.055936657 0.14143892 -0.23884198 -0.011053448 0.044682782 0.23728177 -0.19507915 0.42084432 0.26400104 0.32160226 0.14288788 -0.14300004 0.042029385 0.082550555 -0.22417365 -0.018438924 0.111093946 0.44936118 -0.04634694 0.023458706 -0.21254173 -0.14081071 0.056659877 -0.07168475 0.06305595 -0.06001576 0.018460033 -0.06381945 0.0063171443 -0.062641956 -0.156093 -0.14581332 -0.26190823 -0.08427509 -0.2017499 0.15375668 0.20646323 -0.07695413 0.15536177 0.000102139835 0.019430168 -0.20026946 -0.10710923 -0.18535902 -0.0304617 0.22879222 0.13172264 0.006970936 -0.008534649 -0.014271965 -0.4249597 -0.1214359 0.038918674 0.011455379 -0.076099806 0.13735543 0.20614354 -0.1613986 -0.06303529 0.13599262 0.003582258 -0.11766688 -0.04676637 0.03861152 -0.10421942 0.3717877 -0.095628284 0.17785442 -0.055533476 0.14419839 0.10668303 -0.26880518 -0.06283155 0.08935702 0.21319835 -0.08071481 0.069444425 0.07190319 0.10858426 0.105591826 0.088317186 -0.17375512 0.067554936 0.20441872 0.15070777 0.034432508 0.13099389 -0.13600142 0.12333107 -0.27866468 -0.20907876 0.12533249 0.18001151 -0.06329035 0.06479598 -0.1771677 -0.013796693 -0.1393112 -0.022324935 -0.057961877 -0.07263276 -0.0799792 -0.024413161 -0.0075282776 -0.21236733 -0.07740086 0.15591677 -0.184701 -0.17745559 -0.17426004 0.0684327 0.17235243 -0.049027875 -0.11998599 0.20184022 0.06566187 0.005846106 -0.010690148 0.32940552 -0.08269442 0.16960858 0.100493416 0.037174 0.17008069 -0.08632005 0.15588641 0.11591901 -0.36841908 0.08066472 0.028754842 -0.07316409 0.07322211 -0.18672183 0.09761223 0.05755918 -0.025312632 0.053950652 -0.06876459 0.21735947 0.09073075 0.077249326 0.0052377824 0.27519906 0.31556046 -0.3038012 0.23478812 0.13954327 -0.0071023465 -0.13675885 -0.10959415 0.16634324 0.41483158 -0.25463092 0.02192126 0.07230649 -0.016280036 0.29775605 -0.10048124 0.07051639 0.026068252 0.05960544 0.017419623 -0.0010389946 0.09320192 0.028646594 -0.37399438 -0.0032732114 -0.10153633 -0.14595337 -0.51859796 0.016396632 -0.048403498 -0.17138396 0.27242565 -0.010268593 -0.046237968 0.043897633 -0.19679934 -0.24428493 -0.14020136 -0.1763984 -0.26151776 0.13122648 0.13968441 -0.17631185 0.18558888 -0.07132793 -0.00056843716 -0.0068931375 -0.2830007 0.015770493 -0.47593424 0.3084049 -0.46679273 0.030043714 -0.11103854 0.22595343 -0.12634183 0.280001 0.018018255 -0.06633647 0.16565375 -0.15530926 -0.042519685 0.08023102 -0.06036439 -0.3986482 -0.1917647 0.31725436 -0.2655288 -0.102064826 0.038147263 0.27657396 0.17299862 0.2439928 -0.4117937 -0.09667808 0.032606006 0.0920251 0.18294328 0.19509327 0.2221396 0.16922553 0.15126075 -0.077542335 -0.04584714 0.04786837 0.23915859 -0.04139695 0.12615259 0.008684583 -0.07931877 0.10036981 0.008139585 0.048433296 0.08088095 0.12928285 -0.24932964 -0.16934264 0.1969048 -0.08362018 -0.17416649 0.08938546 0.317184 0.011188747 0.20234053 0.23319435 0.4846325 -0.18338929 -0.0333183 -0.09546075 -0.16323735
vou 0.09299849 0.32198197 0.13138351 -0.23105821 0.20663095 -0.5147764 0.14706808 0.5741401 0.1360232 0.19697022 -0.014494678 0.31450075 -0.034041945 0.12737681 0.32341155 -0.08594977 0.07379333 -0.11211219 0.33378664 0.1376868 -0.0627993 -0.07533614 -0.023950461 0.34206465 0.081067204 -0.14965856 -0.16664866 0.32744652 -0.3093121 -0.047013354 0.097922325 -0.09127809 0.07811878 -0.048061483 -0.027607681 0.16662964 -0.049523506 -0.2065372 0.096797 0.19553721 -0.37771702 0.14000909 0.04742034 -0.010733673 -0.11338439 0.2386976 -0.012903697 -0.053321324 0.025890179 -0.18725467 0.03100066 -0.13616395 -0.17096959 -0.18017615 0.14674293 -0.09167648 -0.10897893 0.105467394 0.1578986 -0.0014847354 0.08267185 -0.07863655 -0.01594006 0.25895965 -0.20694853 0.053245336 0.037018333 -0.078993805 -0.13428178 0.30499223 0.08116355 -0.05267546 0.33891878 -0.11674669 0.19023056 -0.03665537 0.056528356 -0.33393544 -0.06439873 0.10007296 -0.17492302 -0.080018975 -0.28530458 0.31497267 0.007760902 -0.19946651 -0.07251015 0.18140715 0.094944455 -0.12964727 0.23950587 -0.41569105 -0.10799606 0.0012320185 -0.034890674 -0.041918643 0.13983272 -0.105077974 -0.011883279 0.023721928 0.033712927 0.08979943 -0.04098455 0.043138828 0.3859352 -0.1190172 -0.17462252 0.094510384 -0.22523314 0.09528189 -0.15490073 0.10254256 0.073021255 0.07629723 0.24115859 -0.14847223 0.06368928 -0.030756876 0.16405632 -0.011059854 -0.03847742 0.025068361 0.05208382 -0.032499626 -0.0768413 -0.18273601 -0.2612502 -0.37352985 -0.16374864 0.10996912 0.24430257 -0.09947518 -0.07697325 -0.103467286 0.28661254 0.067244835 -0.135762 -0.26940623 0.11148145 -0.118769094 -0.07283757 -0.04913925 -0.08408381 0.12670109 -0.02950335 0.12738462 -0.0012408786 0.13490601 0.19934967 -0.075578295 -0.06912729 0.015754871 0.16030766 0.0014442946 0.14740622 -0.07369817 0.10520861 -0.08561148 -0.15240976 0.17470734 -0.20880368 0.034445804 -0.027406113 0.12802014 0.2527357 0.032810807 0.3036174 -0.13698153 0.2761721 -0.09592293 0.2136138 -0.12556437 -0.028298479 0.254315 0.10594503 -0.13021562 -0.041734595 0.11894301 0.113159865 -0.12165174 -0.29369038 0.026394136 -0.20769228 -0.043623634 -0.06867618 -0.0369862 0.09154676 -0.108109325 0.16011365 0.14931121 -0.10211052 0.005835667 -0.019327564 0.27786082 -0.030780284 -0.05634596 0.034990374 -0.04488337 0.3462217 -0.074249946 0.041383885 0.025230214 -0.06017274 -0.07955321 0.16541432 0.07331633 -0.038682844 -0.08750818 -0.077186316 0.12467439 -0.37217867 -0.34471342 0.042489562 -0.27884176 -0.097762555 -0.23342896 -0.11194584 -0.13253097 0.003772873 0.049224965 -0.07299126 -0.0815393 -0.07262605 -0.2538683 -0.15393905 -0.32928658 0.09124628 -0.17004064 0.02851726 -0.22143072 0.018126411 -0.03940107 0.13922305 0.14434464 -0.33005938 0.13156411 -0.13688537 0.03697976 -0.15579918 -0.14994565 0.11808428 -0.2678777 -0.06348759 0.24597384 -0.32082707 -0.032760322 0.038985793 -0.2724952 -0.017212933 0.30088243 0.045339506 0.06026791 0.044181317 0.09934492 -0.07791448 -0.41693357 0.092874385 0.31713772 -0.4477236 0.12315471 0.25545517 -0.0009045537 0.17523423 -0.29138654 0.12913084 0.23833828 -0.03603241 0.17965311 0.04180373 -0.017980661 -0.0659742 0.12700142 0.16613607 -0.25450253 0.29447982 0.0358966 0.02207754 -0.29397747 -0.20812705 0.14417955 -0.07630002 -0.09691561 -0.3519913 -0.26684213 0.13305208 -0.07759007 0.11207358 0.17652366 -0.06507169 0.23189838 0.020335725 0.30899978 0.036091894 0.10250769 0.18852082 -0.0037671253 0.0069357944 0.13442792 0.19607492 -0.1203536
gostaria 0.23193915 0.054802626 0.16981564 0.072098605 0.1327363 -0.17063755 -0.29853305 0.04817398 -0.13955101 0.087505884 0.16573027 -0.07168297 0.05254245 0.35482195 0.04486038 0.08397154 0.12466755 0.045801286 -0.18408607 -0.15129514 0.18692999 -0.32791403 0.12835568 0.043651685 0.14281546 -0.36110717 -0.05946715 0.06455743 -0.03734001 -0.16302218 0.29527435 -0.10710816 0.26323673 0.041020878 -0.07984259 0.027836142 0.017870182 0.033107307 -0.10983242 0.12693384 0.17839827 -0.06654152 -0.15412834 0.23701142 -0.18736552 0.08367841 0.2077231 0.15327343 -0.37542674 0.29901302 0.14235531 0.07825699 -0.117997706 0.13278991 0.23629016 0.06411871 0.04002257 -0.09846765 -0.13707222 -0.075895295 0.12383083 0.31695747 0.3258334 0.27993038 0.021787226 0.087037526 0.13044743 0.24856168 0.046720743 0.1763128 -0.2378151 0.07022793 0.09607107 -0.22768316 0.05249172 0.09668522 -0.24264796 -0.14330122 -0.092743516 -0.13406953 0.15758331 -0.119392656 -0.32832912 0.6181375 -0.23734525 0.07754548 -0.0021465756 -0.115212105 0.022451159 -0.010710573 0.2110934 -0.11559137 -0.21101609 0.29526958 0.07311955 0.33510748 -0.10017811 0.11277967 -0.38919136 -0.13420105 0.20966148 -0.07035815 0.1939006 0.2773679 -0.017268853 0.027087554 -0.036103856 0.21318215 -0.06890548 0.09690489 -0.06904428 0.002679438 -0.22514927 0.15448304 -0.27323818 -0.3996545 0.062121175 -0.10535548 -0.20649423 0.0010170718 0.108477116 0.14386706 0.015009012 -0.3137273 -0.010984278 -0.06755476 -0.012858899 -0.31839254 0.03241008 0.12067198 -0.11564767 0.19160798 -0.23966697 -0.30454996 0.15850224 0.014948576 -0.07494143 -0.17309783 -0.29691723 0.09235016 -0.20176826 -0.26470876 -0.17644875 0.14629532 0.09908007 0.013705437 0.24636504 -0.010854918 0.07688251 0.20707704 0.36061522 -0.38900083 -0.047578864 -0.20540364 0.3260595 -0.1934141 0.014548327 -0.2591246 0.20201474 0.35518843 0.09519904 -0.14144935 0.05121482 -0.013312297 0.17533493 0.018122487 0.13005766 0.1942741 0.16677009 0.23250464 -0.06468795 -0.2287434 0.026083631 0.04545432 -0.116696395 0.06511384 0.06948136 -0.22409017 0.16171977 -0.23707163 -0.080259115 0.18121533 -0.28832802 -0.3632397 0.08756871 -0.14991567 0.26334426 0.24156538 -0.12033011 0.13405243 0.25642228 -0.12625991 -0.23576465 -0.22199392 0.03655427 -0.018323563 -0.0071624406 -0.07958191 0.06781714 -0.4071505 0.18230703 -0.46913183 -0.09491439 0.051871505 -0.14493415 -0.38367096 0.12533805 0.3401201 0.13668011 0.040602505 -0.0545808 -0.005841708 -0.066746704 0.16514438 -0.10401284 0.044940487 -0.012700264 -0.39046124 -0.07451941 -0.06446032 0.034307484 0.075939864 -0.19143869 0.10627071 0.18018842 -0.2920776 0.041479975 -0.24670221 -0.048036046 -0.28920105 0.13005859 0.16155495 0.032552563 0.07074288 -0.17104141 0.14537102 -0.0028887314 0.15284574 -0.046549335 -0.12401256 0.15410157 -0.13717802 -0.07684461 0.041954283 -0.052130297 -0.1924818 -0.062201828 0.18734378 -0.011259686 0.17440572 -0.20211875 -0.027369449 0.08745975 -0.098833986 0.013662661 0.051033095 0.06452363 0.11024081 0.2818484 0.06050452 0.3855592 -0.12094844 0.22018124 -0.17095374 -0.20255944 -0.31712392 0.4088643 0.1298082 -0.2844347 -0.06287441 -0.042552892 0.26059973 0.09271019 0.039316844 0.03308249 -0.025409872 -0.045810744 0.13326351 -0.16533063 -0.18123057 0.407123 0.21399985 0.21717107 0.05226375 -0.2216464 0.04992705 -0.10599163 -0.19630772 -0.17687279 0.10127233 -0.23168038 0.028263506 0.11941831 0.17217056 -0.038536694 0.085501425 -0.01861709 0.27007246 0.059382204 0.074204825
alô 0.22801046 0.26261374 0.014195208 -0.17320967 0.16032076 -0.071120255 -0.12513499 0.57556856 -0.10886361 0.05962589 0.18886638 0.39158264 0.007420428 0.24510126 0.25259158 -0.035934236 -0.08940523 0.1987476 -0.2585754 -0.33253297 0.23298989 -0.17202294 0.53270054 -0.13732742 -0.03531688 -0.26690015 -0.61711097 0.026970034 0.13714957 0.11883317 -0.28148392 -0.16842712 0.08111213 -0.4241031 0.21510103 0.26343423 -0.29778028 0.48778918 0.20323062 -0.042173844 0.060701046 -0.013798651 0.014854441 0.26749456 0.22858287 -0.22007069 0.12801269 -0.1512982 0.13998275 -0.02489245 0.15856475 0.20150897 -0.17002103 0.22887279 0.13980748 0.0850301 0.18608096 0.31698743 0.39185187 -0.17945999 0.10756718 0.0017618516 -0.0018561155 0.15636446 -0.3746411 0.3050477 0.26954618 0.33736143 -0.09383712 -0.18190509 0.023696411 -0.22743085 -0.020919405 0.0711632 -0.061751068 -0.16750419 -0.33073318 0.19121452 0.29379708 0.50823295 -0.28347397 -0.10160345 -0.28084096 0.32190916 0.06421789 0.14017482 -0.08430354 0.11419888 -0.12575231 0.08371393 0.09015222 -0.35752398 0.1645873 -0.33146396 0.391753 0.20170332 -0.22621003 -0.36376005 -0.09270247 -0.17365214 0.16091268 -0.17666152 0.006533141 0.2320743 -0.2656536 0.030345265 0.034389757 -0.025581917 0.056575485 0.17877765 -0.1472735 -0.37213203 0.19200924 -0.30880696 -0.21721534 -0.0047463966 -0.09540975 -0.030053142 -0.1918838 -0.24864584 0.3227626 0.31805018 0.49168077 0.07193283 0.0633501 0.19014066 0.2464271 0.09110183 -0.005530652 0.33766562 0.036770534 -0.15777305 0.38302857 -0.48938885 -0.049056783 0.07936227 -0.11880422 -0.19478913 0.10035533 -0.3428292 -0.29994133 -0.25730285 -0.007999072 0.12937197 0.017590795 0.5234214 -0.33084857 -0.18344572 0.07505521 -0.16669984 0.19717328 -0.1821711 -0.10777817 -0.31369594 0.5105071 0.11469159 -0.061681762 0.042829312 0.0055904416 -0.17216769 -0.31488982 -0.17812079 -0.2796415 0.14427032 -0.25289288 0.11543616 0.036695026 0.16934903 -0.07567358 0.38399628 -0.11928187 -0.049220037 0.112794615 0.18638262 -0.27010772 -0.10011773 0.18183286 -0.30270627 0.07965377 -0.15693514 -0.31013685 0.21206807 -0.2905391 -0.2541191 -0.37505922 -0.2730028 -0.25495738 -0.19810347 -0.12508935 -0.26537925 -0.10518345 -0.2881673 0.0019457458 -0.10142913 -0.008285226 -0.07015201 0.14667264 0.23714861 -0.18129708 -0.20832327 -0.1309025 -0.07209887 0.16112413 -0.024855765 0.5735494 -0.15110876 -0.051259108 0.15852918 0.024681732 -0.36180276 0.00078017183 -0.3921489 0.010629141 -0.054558646 0.69006056 0.09158934 -0.26564223 0.1534395 -0.27376518 0.33294272 -0.34944022 -0.009845031 -0.0103961965 -0.44726962 0.037293486 -0.15515184 -0.07647718 0.006968592 0.029945802 -0.4046174 0.071373284 0.012802465 0.37209576 0.18330811 -0.35231516 0.3004726 0.04193266 0.024980877 -0.13292955 -0.35565966 0.23564953 -0.22688976 -0.10074862 -0.039637215 0.034057174 0.022584617 -0.1375837 0.29078963 -0.013244314 0.041780297 0.10874725 -0.0786285 0.24869636 0.35670644 -0.25225782 0.38404104 -0.096456826 -0.22324866 0.017404696 0.40930972 0.38711387 0.3148347 0.21124353 -0.54374707 -0.24073838 0.033612013 -0.1167158 -0.16033159 -0.47540483 0.29410306 0.018156469 0.20483162 0.32277077 -0.024827655 0.2630375 -0.1760373 0.61107606 -0.17836475 -0.029137585 0.076901615 0.14682105 -0.07261486 -0.36347538 0.017724646 -0.36707312 0.21025348 -0.04549336 -0.05263894 0.15736106 -0.18503758 -0.12858032 0.33668748 0.25600773 0.29572773 0.06612128 0.5387114 -0.22990763 -0.110269204 0.2038846 -0.28511554
tots -0.15506397 -0.030256836 -0.031749055 -0.04305793 0.03612799 -0.031672068 0.11563003 0.32689774 -0.054853056 -0.1482367 -0.057332218 0.20652355 0.13019381 -0.0846774 0.0583008 -0.15525371 0.23742175 -0.007938554 -0.08661733 -0.21815854 0.39436302 -0.092501745 0.24658428 0.050415207 -0.22246985 0.052464698 -0.05564046 -0.19877106 -0.06701914 0.046456642 -0.40702683 0.04009381 -0.0044498956 -0.18859464 0.19632961 0.06900273 -0.19609267 0.10387433 0.06253617 0.073119 -0.0025276532 0.099942185 0.14548221 -0.14218536 0.20526022 -0.2935547 0.17167255 -0.025446974 -0.06314699 0.1068056 -0.13413908 -0.013793452 -0.14712992 0.10607997 -0.06681318 0.17904937 -0.10786187 0.06874355 -0.07868939 -0.09395715 -0.14597721 0.11865207 -0.2761615 0.15350078 0.081339665 0.24367192 -0.060320523 0.380687 -0.11403534 -0.014419977 -0.0015407903 0.12821107 0.25316176 0.12262183 0.14914453 -0.41504234 0.03366433 0.043417882 -0.4969279 0.06637625 -0.27931002 -0.24378565 -0.310633 0.3407043 -0.07732055 -0.21489775 -0.24593219 -0.24764228 -0.03341922 -0.059443507 0.06514551 -0.27938786 0.15434574 0.1313251 0.3043978 0.2815682 0.28894114 -0.18459843 -0.36569044 0.0038580024 -0.08642608 0.174735 -0.31001416 0.3022584 -0.09011566 -0.122201174 0.020006424 0.0409727 -0.40328556 0.07098256 -0.4238275 -0.071517944 0.16522269 0.25158128 0.37564677 -0.31810236 -0.24909769 0.1071622 0.2208813 0.16729912 0.15428068 -0.06748586 0.14409994 -0.075284526 0.022925204 0.10800473 0.23176387 -0.09617075 0.020521915 0.3570222 0.103845224 0.05939724 0.21334714 -0.15585728 0.19536631 -0.110220276 -0.27470106 0.05123167 0.0036299564 -0.07882519 0.08534082 0.10237913 0.25102165 0.37215242 -0.23177755 0.14427425 -0.091195464 -0.06859682 0.07627012 -0.18863194 -0.082431465 0.12472656 -0.0068638 -0.51764536 -0.018714674 -0.31807262 -0.10901341 0.0027629216 -0.047327414 0.3536726 0.1520813 0.14783967 0.12204502 0.21619128 0.045630716 0.113832094 0.0500549 0.28158033 0.0062588663 0.092883244 -0.38133663 0.0024730377 0.033591658 -0.22636801 0.1836578 -0.2281659 0.024674991 -0.04113431 0.09379137 0.20277442 -0.03568657 0.18963812 0.012003856 -0.45608622 -0.19283384 -0.3730973 0.043154966 0.0033906472 -0.0012415894 0.11855066 0.14981754 0.047868125 -0.12640731 0.044336047 0.3273233 -0.09027145 -0.10714921 -0.3090703 0.13106447 -0.10484335 0.06701672 0.036368642 0.146112 -0.13501787 0.21968983 -0.059704855 0.28763837 0.25038543 0.20827112 -0.09179055 0.07835146 0.022243144 -0.184523 -0.024648126 -0.098562576 0.11136815 -0.16373374 -0.0627337 -0.035077274 -0.08545401 -0.08488002 0.43646535 0.008792019 0.11903885 0.049257446 0.15086454 -0.21092486 0.03638811 -0.03583819 -0.08965629 0.3225173 -0.21733294 -0.005649257 -0.04673209 -0.115316965 0.22683018 0.14142221 0.27570745 0.0014003073 -0.024459349 -0.1316802 0.2715262 0.25708592 -0.38930196 0.050625633 0.21118708 -0.067862056 0.15594816 0.23231336 -0.15276907 -0.13046703 -0.10095469 0.13707283 -0.15927058 -0.17024556 -0.3016553 0.11074022 0.115107685 -0.1573232 0.2455969 0.059500784 -0.030361 0.049134273 0.06782483 -0.16869667 -0.12976004 0.06252257 0.07821291 -0.06726903 -0.10698883 0.061645493 -0.048821256 0.08404245 -0.21993919 0.18255933 0.29841393 -0.09617982 0.12538049 0.07111326 -0.29604697 -0.002582562 0.16661811 0.13148294 0.16214304 -0.42805544 0.06073835 -0.10294607 0.13065629 -0.13507967 -0.029206384 0.2749948 0.3599235 0.11810235 -0.059693106 -0.20369197 0.059762694 -0.057621714 -0.020670129 0.08901756 0.1265316
dia 0.0045807976 0.39380014 0.059644118 0.02490677 0.1974366 -0.097739145 -0.35732344 0.3482261 -0.40862775 -0.52085227 0.10087734 0.07410035 -0.100014195 0.22327493 0.13908157 -0.018128017 -0.01263327 0.20214213 -0.056464918 -0.3315476 -0.070920855 -0.19836472 0.0688866 0.23685774 -0.06955415 -0.12884024 -0.028869016 0.23987797 0.2208879 -0.046515804 -0.16179293 -0.31559402 0.18507247 -0.0665992 0.024658987 0.4247672 0.11378676 0.26900712 0.25003248 0.14056432 -0.12498321 -0.043609444 0.25109094 0.0008510009 0.20224246 -0.35584307 -0.17775221 -0.009032051 0.10396702 0.1114511 -0.07240432 0.043292265 -0.10643388 0.19306281 0.23550542 0.2015176 -0.023901343 0.005829377 0.114044696 -0.32015666 0.13809854 -0.014630031 -0.19708095 0.08600452 -0.3104665 0.17089982 0.11451907 0.15291455 0.19833317 0.09158234 -0.21101442 0.24951634 0.0016814503 -0.101112895 0.10150357 0.16181366 0.01827787 -0.06964921 0.18389365 0.27180114 0.026982501 -0.13214052 -0.17089702 0.32589793 0.13172862 0.12248184 -0.10375978 0.16836809 0.18141776 0.37345186 -0.08985383 -0.2824714 -0.10745307 -0.094188444 0.20546174 0.36135253 -0.1317181 -0.39106658 -0.064406715 0.1801486 0.03448652 0.018190712 -0.42850754 0.37528256 -0.13231578 0.113778844 -0.04330958 0.4862295 -0.21169187 -0.03396968 -0.16181967 -0.4188513 0.282344 -0.0828148 -0.19307181 -0.19505176 0.04537231 -0.06384314 -0.34206912 0.24651638 0.22631234 0.41496754 0.18017142 0.03748783 0.12175633 0.06695347 0.079823345 -0.3835059 -0.08847231 0.027578263 0.18432702 -0.20819753 0.30323288 -0.49332607 0.04900085 0.036878873 -0.03742754 -0.2045047 0.008058162 -0.098368585 -0.021935092 -0.19035952 0.22711793 0.019252928 0.020802628 0.16232397 -0.3292212 0.2896834 -0.13704662 -0.057302944 0.09703268 -0.3811045 -0.02766684 -0.5724177 0.044165973 -0.055861875 -0.025158161 -0.046212085 -0.24579379 0.032885205 -0.22471894 -0.061124124 0.049319882 -0.012280669 -0.05652888 0.062138986 -0.26254407 0.044417765 -0.23584528 -0.040795576 -0.37713972 -0.29794192 0.14273143 0.058747955 -0.1837735 -0.06312316 0.3099738 -0.16341464 -0.056345943 -0.06344348 -0.1654898 0.12466372 -0.09294991 -0.10634678 -0.34002522 -0.07681793 0.1622799 0.0795374 0.037538018 0.024327349 0.18408243 0.03626101 0.22394384 0.09842092 0.21229629 0.052965663 -0.049931955 -0.10788918 0.04369266 -0.26251474 0.05628652 -0.14812317 0.27811497 0.18728209 0.122951694 0.12630522 0.14323354 0.129518 -0.013959045 -0.31075948 0.105354354 -0.1557611 -0.12321435 -0.1594125 0.4155665 0.17024523 -0.16945167 0.03020589 -0.05226173 -0.04025883 -0.025594132 0.016243305 0.048312355 -0.15310536 -0.0027594583 -0.0429654 0.031372912 0.18864334 -0.008178709 -0.2337712 -0.020612849 -0.11322074 0.26002082 0.19831775 -0.07941023 0.03891922 0.1402249 0.29381198 -0.104494065 -0.1270471 0.16886517 -0.16857225 0.058276616 -0.0012696343 -0.119253606 -0.13117316 -0.21862102 -0.12598668 -0.11158409 0.09365198 -0.14848745 -0.058358062 0.4319918 0.06158336 0.21325487 0.07495672 -0.07647658 0.018867092 -0.19280049 -0.008149579 -0.001959969 0.18587509 -0.00092277396 -0.4005275 -0.19177687 -0.0028341284 0.10534079 -0.027167978 -0.32415745 0.014982781 -0.2207327 0.1828865 0.1644093 -0.12195525 0.25238788 0.050401647 0.33850932 0.06325884 0.18997426 0.08795902 -0.10376536 0.20532498 -0.2603358 0.050492078 -0.14030129 0.31141427 -0.34477904 0.32395607 0.1935449 0.039005734 -0.075516365 0.11285237 0.27876323 0.35532475 0.039656717 0.3635139 -0.42896897 -0.053045236 0.21478786 -0.2539331
algum 0.13076296 -0.042424116 0.13425559 0.12729774 0.20253152 -0.18080968 -0.024362 0.31022093 0.053713776 0.25823647 0.06338141 -0.16479956 0.23249446 0.035458982 0.16548504 -0.07279794 0.13813548 -0.22488607 0.134045 -0.08926826 0.086839445 0.07643242 0.103080586 0.28276986 -0.20092486 0.022405548 0.22587974 0.22883946 -0.29068744 0.028247891 0.29627785 0.052739915 0.14384933 0.15538003 0.025540618 0.34416804 -0.12200282 0.018767485 -0.15521185 0.08835133 -0.028228752 0.21845064 -0.10712541 0.0479033 0.024727484 0.1668908 0.053355496 0.23944853 -0.17598575 0.0072357226 0.13949078 0.08469145 -0.14492008 0.22195147 0.042699028 0.15838534 0.17415117 0.0073170974 0.057458468 0.16955516 0.06873295 0.3042186 -0.09142164 -0.11922275 -0.0647641 0.13156387 -0.031073097 0.18308659 0.1396912 -0.061124805 -0.32666552 -0.030819066 0.109878615 -0.15711206 0.1705291 0.039587583 0.07116365 0.065247096 0.15299298 -0.23882747 0.016315628 -0.15027712 -0.46090335 0.4838259 0.020316804 0.20669842 -0.24801748 0.39572805 0.47115412 -0.003850559 0.25195616 0.032473914 -0.05441836 0.42580345 0.07853981 0.26624042 -0.0652108 0.22475769 -0.1577619 0.23975797 0.297876 0.064719446 0.106392615 0.18557134 -0.25917456 -0.011237033 0.112129726 0.29373917 -0.09500713 0.15299533 -0.34948364 -0.08064084 0.06687769 0.3380309 -0.22439404 -0.18943585 -0.12824927 -0.042753696 0.054198455 -0.23446614 0.0902913 0.006639142 0.1260254 -0.21415539 0.031605456 0.01334147 -0.33660242 -0.35028028 0.087460004 0.19572034 0.02230295 0.3831449 0.15649413 -0.12687938 0.41021934 0.15562828 0.20805544 0.022273056 -0.44069844 -0.021877477 -0.04456324 -0.26688716 -0.25685158 0.29608238 0.17566377 -0.037310388 0.088043354 0.05256202 0.12120056 0.22485977 -0.022199944 -0.118255846 0.1588072 -0.14260454 -0.21453696 0.091531925 -0.073886454 -0.28652978 -0.097116925 0.054910835 0.14510593 0.044472735 0.37042502 0.048965845 0.033391893 0.122231185 0.09283103 0.21535142 -0.13869761 0.2028401 -0.05936279 0.1680347 -0.096218534 0.026247181 0.05370898 -0.06399896 0.23909804 -0.13389827 0.1887084 0.37318414 0.15627742 -0.024463594 -0.07149167 -0.11752864 -0.12282332 -0.32462132 0.084498316 0.26836208 -0.11552987 0.29740107 0.156923 0.20314695 -0.03543181 -0.31132877 -0.2316671 -0.14455484 0.08937597 0.010738063 0.37441742 -0.42143846 0.10800186 -0.014020954 -0.10545495 -0.14997165 0.12039367 -0.111567244 0.09807025 0.09558695 -0.029870786 -0.12811461 -0.20865652 -0.17546144 -0.12554656 -0.0037238202 -0.06026736 -0.04203688 -0.29802105 -0.17076536 0.049132783 -0.22624768 -0.070633344 0.08752737 -0.21089311 -0.06967242 -0.15903549 -0.280205 0.17698087 -0.008207896 -0.07166886 -0.15942615 0.34753454 -0.028376698 0.27349502 0.054086626 -0.111910045 0.043643385 0.11446415 0.18733045 0.05668442 -0.37405732 0.18369304 -0.20498198 0.018022623 0.23321271 0.034036912 -0.15427873 -0.078220546 0.11805407 -0.12776089 0.25732562 -0.13551328 0.09832187 0.21405578 -0.29622158 -0.18131076 -0.09028309 -0.23676352 0.15823972 -0.08143442 0.043368537 0.3673418 -0.013918915 -0.061355043 -0.34536645 0.14470203 -0.3575528 0.28161937 0.23386441 -0.25642678 -0.26344562 -0.4685427 0.3685978 0.05254653 -0.14203446 0.21520022 0.28456503 -0.026373621 0.20028327 -0.044892088 -0.095940515 -0.0706575 0.176996 0.07832217 0.09232903 -0.039239746 0.082800455 0.21414013 -0.030615773 -0.016451173 0.17351511 -0.25117674 0.25068876 0.07414938 0.028609164 0.20489381 -0.081865676 -0.12621592 0.015217599 0.097068205 -0.08036377
falo 0.15250286 0.14319766 -0.14460935 -0.19603798 0.12123256 0.10765316 -0.23665434 0.17914627 -0.22070566 -0.20888217 0.16499649 -0.06421509 -0.05261265 0.19739066 0.021286912 -0.15084724 0.19409014 -0.0065217516 -0.19124967 -0.2745158 0.012034947 -0.16376564 0.22371872 0.1604166 0.040627543 -0.19332571 -0.14723732 -0.2903747 0.0046548373 0.092207864 0.105411574 -0.31747964 0.19407034 -0.060877528 -0.11806131 0.26473093 -0.22835949 0.12622817 0.27501726 0.013095736 0.0972443 -0.30289093 0.08527454 0.17757525 -0.08711886 -0.2115678 0.22638002 0.031084498 -0.049357764 0.42142513 -0.08970921 0.17947502 -0.0033874945 0.29712376 0.19700597 0.047846366 -0.084883325 -0.08361494 0.2488478 -0.15944447 0.14690396 0.24038473 -0.10397549 0.12841734 -0.19537446 0.20579983 0.2527697 -0.13469115 0.10216962 0.05879752 -0.085652284 0.05405075 0.11908119 -0.00948363 0.08623531 -0.16851795 -0.0118977055 0.05689419 0.16026655 -0.010895656 -0.09557903 -0.19783525 -0.28667963 0.4774898 -0.071250126 -0.20669933 -0.23497924 0.056134693 0.1923674 0.12627691 0.056650236 -0.22420843 0.013530283 -0.06974936 0.12849754 0.29030842 -0.19276117 0.16219635 -0.16184188 0.08724053 0.10723099 -0.10488876 -0.13721862 0.40415242 -0.25231075 -0.26720276 -0.13863257 0.105973974 -0.2850372 -0.099603266 -0.07544537 -0.2477752 0.11287137 -0.055523854 -0.07031441 0.07661206 0.19083677 0.013978543 -0.18934967 0.09966987 0.19681263 0.18611881 0.1446576 -0.2281038 -0.014991915 0.08780021 0.142591 -0.105322294 -0.018140737 0.24389522 -0.02159673 0.102532275 0.045945942 -0.41248727 0.14716114 0.07822646 -0.37392604 -0.13184123 0.025070034 0.009990378 0.1003142 -0.024855705 0.2498451 0.07141644 -0.1339175 0.204113 0.07586491 -0.15355968 -0.16368188 0.106268115 0.20314287 -0.31803143 -0.14361118 -0.39643484 0.13907048 -0.24743415 -0.06598089 -0.04830061 -0.055964973 0.21901263 -0.18485068 -0.15746647 -0.035589077 0.022795955 -0.18443619 0.0048884335 -0.32801288 0.25890225 0.20974156 -0.01389082 -0.24449469 -0.20439966 -0.0029136974 -0.0986909 0.052159768 -0.13716531 0.11696182 -0.25486907 -0.09616695 0.0015145331 -0.09819936 0.1976505 -0.03495554 -0.32561368 -0.21049304 -0.07709307 0.14935996 0.12549205 -0.147051 -0.11289764 0.19746806 -0.16676888 -0.031049903 0.07786506 0.10661629 0.011637823 0.26408222 -0.20106956 0.2056601 -0.29540008 0.023337169 -0.061404727 0.13824399 0.17311217 0.33166134 -0.12699133 -0.15662472 0.13094835 0.025694368 -0.43169707 0.2640128 -0.22779037 -0.05059546 0.045314167 0.09070737 0.20945589 -0.21827637 0.02900684 -0.2263158 -0.0020433997 -0.23223466 0.05396531 -0.11662025 0.006972327 0.093876794 0.20017153 -0.11818569 0.26773915 0.05764991 -0.30173582 -0.02465731 -0.08304518 0.027437873 0.24192561 -0.11298771 0.13801898 0.16655143 0.12865122 -0.15270239 0.03141476 -0.24780004 -0.031243857 0.037050337 -0.06175183 -0.031182135 -0.32023913 -0.05237188 0.4219999 0.05687807 0.22142483 -0.14189586 -0.2554844 0.15964487 -0.25758055 -0.06601587 -0.1516906 -0.07719741 -0.194824 0.102467395 -0.037304774 0.1922331 0.1898834 0.028098976 0.018253835 -0.17396282 -0.13292846 0.22765034 0.125692 -0.3017929 0.17974432 0.10981817 -0.010536728 0.007467655 0.054383516 0.33240718 0.22408685 0.10337844 0.21966621 0.19073898 -0.041190587 -0.0039944234 0.11117647 -0.10769412 -0.055009253 -0.33837423 0.030422928 -0.04778957 0.14613803 -0.02062429 -0.16744332 -0.06605266 0.2970707 0.13666615 0.18214135 -0.12869643 0.14701849 -0.19442703 0.076137245 -0.058585763 0.009155256
caso -0.094494745 0.41808212 -0.26837438 0.078412235 0.039878696 -0.40685433 -0.09281975 0.34382153 -0.13246882 -0.2648445 0.01149084 0.08137407 -0.029971953 -0.09529246 -0.029830283 -0.45877448 0.31159616 -0.05564215 0.36148086 -0.4600249 -0.21057548 -0.08087874 -0.20062432 -0.073144615 -0.18448809 -0.108908564 -0.2526965 -0.0024258222 0.02605226 -0.33807266 0.20642968 0.14220402 -0.1929479 -0.19068603 0.09077966 0.24827705 0.114135854 -0.14093374 0.21282844 -0.14074555 0.04966458 0.40308234 -0.29534945 -0.3713047 0.20898555 0.2629545 0.040021554 0.06781608 -0.048580557 0.1084629 -0.09789761 0.086359546 0.16115098 0.33671767 0.05944269 0.23159409 -0.18800595 0.1439396 -0.0045920075 0.073190406 0.09897413 -0.05692405 0.034191012 -0.10724036 -0.0823291 -0.037645187 0.1595137 -0.24537079 -0.15488411 -0.064108305 -0.116116755 0.32657963 -0.041355096 -0.16913228 0.09378816 0.2204515 -0.13905771 -0.12954573 0.048656125 0.0030561974 -0.041351188 -0.044244435 -0.12690265 0.36335656 0.024082905 -0.21281762 0.001196316 0.15113218 0.2435983 0.29176942 -0.08899743 -0.18556209 0.10370163 0.18740982 0.0213978 0.14478832 0.21151006 -0.14606898 0.042344287 0.12722899 0.18711956 -0.20371678 -0.036878545 0.121675625 0.18949483 -0.21210487 0.108880416 -0.10648999 -0.4989467 0.30438513 0.06438456 -0.10790936 0.06942997 0.27155107 -0.16553856 0.31506512 -0.11720103 0.315448 0.006569151 0.0059286864 -0.3874438 0.28564298 -0.23751043 -0.035843916 -0.18035738 0.19676629 0.20864983 -0.12517044 -0.15383525 -0.39387816 0.4016453 0.07039889 0.23144488 -0.11086037 0.2654845 0.3871624 0.12703745 -0.023002343 -0.20264345 -0.18486995 0.13052835 -0.07516756 0.009854574 0.02492617 0.05835114 0.23925568 -0.086981185 0.10503547 -0.08363025 -0.17815574 -0.0829652 -0.24903834 -0.011595997 0.12620048 -0.10551114 -0.15493385 -0.1289414 0.26561454 -0.11244705 0.14845274 -0.45185438 0.06783152 -0.020604601 -0.0061952053 0.10920145 0.09231947 0.064486906 -0.38646972 0.14639056 0.21726623 -0.37045965 -0.10708339 -0.21490856 0.06610802 0.16675168 -0.35328692 -0.10991043 0.15889032 0.2116405 0.2732626 -0.2788239 -0.0661174 0.099102594 -0.27676892 -0.34431574 0.19266689 0.2335453 0.34106413 0.09681616 0.28614217 -0.2585514 0.25622064 -0.2731971 0.13963272 0.050364666 -0.044092324 -0.11707047 -0.17693645 0.24161784 0.14749412 0.016639898 0.22902465 0.36487493 -0.15984803 0.18345289 0.10575418 0.10596306 0.06393664 -0.0994146 0.26963505 -0.024408521 -0.042759564 -0.099787295 -0.2990678 0.11892543 -0.24133377 -0.075513184 -0.28853726 -0.06464396 -0.054812882 0.2180026 0.07104923 -0.1710312 -0.02747557 -0.25244606 -0.19038126 0.054855496 0.06820745 -0.21254548 -0.057190042 0.20306396 -0.1659171 -0.24747986 -0.102126345 -0.033256497 0.20783433 -0.13852243 -0.13080847 0.10388419 -0.2536386 0.03986439 -0.28106526 -0.06400617 0.21497855 -0.09951067 -0.17880167 0.18843602 -0.2928094 -0.06466752 0.25012165 0.2909364 -0.12119729 0.24666142 -0.07207137 0.031566482 0.012896115 0.12730406 -0.032137346 -0.38686916 -0.4894345 -0.2774807 0.23732255 0.0118535105 -0.32401323 0.07434264 0.35630342 0.50027 0.3134148 0.05146904 -0.02764754 -0.14322042 0.13945086 0.121579655 -0.12833768 0.48929065 0.51176995 -0.02729575 0.17631091 0.13165191 -0.20707893 -0.33541718 -0.1731046 -0.08995301 0.14091739 -0.08619479 0.033348363 -0.29679865 -0.03753084 0.30332252 0.43373257 -0.012637967 0.23936267 0.007127255 -0.23092577 0.19555792 0.1307703 -0.10015169 -0.07290595 -0.0037483685 -0.28666076
ah -0.08010223 0.09607787 -0.049959905 0.019953275 0.12951371 -0.0012694118 -0.022598544 0.08185205 0.05076034 0.091232486 -0.0020011985 -0.2985247 -0.17342025 -0.13740183 -0.086617656 -0.062463857 0.27533472 0.19981068 0.04490755 -0.1262201 -0.18728325 -0.07192412 -0.022671506 0.14234371 -0.11322434 0.057411116 -0.24793269 0.13863327 -0.13196297 0.14332314 0.1537156 -0.17270452 -0.039696258 -0.0097261 -0.11726703 0.1305365 0.13694385 0.15399097 0.0010231503 0.029303825 -0.08532308 -0.02011146 0.11763997 0.038882915 0.21684185 -0.0421113 -0.036330473 0.028926263 -0.10889988 0.12846395 -0.29758054 0.06821159 -0.0018776244 0.2291334 -0.060997512 0.021079296 0.054327384 0.09474454 0.16492982 0.043152962 -0.06886237 -0.079640284 -0.19591442 0.1445012 -0.041599598 0.11482552 -0.2406987 0.14155054 0.021266904 -0.11607259 0.026536567 0.0046083024 0.122167595 0.0144387465 0.31997126 0.01612442 -0.092946604 -0.06890987 0.15885468 -0.23031601 -0.20775005 -0.11675439 -0.013130598 0.3066527 0.019796977 -0.11669117 0.018260548 -0.020457638 -0.017441433 0.009152673 0.33684692 -0.07418999 0.0016425814 0.13237986 0.12513463 0.3878954 0.20581913 0.008293455 -0.041547883 0.20003577 0.16827428 0.0003054171 -0.13625537 0.31636614 -0.08603773 -0.16152787 -0.11248811 0.36098662 -0.11420521 -0.10442309 -0.089227736 -0.024745172 -0.023505796 0.014396975 -0.16716553 0.016571244 -0.000244138 -0.103720196 0.17564407 -0.14240246 0.22432703 0.113179736 -0.04027792 -0.16776928 0.018864766 0.06089919 -0.18591923 -0.21904983 -0.030605348 0.1554342 -0.008425704 0.14447884 0.15780415 -0.33673954 0.22568007 0.020837326 -0.05793029 -0.25467694 -0.16465858 0.086190745 0.19325222 -0.081772 0.044687785 0.060003977 0.22313185 -0.14091145 -0.117679864 0.012675269 -0.22870187 -0.13294867 0.07416781 -0.042364955 -0.006083495 -0.062086135 -0.1124729 -0.06406624 -0.20721342 -0.23812851 0.05392838 0.13053936 -0.04806229 0.063517705 0.0076181428 0.0017908148 -0.075579934 0.039230302 0.20691758 0.14059451 0.21873899 0.16007996 0.2601064 0.114187084 0.09131277 0.004651223 0.11609575 -0.015110939 0.23896557 -0.18938242 0.16441198 -0.13282567 -0.14379233 0.11923275 -0.07569228 -0.17307314 0.15278347 0.06758381 0.12194449 0.28019723 -0.08743666 -0.08769916 0.07495869 -0.052993618 -0.18792841 0.092496365 0.02024288 -0.09324724 -0.15764563 -0.03547956 0.20397663 0.18592831 -0.02154594 -0.18872552 -0.042194825 -0.12750596 0.1949143 -0.20815274 0.09837382 -0.029637696 0.21221457 -0.24909678 -0.05375026 -0.06115176 -0.19467057 -0.037455168 0.077497184 -0.017157657 -0.11938676 -0.2341027 0.09512021 -0.10731629 -0.103913456 -0.017843481 -0.123929545 -0.19234008 -0.11153701 -0.21202926 0.22980273 0.1290513 -0.030139128 0.014245236 0.27117217 -0.18289873 -0.013887686 -0.041176375 0.022871997 -0.09505804 0.014374063 0.123229176 0.09029945 -0.028043825 -0.14321834 -0.18304174 0.25826216 0.058308333 0.075834274 0.105642445 0.32113338 0.21086653 -0.034396626 0.038581416 0.0854161 -0.118679084 0.049057066 -0.029471936 -0.12258076 0.014743216 0.21263045 0.10959178 -0.04435384 -0.052718602 0.16666955 -0.07537024 -0.026514241 -0.08822661 -0.10082154 0.114012614 0.05317272 0.2728689 -0.02810905 0.022311445 0.031536464 0.06792394 0.032294586 0.015113167 -0.13511786 0.09261182 -0.081159264 0.031139169 0.11263026 -0.027636748 -0.024487423 0.060382165 -0.0441304 0.040713668 0.018892305 0.18078338 0.1953584 -0.10958165 0.024107425 0.14352123 -0.113884546 0.25782254 0.1522468 -0.049258403 0.009752202 0.025551144 -0.19478075 -0.0020234226 0.06417767 0.015255552
entrega -0.16448145 0.71310294 -0.08969005 0.42567134 -0.1744077 0.08792494 0.42662802 0.47740558 0.10592742 -0.18956515 0.08723007 0.14784823 -0.12720294 -0.044661324 -0.09779586 -0.36673543 0.15347253 0.37776107 0.15364677 -0.3210874 -0.0733767 -0.5410231 -0.05863782 -0.031883806 0.015158714 -0.13685453 -0.045784846 -0.2710201 -0.38039964 -0.018993432 0.115174465 0.13491605 0.0400758 -0.27775982 -0.02937872 0.38281143 0.20044722 -0.12774344 0.40944356 0.24371858 -0.15308873 -0.018750036 0.19339266 -0.14238593 -0.03264293 0.011591635 -0.107083835 0.16222046 0.30015075 -0.21153612 -0.24541244 -0.03484269 0.0107702715 0.5924311 0.1359127 0.14264384 0.22092733 0.17531644 -0.07733899 -0.51486677 -0.033780746 0.03286903 -0.1363995 -0.0023834824 -0.09089408 0.15038554 0.07654923 -0.04507159 -0.22700693 -0.3028837 -0.17776646 0.11761743 0.018678945 -0.24407102 0.07198071 0.23565039 -0.24264821 -0.057650324 -0.1133427 0.32689697 0.047083832 -0.21316944 -0.2885664 0.111240126 0.21226668 -0.1547436 0.07185048 0.039346125 0.2269767 0.18339771 0.24027829 -0.36075005 -0.12954952 0.12953682 0.27167913 0.42893293 -0.18214405 -0.31665212 0.22191204 -0.058992848 -0.03239128 -0.03647234 0.2857072 0.14159118 0.158951 -0.28529567 -0.21922089 -0.20507221 -0.3558786 0.123401225 0.06530766 0.023262102 0.15335608 0.08856022 0.024028782 -0.053529218 0.055888534 0.23985848 0.2391705 0.07240839 -0.04396012 0.5212409 0.118825376 0.029121213 -0.096672885 0.2749126 0.28961125 -0.51204646 0.07019884 0.24535334 0.41109708 0.19244833 -0.21118708 -0.10154862 -0.017890966 0.11615622 0.28261122 -0.20882642 -0.23070209 -0.2836744 0.17718709 -0.05475716 0.15257736 -0.23354599 0.07714616 0.19844973 -0.43797782 -0.2878613 0.14389168 -0.34721914 -0.0204487 -0.34055915 -0.061535165 -0.18827726 0.18045151 -0.016459344 -0.6403748 -0.0660887 -0.25956815 -0.0053470056 0.11624602 0.05532809 0.17640561 -0.31310424 0.18893029 -0.3308692 0.23409 -0.38794702 -0.063451335 0.13327512 -0.26525274 0.24816632 0.097532205 0.21969618 -0.055576526 0.17373854 -0.1355994 0.3149934 -0.034791205 0.25764656 -0.10738153 0.0012402653 -0.44051707 -0.0060421466 -0.66796535 0.20275147 0.4460617 -0.20476614 0.28564665 -0.3199209 0.44613442 -0.1131244 -0.5871375 0.09592484 0.26718375 -0.111489825 -0.0051330877 -0.3005276 0.30281574 -0.15898064 -0.36660928 -0.21366586 0.13345893 -0.28300476 0.035056334 0.13845663 -0.34812412 0.122671545 0.15984921 0.27465764 -0.27645233 0.18882984 0.037369866 -0.19074334 0.12287212 0.1998449 -0.12956275 -0.34508598 -0.3941919 -0.02390254 -0.22047918 0.15184176 0.2922804 0.10041314 0.13482045 -0.09457887 -0.11159899 -0.22462599 -0.012491944 -0.0028045627 -0.39477894 0.097911485 0.25939152 0.2625194 -0.2595427 0.10248887 0.1850433 -0.5319926 -0.2887924 -0.31541032 -0.018761236 -0.59963804 -0.066460595 -0.062247388 -0.06463714 -0.5903381 0.08580516 -0.1675358 -0.17283228 0.06999657 -0.089247614 0.031246804 -0.011613245 0.19317383 -0.0043136366 -0.2073118 0.54839146 -0.14141996 -0.44682816 0.021677691 -0.121048026 0.093051136 0.06349835 -0.41134316 -0.4442616 0.1463833 0.42521033 -0.047905523 0.09617723 0.2851347 -0.50678 0.052519802 -0.3378713 0.03158231 0.19250053 0.57368886 0.24076417 0.22729094 -0.24732877 0.017756693 -0.045042474 -0.05689365 -0.016032318 0.24132793 -0.042040106 -0.05835605 -0.60581255 0.1343306 0.047881264 0.12739938 0.086882256 0.37119728 -0.0092275245 -0.080606945 0.077654965 0.29657045 0.06846951 0.051118016 0.13707963 -0.11127456
falando 0.07374006 0.2750419 -0.3697386 -0.15971541 0.010317961 -0.23872644 0.17986713 0.21292244 0.031055726 0.0045089023 -0.015161161 -0.05071265 0.31760097 -0.029814582 -0.21228114 -0.28699267 0.005504109 0.004251114 -0.08848034 -0.17134292 0.1527149 -0.27825636 -0.020912416 0.02220072 -0.08007088 -0.012457819 -0.1498246 0.09646269 0.0895679 -0.34297213 -0.23119287 -0.099035904 -0.19350035 0.03842621 0.1205254 0.068900876 0.24963535 -0.1091643 0.17177573 0.19145316 -0.13698103 -0.122095674 0.074348845 -0.28490955 0.21974018 -0.09040865 0.08441162 -0.03355934 -0.04930055 -0.09405728 -0.4452802 0.27742255 0.043278288 0.091629975 0.19743893 0.17176019 0.20276357 0.20159559 -0.19312583 0.16330789 0.14059989 -0.26059297 -0.1731089 -0.22010842 -0.15585135 0.10891999 -0.28268766 -0.20458868 0.22500265 -0.014808409 0.012084357 -0.27644643 0.20262216 0.06719702 0.11224216 -0.37539533 -0.13340904 -0.15418842 0.005782578 0.07175571 -0.24269442 -0.45343274 -0.2518178 0.059516132 0.026282199 0.03882029 -0.20176494 0.100920044 0.15465114 -0.2977805 -0.0260952 -0.15668228 -0.011001019 0.38787073 0.14061683 0.029634139 0.13130112 -0.008076027 -0.14536715 0.014241223 -0.1920773 0.026008986 0.21574306 -0.15354274 0.041851617 0.018646192 0.018829621 0.13061367 -0.029975703 0.20672904 -0.25557104 -0.37473962 -0.045003872 0.40174747 0.1605697 -0.20445848 -0.008693915 0.037342533 0.28982747 0.23773457 0.103250355 -0.036742147 0.037884515 0.20400307 -0.05571028 -0.06599478 0.2726834 0.10755562 0.0036041983 -0.18462038 -0.07138607 -0.2699716 -0.04418256 -0.2530572 0.24581745 0.020483052 0.21903667 -0.12559965 0.08021673 0.12236291 -0.14480777 0.33699197 -0.043565556 -0.22199452 -0.1790042 0.22012962 -0.2699717 -0.12926023 0.2645308 0.16608936 -0.17559056 0.09542017 0.0121925855 -0.2667229 0.012403606 0.20485075 0.061196726 0.104510136 0.12799723 -0.16068466 -0.018760039 0.0147341555 -0.0044931686 0.07663097 -0.06353387 -0.15679443 0.015140419 -0.055828437 0.23406255 0.26848984 0.07004702 0.06263732 0.045726597 0.24528 -0.09458724 -0.16001718 0.27798364 0.25993156 -0.018164068 0.41044673 -0.32027173 0.03189253 -0.042192996 -0.02600086 -0.17404765 -0.0076587917 -0.40501717 0.07392935 -0.0043355804 -0.17714427 -0.23019771 -0.038016215 0.113353156 0.05527586 0.069808036 0.08568377 -0.16627952 0.08749193 0.17455286 -0.110399894 -0.26779416 0.07565753 0.25215858 -0.015971594 0.115678035 0.07846618 0.053309888 0.13253744 -0.07986035 -0.093531966 -0.027805308 0.035589 0.14756586 -0.005684897 0.18987274 0.21834704 -0.094491355 -0.12945406 -0.124746114 -0.16177961 -0.26310253 0.049256314 -0.18088207 -0.040855166 -0.045006074 -0.11651458 0.46395564 -0.28255504 0.063851535 0.059158444 0.39013582 -0.024790293 -0.10087737 0.15095584 -0.0818426 0.21656726 0.37412652 -0.29996443 -0.005357166 -0.2918728 -0.07498099 -0.27567747 -0.12353861 -0.18275073 -0.29203385 -0.15030336 -0.06420756 -0.039789025 -0.10798122 0.061365366 -0.4141248 0.26991573 -0.05569841 0.13547184 -0.1359614 -0.31324416 0.15942386 0.16243647 -0.47448438 0.42445582 0.3832235 -0.014875658 0.17767835 -0.059824318 0.0011381807 -0.26531953 0.12015336 0.09959151 -0.19905931 0.32334855 0.13755362 0.12639399 -0.09135615 -0.21027918 0.111794285 0.16553298 -0.0192413 0.10546161 -0.04894581 0.016756175 -0.015602467 -0.11475388 -0.08924941 -0.14011364 -0.14584571 -0.024511488 -0.300741 0.29992038 0.2097491 -0.100400165 0.11500827 0.34218815 0.2351675 0.08857767 0.10325764 0.27699977 -0.09730678 -0.37765092 -0.03229718 0.06354714
ok 0.017075228 -0.022231411 0.16352715 -0.2042671 0.009009388 -0.19820057 -0.032206163 0.24629469 -0.009788536 -0.046176136 0.14299396 -0.20036861 0.07806465 -0.050103728 -0.26192716 0.062857 0.13062058 0.29570615 -0.051927876 0.034696046 -0.0785956 0.016261129 0.27743688 -0.0909314 0.1718839 0.1178397 -0.0749202 0.024088267 -0.04792619 -0.04437481 -0.1707158 -0.2772163 -0.041197546 -0.26726586 0.014526493 -0.041749194 0.24986315 0.026186064 0.06699921 0.32131308 0.021019462 0.037894294 -0.22769292 -0.23780513 0.5039302 0.054529198 0.20199847 -0.10493637 0.4274196 -0.019171352 -0.21994655 -0.21127227 0.10333064 0.01490526 -0.11453733 0.45204931 0.07460168 0.13769688 0.3115236 0.10698697 0.026487205 0.10247626 -0.28027055 0.17481051 0.18551861 -0.13375105 -0.035108123 0.022346184 -0.040396467 -0.12346296 -0.062406737 -0.22422454 0.18967545 -0.12493411 0.15648645 -0.0974821 0.118022315 -0.20773432 -0.1181315 0.01190201 -0.03640576 -0.14746892 -0.09851285 0.33977437 -0.13921899 -0.4047272 -0.22798237 -0.07888808 -0.14933585 -0.00716024 0.37899876 -0.121944755 -0.09339551 0.045198683 0.17578778 0.17205238 0.185338 -0.06615436 0.039151803 -0.015203237 -0.20977354 0.05293344 0.26437727 0.24103251 0.052542698 -0.2498886 -0.057543453 0.41478685 0.39556155 0.21442439 -0.16195028 -0.12737228 -0.041198105 0.31990018 -0.14887156 0.057180066 -0.46414444 0.1691977 0.30147538 -0.23948705 0.27360106 -0.08297632 -0.008488546 -0.0338457 -0.06590588 0.082095824 0.26184845 -0.13432835 0.016954483 0.22905974 -0.008917033 -0.05621804 0.08405926 -0.16528136 -0.13663605 -0.057639703 -0.10512713 -0.20330514 0.23658687 -0.12115508 0.052976 -0.3194739 0.052879132 0.05868816 0.10435959 -0.13372314 -0.027347706 -0.058807384 0.16272701 -0.01630881 0.04557562 0.00015341397 -0.043642938 -0.26750323 0.027545456 -0.26966184 0.09943616 -0.3161672 0.17008771 0.01763979 0.1748733 0.18566203 -0.34678426 0.12778182 -0.008374357 0.043954387 0.1891774 0.22271024 0.04895568 0.19249874 0.075271085 0.07709981 -0.0682424 0.038159914 0.09256651 0.027423179 0.105548486 -0.20273697 0.1214711 -0.22810982 -0.25803944 0.03565865 -0.0015104543 0.09174638 0.21171902 -0.20185298 -0.0121005485 0.15705717 -0.17764923 -0.002809783 -0.023294894 0.10460309 0.216669 -0.17756681 0.040345512 0.056246195 -0.053781103 -0.1880077 0.088593945 0.21180697 -0.10037441 0.08034913 0.1604828 -0.15081997 -0.0007614457 0.14327942 0.04342301 0.12108698 -0.1774918 -0.23280735 0.034720343 -0.22976373 0.15070724 0.059156504 0.05815835 0.064903006 0.092981584 0.04519631 0.16343871 -0.09906105 -0.023818165 -0.087342344 -0.14209592 -0.14278515 -0.18087164 -0.10016009 0.053308167 0.15130168 -0.042976685 0.30197823 0.09684803 -0.08834223 0.034883704 -0.1147036 -0.072780475 0.04162928 -0.1734765 0.05130698 -0.084536076 0.038941436 -0.16527738 0.00847032 0.057921663 -0.028148415 -0.13071874 0.048051197 0.023622643 0.38852412 0.021284707 0.033992045 0.03973131 0.005256788 -0.027303478 -0.11766651 0.08503443 0.19278698 -0.056961954 0.33028644 -0.10700963 0.069689244 0.017529638 -0.08226274 0.18992373 -0.18382372 -0.23746996 -0.22574295 -0.020798804 0.18648043 -0.08840293 0.15434149 0.07208466 0.044561252 0.047078125 -0.2936266 0.14113435 -0.056182634 0.0071306564 0.10518301 0.19321178 -0.13411386 -0.0024042444 -0.11314206 -0.16756968 -0.010039133 -0.31577733 0.0060497764 0.013202941 -0.04100832 0.27332544 -0.047744595 -0.09767432 0.018224884 0.047854457 0.061254606 0.045696057 0.1724417 -0.039430372 -0.17837398 0.037129637 -0.05978568
totos -0.26037657 0.12782936 0.048320677 0.052393813 -0.14243709 -0.24542692 -0.0010164531 0.33607203 0.16333446 0.12568255 0.14921327 0.083800316 -0.09023558 0.12397586 0.17012149 0.0060787844 0.29017004 -0.01984339 -0.013045956 -0.38469413 0.2063529 -0.12353276 0.07321105 0.10904101 -0.037145447 0.14405437 -0.15150094 -0.21295597 0.17794897 -0.10848945 0.1321081 -0.115810886 0.016183082 -0.09192197 0.20042217 -0.077178866 -0.04360006 0.16361406 0.35027325 0.20397449 -0.28992748 -0.027358014 0.04302743 0.023530707 -0.01394677 0.0040305657 0.07182635 0.03825198 -0.033011172 0.4313012 -0.16972798 0.22707127 0.030053236 0.048784282 -0.0321905 0.44079065 0.11548306 0.29513457 0.2328447 -0.27016273 -0.07514016 0.16244763 -0.17608868 0.3494451 0.0884703 0.36954382 0.07163662 0.1765928 -0.1312463 0.025859866 -0.059977513 -0.13096118 0.30230054 -0.08214528 0.016247608 -0.12785758 -0.26191774 -0.14610882 -0.078979485 0.008774419 -0.10890492 0.039638158 -0.17880237 0.27697945 0.114016056 -0.19012563 -0.3243835 -0.11004573 0.027576689 0.11813752 0.22686477 -0.36188102 0.24514158 0.08848085 0.2580144 0.47861776 0.28542706 -0.23218422 -0.25339425 -0.1811825 0.12899925 -0.099364005 0.051015362 -0.0014304054 0.10582857 -0.073949695 0.25041893 0.27129287 -0.070815876 -0.18786775 -0.31651106 0.12866332 0.17615314 0.29486534 0.10766519 0.11012632 -0.18837756 0.26287368 0.038072795 0.025146676 0.189989 -0.05925673 0.032146372 -0.040177822 0.26379248 -0.08579341 0.13401504 -0.18451208 0.01562594 0.038284488 -0.33663014 0.07736096 -0.07852074 0.0602963 0.07489891 -0.034040116 0.19084772 -0.056352768 -0.029158052 0.034840733 -0.040514026 -0.068258464 -0.037162717 0.17728472 -0.014807084 -0.036829427 0.037673447 -0.22541942 0.044173077 -0.19353035 0.17863819 0.04445275 -0.18404548 -0.4273802 -0.037838288 -0.2809379 -0.1054835 -0.27679327 -0.045160238 0.17045344 -0.03442843 -0.0005966488 -0.09997274 0.039311633 -0.25579238 -0.080837145 0.2662973 0.19378342 0.051752754 0.2618597 -0.17782876 0.14256825 -0.05109807 0.010731314 0.029397216 0.117610864 0.27363342 -0.21134876 -0.014481026 0.10283721 -0.1186571 0.16933545 -0.019236358 -0.1935645 -0.010347603 -0.5081937 0.0911609 0.19032642 -0.00026398667 0.22808252 0.04010508 0.2591238 -0.12203122 0.21178816 -0.056713033 -0.07086735 -0.07758121 0.26939988 0.22662419 0.12022793 0.009985578 -0.10864463 -0.12425281 0.02283297 0.17827545 -0.23371254 0.18092273 0.26689535 0.13634644 0.15047951 -0.00035372045 0.031434704 -0.31039655 -0.0045290464 -0.1556015 -0.2002193 -0.09969212 -0.26780313 -0.1479112 0.07282518 -0.15982103 0.42426538 -0.18066733 -0.19075225 -0.00040003489 -0.097081296 -0.21753328 -0.1559033 -0.40810993 0.007891311 0.08906288 0.057292186 -0.18316771 -0.1273556 -0.07869866 -0.07097781 -0.3280468 0.07715881 0.29528004 -0.26652062 0.058015607 0.053380705 0.24711601 -0.1582482 0.0947938 -0.13067152 -0.041666724 0.1629016 0.10213532 0.28588003 0.01603528 -0.19218613 0.13439153 0.11414854 -0.10513686 0.06461223 -0.15826996 0.08791095 -0.10926646 0.07198588 0.22734539 0.5090624 -0.0633019 -0.48303378 -0.020785395 -0.18569283 -0.07715727 0.18824956 0.18704136 0.09611256 0.055950593 -0.02075999 0.10431142 -0.160747 0.27957058 0.3427017 -0.0014130129 0.15641002 0.05454897 -0.27121222 -0.11077249 0.18997146 -0.180935 -0.06949397 -0.25434396 -0.23948398 0.0746895 -0.025890505 0.10544977 -0.14005992 0.229401 0.3084581 0.031375673 0.12600482 -0.13639021 -0.15405415 0.064478196 0.10985105 0.17179157 0.036239933
