486 300
tá -0.024799118 -0.0064331093 0.08358809 -0.15441227 -0.017896011 -0.10311285 -0.05252458 0.13870507 -0.038888026 -0.21270348 0.00013803935 -0.12683411 -0.020352062 -0.013458237 -0.1684874 -0.03847668 0.2111579 0.09341068 -0.022067342 -0.049848206 -0.021845084 0.038772155 0.20464814 0.1568175 0.08278006 0.11731954 -0.044661928 0.10719544 -0.026628818 0.010644999 0.13081758 -0.12162732 0.1559801 -0.11810798 -0.17501876 0.10466006 0.19066352 -0.08841598 0.13611409 0.1850742 -0.10218122 0.021081626 -0.0142224245 -0.192114 0.21281335 -0.020750985 0.021458928 0.10437505 -0.009181934 0.13308166 -0.11043205 -0.0650152 0.0071220486 -0.008219253 0.08993587 -0.0078064343 0.0062704915 0.0068790885 -0.06568938 0.10111693 -0.09628413 -0.2496665 -0.09141764 0.073075116 -0.10219585 0.01233841 -0.14085925 -0.092326015 0.024531832 -0.10897985 0.060389794 0.09117504 0.11944114 -0.07298961 0.26720637 -0.12492624 0.005252205 -0.023763677 -0.019895231 -0.08667509 0.0010361548 -0.08711875 -0.08403488 0.37507492 -0.10795943 -0.1554221 0.007434891 -0.12902622 0.13722594 0.22427307 0.0888075 -0.05719097 -0.07348981 -0.11502458 0.028299095 0.21588586 0.054462943 -0.016540589 0.04393618 0.08549996 -0.21294937 0.03660248 0.14113748 0.05562266 0.032274373 -0.23827094 -0.059427638 0.041352745 -0.011421539 0.11242047 -0.048474364 -0.19640324 0.054470442 0.034926385 0.09393058 0.022166707 -0.049680468 0.15594453 0.22401856 0.032292787 0.08774578 0.06048426 0.21846586 -0.04335587 0.05855859 -0.0532191 -0.017393917 -0.19442227 -0.09437105 0.04364348 0.19229187 0.07544956 0.13695447 -0.3130121 0.21148504 -0.049937967 -0.14659524 -0.07299756 0.17354706 0.050104026 0.0176138 -0.082272604 0.004985188 -0.02261782 -0.003102048 0.045078654 -0.14757012 0.10339827 0.16746859 0.032337643 -0.060545955 -0.12779625 -0.0026402227 -0.22123128 0.08227011 -0.0034477108 -0.07491382 -0.055170335 0.017663427 0.064983286 -0.041296214 0.096983485 -0.054927025 0.28140634 -0.16925803 -0.04126733 -0.09792221 0.021306966 0.117558084 0.10767577 0.03513539 -0.06957749 0.15683632 0.021870866 -0.012438741 0.14166789 0.06650855 -0.2654764 0.10620626 -0.026152313 -0.1289552 -0.02111778 -0.039820183 -0.12302623 0.08921092 0.0022782083 0.072133355 0.12432153 -0.102866136 -0.11654008 0.035517767 0.042095914 -0.0484414 -0.14129567 0.036456518 0.072037436 0.059646875 -0.14269279 -0.02269443 0.0038151445 -0.07362334 0.015531092 0.118591465 -0.098761566 0.06842725 0.092086785 0.010151276 0.008306282 -0.13559407 -0.050063398 0.05508103 -0.14658631 0.06086045 -0.052903682 0.11584712 0.14678946 -0.015960798 -0.012471888 -0.03924654 -0.16064192 0.09424477 0.03127874 0.056350768 -0.039224714 0.019528493 0.07225438 0.11289071 0.042165592 -0.008988216 0.08448327 0.14701217 -0.06878184 -0.02532194 0.01875772 -0.07511252 -0.17549422 0.03479023 -0.09952949 0.013982477 -0.1721477 -0.11210047 -0.13608651 -0.03573452 -0.023122272 -0.12020084 0.013974698 -0.014895617 0.045432817 0.059660554 0.01900249 -0.075073905 0.0061574155 -0.088541046 -0.16131897 -0.05915396 -0.14560255 0.0869549 0.16602014 -0.16544123 -0.05452818 -0.085207626 0.018340012 0.035888758 -0.11292658 -0.09565599 -0.037777547 0.13777739 0.14470884 -0.2081173 0.05647601 -0.11801374 -0.017144075 0.119226865 -0.06064637 -0.10416207 -0.02820115 0.10140773 0.078741245 -0.08073105 0.044369303 -0.12182811 -0.21356232 -0.13982677 -0.0059709335 -0.066719785 -0.049022768 -0.037052266 0.052743472 0.23492205 0.031444952 -0.021318132 0.18809971 0.27320004 0.0448481 0.11104627 0.114692844 -0.04318143 0.06438024 -0.020615898 -0.024701504
senhor -0.073896736 -0.00090040267 0.110812195 0.093857326 0.063934766 -0.14482357 0.0012078783 0.08897212 0.122804 0.1719857 0.1359266 -0.12591864 -0.03307827 -0.11599316 0.2516849 -0.20981234 0.26675597 0.08589746 0.054653812 0.07398918 0.14771578 -0.182847 0.224423 0.27002555 -0.12776124 0.12151096 0.2719229 0.14258796 -0.33568877 -0.13320029 0.1728125 0.06651833 -0.048296705 -0.107224904 -0.24824695 0.14998032 0.27915514 -0.06671386 -0.16734293 0.44753438 0.027285429 -0.07883019 -0.03857848 -0.30654308 -0.11415529 -0.060370103 0.34040114 -0.090735435 -0.0501879 0.031674545 -0.11293158 -0.011100491 0.0045510163 0.09901511 0.14186482 0.101953536 0.09734535 0.17558047 -0.107852094 0.07908747 0.07235744 -0.024137503 -0.07065913 0.07827284 0.23296408 0.15267345 0.24653324 0.23386738 -0.19624496 -0.26012468 0.30263722 0.032043763 0.34327295 -0.12958302 -0.021391563 -0.11338692 0.16832377 -0.09058041 0.0044989567 -0.1281691 -0.03062871 -0.06843127 -0.25898576 0.16869755 -0.070946455 -0.22354351 0.029288314 0.12987404 0.2334885 -0.14308669 0.08597043 0.10537191 -0.019397052 0.22410429 0.10610172 0.18330905 0.16092937 -0.16375405 -0.40081254 -0.2798553 0.08340396 -0.08569825 0.29059437 0.23937137 0.58237886 -0.24815048 0.06714675 0.12779525 -0.06377536 0.06564041 -0.22556543 -0.02678846 -0.003766103 0.25674608 -0.12711106 0.0038357228 -0.20123288 0.046705946 0.31989107 -0.17517878 -0.19462267 -0.05885598 0.12710668 -0.011238128 0.134125 0.040060863 0.082540356 -0.031595934 0.0145580955 -0.07747059 0.29986295 0.35333967 0.11271138 -0.16406572 0.3035598 -0.0044280086 0.13543124 -0.04480289 -0.22737898 0.11434751 -0.01954259 -0.19713613 -0.2784388 0.15192886 -0.032171555 -0.15873222 -0.022313267 -0.35935056 0.33062774 0.09949822 0.21796773 -0.010701082 0.08558953 -0.31505603 -0.06273686 -0.18665369 -0.42795038 -0.13448513 -0.19610935 -0.09512473 0.033083953 0.122055106 0.03129363 0.21686435 -0.0658508 0.011566724 0.25446036 0.12869632 -0.031475365 0.23120768 -0.21478695 0.0854188 -0.3579488 0.17378387 0.19029295 -0.0753447 0.07156477 0.15192366 0.36427432 0.21314943 -0.06522245 -0.06885909 -0.07962584 -0.12201129 -0.075037405 -0.14620575 0.16656037 0.24996883 -0.00030478108 -0.0631167 0.07879792 0.20266576 -0.1346603 -0.32801527 -0.18336843 -0.06691186 -0.16387555 -0.044054814 0.38356003 0.14574043 -0.19943601 -0.0027234505 -0.032086734 -0.51158273 -0.035503175 0.013160817 0.004759011 0.16309531 -0.106721215 0.04203229 -0.25216866 -0.09638983 -0.07333589 -0.254516 0.012753645 0.007583785 -0.2514932 -0.1541577 0.27384278 -0.14856839 -0.2705225 0.003973978 -0.07490118 0.103445016 0.13527046 -0.13927506 -0.031609155 -0.2249806 0.01894756 -0.014940958 0.22552927 0.10099436 0.23561439 -0.27848884 -0.2459493 0.1824059 -0.16811419 -0.14605129 0.1649563 -0.22045776 0.168671 -0.42353085 -0.11024214 -0.05707715 0.19209707 -0.3431882 0.09840735 0.20841748 -0.09796635 0.26952648 -0.05197099 0.024942972 0.09051468 -0.08852673 -0.19395123 -0.062376052 0.35575458 0.029537074 -0.007859976 0.14179212 0.26776707 -0.3166456 0.2951038 -0.19366555 0.066049464 0.00092123443 0.3259066 0.07944087 0.07377532 -0.06891075 -0.11733056 0.121200636 0.11684294 0.106189415 -0.27741045 0.20838553 0.01219255 0.18045741 -0.23086512 -0.13240136 0.09670256 0.032237817 -0.080275685 -0.064524055 -0.10621948 -0.15264769 -0.09036138 0.16840257 0.0488265 0.3222075 -0.17106183 0.13388321 0.06858282 -0.0060020615 -0.0512819 0.22921424 -0.25928757 -0.015986642 0.30012828 -0.189661
gente -0.07310169 0.055933215 0.077477545 -0.075414605 -0.18983492 -0.024286808 0.17655154 0.29715583 -0.09109113 -0.15361808 -0.13536082 -0.41619012 0.03702549 0.048803505 -0.38032967 -0.0800501 0.06675313 0.12962908 0.2379844 -0.14220476 -0.11574799 0.15855558 0.1759382 -0.018873494 -0.03666057 0.29935244 -0.4776527 -0.10254606 -0.017079465 -0.19598548 -0.011018966 -0.20624928 0.38066053 0.09254028 -0.18613216 -0.20608763 0.03859356 -0.36177826 -0.03308987 -0.17536147 -0.06793347 0.22223277 0.03336984 -3.764119e-05 0.022775372 0.19016267 -0.048859414 -0.08804314 0.013949364 0.2725881 0.07112395 -0.12230075 0.067343704 0.010644289 -0.07763332 0.1563799 0.03313768 -0.16894214 0.00024035235 -0.11101583 -0.19447103 -0.20534761 0.12556563 -0.20909682 0.048581947 -0.020297365 0.0034635393 -0.04650782 -0.15586789 0.06869626 0.08021686 0.16963798 0.14927165 -0.0032551573 -0.023585279 0.071891315 -0.14623381 0.17756006 -0.21726571 0.008207663 -0.08232844 0.02729405 0.046336524 0.38249326 0.0027315193 -0.09671385 0.06615609 -0.19364782 -0.065351136 0.19611198 0.08944757 0.050679713 0.04725962 -0.2455711 0.061677676 -0.13217701 0.20001587 0.14993379 0.10283802 0.31535622 -0.11370372 0.05005365 -0.022814348 -0.024787867 -0.13027984 -0.041790333 -0.10614669 -0.37827966 -0.16468805 0.18833412 -0.04982115 0.1317246 -0.15740094 0.068402804 0.38104436 0.29858014 0.028940925 0.17020825 0.012583883 -0.18972847 0.08453046 0.25154212 0.1882217 -0.006357146 0.024507996 0.13596205 0.059817914 -0.22309111 0.07065463 0.049138553 0.2276659 0.017977055 0.015754517 -0.014306661 -0.08881348 0.086125545 -0.34737554 0.041570924 -0.11223057 -0.27906412 -0.11944282 0.01820563 0.054447416 0.112982064 0.12021351 -0.145877 -0.43297225 0.03215209 0.23325548 -0.14832683 -0.089288175 -0.20223947 -0.21555433 0.09252725 0.16579692 0.24181077 -0.04350032 0.08757884 -0.107156835 0.24005416 0.12993594 0.19526073 -0.22161916 0.271184 -0.08553352 0.11650632 -0.30700567 -0.13947938 0.11038623 -0.031180266 -0.12988727 -0.0024591363 0.1838913 -0.32502002 -0.021777563 0.06333544 -0.13105646 -0.1270589 -0.0095591815 -0.05975493 -0.004330462 -0.09809038 -0.09735718 -0.043754693 -0.046241924 0.068252325 0.050794195 -0.103840284 -0.08507083 -0.37047952 0.06240032 0.03997638 -0.17151904 0.15761267 -0.001966017 -0.12894408 0.24584202 -0.10982734 -0.27661702 0.13312554 -0.039236914 0.26519477 0.1310348 0.033834103 0.34123787 0.06501322 0.2165099 0.18841586 -0.07148536 -0.03164114 0.17515332 -0.38574988 0.08402151 0.06878676 -0.03748126 0.0070677986 0.073908575 -0.03138836 -0.36271322 -0.17687364 0.1533872 -0.0401628 -0.18393311 0.093672164 -0.06525142 0.30919203 -0.06100668 -0.026356382 -0.026423823 0.00089068426 -0.08822612 -0.08583691 -0.06192016 0.16197202 0.035789013 -0.07324986 0.2328421 0.0780386 0.24862885 -0.20936 0.13014361 0.1513632 0.027442968 0.083857276 0.028045736 0.02495757 0.035052788 0.017111061 -0.012392771 0.015797213 0.083001345 0.042273965 -0.004099017 -0.14443026 -0.2898898 -0.1793579 0.35095534 0.039049275 -0.1622713 -0.1412645 -0.24480237 0.08504578 -0.048939914 0.044342104 -0.07729948 -0.096546434 -0.016361615 -0.11058142 -0.0020395513 -0.072147615 -0.06584322 -0.3428945 -0.12692739 0.08560975 0.07250646 -0.022864377 0.2015636 0.11325575 -0.17956161 0.034068383 0.17730497 -0.028817898 0.21337777 0.008716536 0.18975286 0.11938881 0.104695216 0.060045753 0.071782984 -0.19287929 0.30219847 0.1338167 0.20228027 -0.2025579 0.40309834 0.056089297 0.1845742 0.027771715 -0.049919777 0.034653146
certo 0.029000424 -0.20310774 -0.18519811 0.35129568 -0.077544235 -0.056821093 0.23446731 0.15050982 0.33282256 -0.03349064 0.09211767 -0.13577102 -0.06648809 -0.04441866 -0.053513765 -0.10303725 0.1965343 -0.18965355 0.16377884 -0.011150441 -0.17438167 0.06838931 0.01652628 0.15013804 0.2410909 0.004450799 -0.11023331 0.16034614 -0.20449674 -0.27218336 0.2447847 0.2862861 -0.26510438 0.09044867 -0.08354646 0.23392811 0.04460348 -0.36221465 -0.035499882 -0.017052414 -0.04820199 -0.04664793 -0.0979429 -0.21768142 -0.042241607 0.1746233 -0.029836228 0.30992973 -0.030781366 -0.25488117 0.067609996 0.10488202 -0.00094041834 0.14857578 0.116006106 -0.07082668 0.10545509 -0.08631736 -0.08316551 -0.004027684 -0.037226938 0.054537274 0.093502484 0.027654411 -0.010378586 0.14814968 -0.028844278 -0.16328056 0.054468364 -0.24406238 -0.0665479 0.20358802 0.28087983 -0.32453936 0.1197361 0.37273958 -0.15057793 -0.0835053 -0.16167955 0.06491551 -0.038674533 -0.14013648 -0.01521954 0.1055109 0.08437676 0.027673425 -0.054767057 0.288283 0.39742288 0.043183 0.0825542 0.1279691 0.07672377 0.2810051 0.031833272 0.24330704 0.11274809 0.11819042 0.1941113 0.15052497 0.015723629 -0.07981144 0.25295085 -0.014868916 0.13807246 -0.21343753 -0.1318545 -0.26797932 -0.028664794 -0.09552725 0.12419955 0.057975873 -0.16460682 0.22094107 -0.11453872 0.32019642 0.031797934 -0.04455415 0.31749338 -0.28788704 -0.13641559 0.052720815 -0.017230825 0.008316938 -0.31507477 0.13039614 0.018234977 -0.020998692 -0.08154195 0.1506012 0.15072279 0.20218863 -0.055728298 0.090758294 0.06877508 0.1330477 0.24007446 -0.12397036 -0.26772386 -0.15990299 0.07443996 -0.114387445 -0.2122152 0.20653094 0.11831016 -0.30182695 0.062075846 -0.25329337 -0.03947004 0.08948979 -0.07475037 -0.08630469 0.010073501 0.049134355 -0.05007455 0.15935268 -0.19736333 -0.08347355 0.1470625 0.14451262 -0.14226899 0.038740803 -0.06879936 -0.16396809 0.012288457 -0.21860951 0.032057922 -0.22072725 0.0032897135 0.20917843 0.13769223 0.15686126 0.0068481574 0.2507934 0.037391495 0.016042946 0.008467167 0.015996907 0.033530146 0.032933176 -0.027246667 0.07722478 -0.16579503 0.024885995 -0.030073978 0.13080654 0.1989246 0.15621775 0.14702897 -0.1148395 -0.042990085 -0.119843535 -0.24950098 -0.020070368 0.0072841016 0.028489953 -0.01711588 -0.17508815 0.39108005 0.054135144 -0.1450319 0.16454388 -0.31385252 -0.11346013 -0.18929967 0.049120814 -0.49866766 0.0023309214 -0.12029327 0.26676995 0.017741263 0.10616095 0.1196167 -0.22066078 -0.12969725 -0.2865426 -0.1334843 -0.48683956 -0.05697429 -0.33385953 0.22050565 -0.04408005 0.22370325 0.08589722 -0.22097185 -0.33476073 0.056805316 -0.030181304 -0.07030494 0.14076805 -0.019810123 0.050303496 -0.29483986 0.16151582 0.00023409375 0.06605106 -0.34023607 -0.24693274 -0.104778506 -0.11489243 -0.09583229 -0.15972859 -0.0711165 0.03224211 0.017145973 -0.3793499 0.112754315 0.0118506085 0.10405332 0.21564107 0.32990274 0.10440704 0.11209541 0.012009985 -0.06182407 -0.19178732 0.20467345 0.08020162 -0.2910588 -0.1470794 0.19061425 -0.08118535 0.023254579 -0.11976166 -0.24606979 0.34155726 0.06287376 0.3837924 -0.12039254 0.05844264 -0.0541195 -0.049786553 -0.1363006 -0.021218872 -0.028949078 0.2654514 -0.1280556 0.095946856 -0.14513159 0.17032146 0.046323583 0.04323882 -0.052280217 -0.099864215 0.05133104 -0.05410991 -0.3105681 0.01840392 0.026174655 0.4543707 -0.009647956 0.107610166 -0.20245872 -0.033322748 0.35322028 0.06077548 -0.00603593 -0.17997877 0.22710286 -0.09698901
pra -0.111651726 0.019620413 0.21262468 -0.46536535 -0.0430887 -0.16674995 0.049184695 0.46334085 0.12890078 -0.475331 -0.13457602 -0.4078541 -0.10814736 0.005931977 -0.25221646 -0.24152492 0.12516375 0.26848003 0.29369786 -0.13246328 -0.12815376 -0.006562689 0.06011607 0.16548412 0.12503526 0.10196632 -0.46808502 -0.009973078 -0.12891634 0.019852756 0.03513491 -0.256906 0.3803037 -0.1340907 -0.3783541 -0.17297326 0.109632865 -0.20923369 0.313366 -0.09984836 -0.19211656 0.31980523 -0.056747418 -0.0027026904 0.114167325 0.13481252 0.19829711 0.0013826612 -0.19289349 0.27876696 -0.031123623 -0.13316393 0.10720193 -0.22123927 -0.12860094 0.19053723 0.11449499 0.09338099 0.19060999 0.24264503 -0.1572117 -0.10820398 0.10906005 0.05069315 0.010041344 0.09988557 -0.10086054 -0.06643291 -0.44304377 -0.0063362597 0.17023675 0.27312246 0.06872817 -0.32323545 0.30126718 -0.17540169 -0.13640389 -0.13695207 -0.19792509 -0.14560297 -0.23722464 0.1457415 0.025248304 0.688528 -0.20239267 -0.40674454 0.13986593 -0.37981895 -0.050179165 0.12664044 0.23616605 -0.054761324 -0.14441581 -0.15917891 0.09036238 0.00925692 0.29454812 0.052140426 0.068563126 0.4090207 -0.24950102 0.06540386 -0.018699756 -0.033688616 -0.112741195 -0.21671897 -0.0014142232 -0.11087545 -0.24487412 0.22293466 -0.13966496 0.27304143 -0.047200162 0.11596498 0.3833755 0.11373468 0.18276753 0.27657604 0.17682052 -0.21654905 0.23638147 0.38830152 0.30868986 0.047278535 0.30793485 0.1330998 -0.06622902 -0.5458186 -0.0648991 0.12717979 0.40672404 0.045637585 0.07450913 -0.2434659 0.23386791 0.1688988 -0.80957747 -0.11030765 0.060284335 -0.17922464 -0.06476455 0.022412857 0.15055007 0.15490498 -0.100823574 -0.25459236 -0.37353912 -0.058908876 0.37107906 -0.22069673 -0.1365758 -0.18647073 -0.32455158 -0.09465711 0.12559214 -0.11653273 -0.12001135 -0.04949611 -0.007057832 0.23720299 0.021491388 0.1923184 -0.07338503 0.26948157 -0.25250903 0.038366012 0.08681882 -0.28368285 0.35247338 0.029191867 -0.24631995 -0.20869078 0.13370536 -0.13027966 0.43590155 0.234376 -0.07723687 -0.22568123 0.17160225 0.08140377 -0.10270408 -0.027181037 0.15549436 -0.13727471 0.1481829 -0.021582866 0.16425441 0.22218806 -0.12639448 -0.36644742 -0.26575974 0.26149005 -0.1451932 0.091703296 -0.1829956 -0.20095466 0.029272 -0.15782046 -0.13384703 0.2595911 0.118300475 0.43074742 0.14371797 -0.21752398 0.43550497 0.12173118 0.22741109 0.28853247 0.30190095 0.026876517 0.116576225 -0.56553197 -0.036688782 -0.23572063 -0.16131163 0.07888418 0.15799044 -0.2964418 -0.49034637 -0.069908716 0.33737603 0.1752422 -0.23415694 -0.018704798 -0.020251395 0.20356235 0.12491483 -0.15626995 0.17827702 -0.1035921 -0.01004103 -0.112386234 -0.0586903 -0.121813074 -0.0380132 -0.3390882 0.18523565 0.18874833 0.2499151 -0.29297933 0.013834452 0.13349861 0.05416876 0.16016136 0.03975612 0.22154917 0.04033131 -0.2513183 0.061058275 0.20697376 0.06755628 0.3105626 -0.026064783 -0.11665862 -0.43659374 -0.40477437 0.52088994 0.45678166 -0.14053778 -0.04169254 -0.27197313 0.033248052 0.07610749 -0.090070166 -0.056814015 -0.056530487 -0.005532834 0.06607396 -0.054625474 -0.14533266 -0.35112467 -0.39238325 0.07029656 0.15598857 0.17517734 -0.003425335 0.3318374 0.11109878 -0.14211538 -0.2162344 -0.23072328 -0.037287254 0.06470512 -0.1349103 0.0042537022 0.09961513 0.14183614 -0.054641914 0.05601265 -0.24234292 0.043224007 0.3991042 0.4712993 0.03718821 0.26221138 -0.07738768 0.19664678 0.271181 -0.06830952 0.26093748
contato -0.20350757 -0.07590311 -0.17084543 -0.069967695 0.025177326 -0.15740967 0.23655358 0.24231882 -0.2759921 -0.29933217 0.0366375 -0.5272908 0.20637503 -0.01086629 -0.46900573 -0.17150046 0.13378893 0.07868784 0.2395288 -0.06807852 -0.20917098 0.19112106 0.2727329 0.20024925 -0.25732413 0.295008 -0.32482377 0.013945192 0.18153864 -0.42180288 -0.18549518 -0.073888555 0.21491641 0.3375309 -0.05063671 0.020903533 0.32681382 -0.4464037 -0.4637221 -0.02155316 0.10357855 -0.027112566 -0.1815691 -0.13267753 0.01681225 0.36417788 0.070453644 0.12172643 -0.24731117 0.14914177 -0.28709698 0.12276264 0.23526086 0.01828326 -0.08687947 0.3650096 0.18282403 -0.010280176 -0.15375811 0.30939478 -0.032228403 -0.014829678 0.006249391 -0.4078454 0.10023646 -0.12034757 -0.1492083 0.080000356 0.06867339 0.097097166 -0.1555594 0.25573236 0.3618837 -0.2779166 0.1719973 0.32261887 0.124428876 -0.00976443 0.0076377713 -0.24416332 -0.096224904 -0.18678312 0.16955356 0.53665984 -0.32420418 0.04211737 -0.11840874 -0.047712937 0.25161323 0.20562585 0.008352794 0.13246725 0.086295635 -0.08496449 -0.14744404 -0.0065473258 0.20012778 0.32578722 0.024750324 0.20553274 -0.19183901 -0.015306194 0.1913366 0.035962936 0.1389894 0.035663858 -0.13625388 -0.028262328 -0.07396443 0.22266498 0.01333206 -0.24763262 -0.057578124 0.38518253 -0.13413501 0.2664554 -0.15137865 0.025378762 0.15513548 -0.121981084 0.1640402 0.10336102 -0.04411252 0.20410345 -0.27065298 0.037667237 0.10942679 -0.3003852 -0.1427807 -0.018311035 0.16682702 0.053337958 0.01067295 -0.1801323 0.041518137 0.17509885 0.10266122 0.05592015 -0.14965239 -0.21858299 0.10508842 -0.52676016 -0.17774121 0.2180989 0.1134749 -0.2193363 -0.19555657 0.08274196 0.2195466 0.06514962 -0.11731796 -0.106963314 0.34816438 -0.107247114 0.06154775 0.25194883 0.041553337 -0.20204987 -0.048891988 0.11901475 0.09963257 0.16201985 -0.1692446 0.06642709 -0.35220945 0.19896068 -0.2991795 0.018116275 0.27744567 0.27360943 -0.16191833 0.19220378 0.09721207 -0.14198086 -0.1615402 -0.017250217 0.057582814 -0.49788156 0.23287651 -0.021370703 -0.08363236 -0.094700634 -0.05279473 -0.10268824 -0.076652676 -0.14392498 0.17886253 0.4340163 -0.03881693 0.037846714 -0.11135574 0.099930234 -0.05630367 -0.039116245 -0.26934856 -0.06928131 0.039307725 -0.19663413 -0.10077511 0.17637625 0.199087 0.34473234 0.20638359 -0.30483055 0.33019024 0.060264863 0.41364428 0.30828962 -0.062191475 -0.122829445 0.22049028 -0.27536765 0.27024558 0.058610793 0.16573475 -0.063828856 0.08320074 -0.40435424 -0.136645 -0.5630417 0.48563153 -0.088091396 -0.3596673 0.047915228 -0.22102636 -0.005214894 0.008881836 -0.08967499 -0.24701244 -0.021164214 0.18619417 0.052559126 -0.281606 -0.110444814 0.12918277 -0.07925858 -0.16531341 -0.0038787113 0.041011114 -0.30446666 -0.024000067 -0.093574695 -0.1494327 0.1743609 0.025071593 -0.4010778 -0.0062554153 -0.096201174 0.0036381762 0.23545235 0.08860054 0.2715762 -0.20823272 -0.6348663 -0.0518378 -0.00572001 0.097670466 0.12971435 -0.33548993 -0.31286907 -0.17394139 -0.07093643 -0.13724566 -0.07690741 0.14938724 -0.096237615 0.20308821 0.4328352 -0.12646481 -0.113725185 -0.06960642 -0.206151 0.061658766 0.01890858 0.28615227 0.12837261 0.16827133 0.28560978 -0.10278498 0.13232793 0.13887031 0.14406441 0.1753688 0.00076757855 -0.031870488 0.26737276 -0.26088205 0.17328471 0.641813 0.12933484 0.3253922 0.28102994 0.09572819 -0.33041963 0.58339113 0.48435023 -0.023426441 -0.02899028 0.040288895 0.16955669
nota -0.20243856 -0.20989916 -0.27569595 0.5991116 -0.25157082 -0.16505641 0.23810142 0.2321931 0.24818698 0.13926181 -0.05637094 -0.55925465 0.110834934 0.21756913 0.052170515 -0.2607782 0.2060957 -0.28374326 0.12559879 -0.05427632 -0.15614764 0.18648586 -0.05667604 0.20147613 0.09798121 0.07658748 -0.49782693 0.24998665 -0.13436128 -0.25921354 0.45483857 0.22740106 -0.12182351 0.5134525 -0.1752243 0.09934444 0.25302267 -0.6035842 -0.1994538 -0.23692681 -0.02445159 0.116548605 -0.024132147 -0.057210572 -0.10898557 0.3192465 -0.008236586 -0.04496106 -0.1703734 -0.21995571 0.20562321 0.19094644 -0.045254014 0.14753501 0.27904883 0.05397738 0.05881038 -0.0951536 -0.19439425 0.029152378 -0.056794837 -0.20642361 0.23180856 -0.07931765 0.01348335 0.29260877 0.1436716 0.1383738 -0.049404755 -0.23079385 0.08427451 0.04622712 0.5171714 0.013094958 0.1230591 0.41855314 -0.3092474 0.16963196 -0.19818395 -0.14497036 -0.077316 -0.2815958 0.31759164 0.12421953 0.2697647 0.18220983 0.1634669 0.16934672 0.20018585 -0.3449882 0.32728764 0.14615038 0.1938155 0.61234826 0.09282817 -0.041322835 0.068654664 0.20975846 -0.057093434 0.14167099 -0.035257556 -0.03053911 0.34280002 -0.22585836 0.20599759 -0.06553944 -0.16485241 -0.26852557 0.034833767 -0.21702002 -0.15096259 0.19907579 -0.45938784 0.39403802 0.11514413 0.36740497 0.053323824 -0.2604811 0.15635206 -0.12982512 -0.17547688 6.3116386e-05 -0.33124912 -0.10184146 -0.30037296 0.2783738 0.25618798 -0.12067403 0.007417159 0.21889557 0.29632866 0.27435914 -0.056906924 -0.19291563 -0.06943604 0.28131592 0.08715103 0.03145635 -0.46554714 -0.32510388 -0.014515881 0.102465 -0.14592122 0.09896593 -0.1794158 -0.32816368 -0.33628345 -0.35369638 0.22503841 0.27115986 -0.1549584 -0.03565111 -0.04426037 0.22202912 -0.02989231 0.48894644 -0.31898668 0.31006753 0.41630316 0.16328387 -0.022245973 -0.0117796725 -0.10059974 0.013364281 0.16778804 0.20158835 0.0106148375 -0.19810383 -0.11070031 0.23642613 0.11380506 0.26069474 0.01426711 0.1243909 -0.03859239 0.08530211 -0.066211455 0.023264574 0.23969331 0.039353203 -0.25176227 0.03534156 -0.23931757 0.0550048 0.13738498 0.22427633 0.2289302 0.38395917 0.104613036 -0.2492951 -0.15130684 -0.1273147 -0.50066173 -0.291297 -0.25574633 -0.09859436 -0.24251711 -0.10771435 0.2239595 0.094120026 0.0040493994 0.18099749 -0.17993373 -0.43181518 -0.02968243 0.104301505 -0.31381682 0.14979056 -0.25748748 0.24915227 0.09979768 -0.06875049 0.17304227 -0.13776316 -0.18187322 -0.40173477 -0.11714765 -0.38805914 -0.034530804 -0.44957203 0.37365454 -0.01708209 0.014590644 0.116774485 -0.006070229 -0.33097717 0.4026352 -0.3337164 -0.09225988 -0.121626474 0.17680761 -0.011702282 -0.58770806 0.15501286 -0.01688499 0.14432552 -0.06691384 0.0071457275 -0.18589917 -0.30731747 0.2666882 -0.11354619 -0.3138493 0.14662433 0.24742182 -0.7497 0.15955572 -0.10756862 0.17025207 0.11906902 0.27639022 0.10799189 0.2688432 -0.30402943 -0.56648374 -0.1502891 0.69030696 0.011273666 -0.5612373 -0.18449573 0.2199644 -0.07080901 0.34865206 -0.24298394 -0.30738488 0.1677269 0.26580808 0.027107531 0.09193123 0.05751101 -0.035570975 -0.009344919 -0.30432776 0.100860365 0.06695832 0.13736647 0.049414378 0.045151945 -0.5713072 0.14162722 0.33609402 0.11173675 -0.0059796087 -0.2051 0.1600837 -0.052782875 -0.29782075 0.10304912 -0.09080395 0.6246341 0.078619696 0.14917211 0.031232625 -0.2983986 0.62470603 0.3011585 -0.1961517 -0.28434747 -0.027017271 -0.107430086
atendimento -0.33171874 0.21456422 -0.2597496 0.09825562 -0.060488403 0.17428713 0.29109505 0.20903033 0.23545939 -0.080634475 0.29333878 -0.31909534 0.36041784 -0.11204936 -0.39674625 -0.6527178 0.17762817 -0.28165817 -0.1394954 -0.2260703 -0.024920572 0.15615767 0.036653508 0.34249064 -0.06071877 -0.24759264 -0.6697516 0.13949977 0.26606524 -0.37249267 -0.030143498 0.13214761 -0.29005262 0.22064199 -0.082120545 0.27704924 0.06957619 -0.6197552 -0.44223422 0.15955445 0.0070310277 -0.046081513 0.08314867 -0.28414196 -0.19848001 -0.0022572335 0.18727279 -0.15236883 -0.29478964 -0.25724655 0.09202409 0.31166348 0.17410158 0.19574936 0.3435122 -0.10816288 0.3260711 0.09581097 -0.36514154 -0.011014799 0.061926395 -0.20094457 0.046189528 -0.1549974 -0.23169848 -0.12029025 0.19724709 0.11418645 0.073055975 -0.38773492 0.08689799 0.33724278 0.51246566 -0.103895664 -0.012337235 0.13610141 -0.15079825 0.15114167 -0.17825234 0.39729762 -0.3373999 -0.41437876 0.18796533 0.32239294 0.022365695 0.38588235 -0.22896811 0.16420828 0.21236499 -0.09205209 0.05563889 0.09136753 0.403139 0.5302993 0.09090932 0.20812503 0.041830968 0.25395492 -0.35862455 -0.11343535 -0.15255542 0.14253815 0.28791076 0.056854893 0.20471016 0.15134329 -0.43250075 0.020604087 0.09947431 -0.0019258647 -0.03760175 -0.3291827 -0.24245416 0.5805477 0.01059327 0.21451662 0.10157069 -0.39273453 0.6661266 0.34423235 -0.10687241 0.11768004 -0.1612901 0.25573653 0.03559937 0.06798163 0.19318977 0.15857415 0.016347557 0.37223405 0.12555611 0.31288 -0.08516028 -0.39172167 -0.07058778 -0.10123985 0.28960222 0.047549356 -0.2551019 -0.014144577 0.07578298 -0.17646174 -0.31398425 -0.19283415 -0.3056305 -0.27009904 -0.36894923 -0.028940508 0.09699101 0.097253785 -0.09547508 -0.12844464 -0.008889733 0.06132475 0.18678604 0.39536172 -0.077828005 -0.028102074 0.08043684 0.22657742 -0.16565008 -0.068855755 -0.25764498 0.07722199 -0.042719644 0.04035745 -0.18212797 0.09724668 0.13368027 0.3440162 -0.23069419 0.30149236 -0.093871154 0.19438337 -0.12162395 -0.17384747 0.13210978 -0.047010377 0.3874487 0.0077384305 -0.28498784 -0.13319023 -0.11917493 -0.1953971 -0.34292206 -0.018426819 0.13543373 0.7207919 0.3778917 -0.33062845 0.13250688 -0.21076612 -0.31708884 -0.06573474 0.12239784 0.10213776 0.029362198 -0.23768845 0.18750097 0.13645408 -0.16095361 0.1400145 -0.0742438 -0.32697368 -0.06526605 0.29361993 -0.3185121 0.283575 -0.24107291 0.006287491 0.094993375 0.033773 0.15891455 -0.14278007 0.2879662 0.021356422 -0.1844288 -0.53988075 -0.011430823 -0.54674506 0.20823117 0.1354192 0.018978586 -0.08525481 -0.05382381 0.122227535 0.24056885 -0.34598413 -0.14129929 -0.06019972 0.14936253 -0.049295563 -0.7081064 -0.08268846 -0.23542105 0.16042063 0.11380496 -0.11771152 -0.2405549 -0.21385507 0.35294917 -0.008878957 0.055458844 -0.13963424 -0.08367207 -0.6431785 0.28324288 -0.01889273 0.0409284 0.13439701 0.09441531 0.21170081 -0.0129605485 0.15056662 -0.317632 -0.31718597 0.4914994 0.025169868 -0.45757148 0.047225624 0.3182116 0.1450588 0.16968119 0.044769533 -0.19264309 -0.20793407 0.31406677 -0.019968577 -0.111126676 0.21577229 0.104794696 0.30674133 -0.31566763 -0.3220632 0.40100864 -0.19093928 0.18554512 0.30483538 -0.10126085 0.21763794 0.22308701 -0.06548115 0.12751965 -0.13355458 -0.14594081 0.15958694 -0.7723944 0.5728642 0.16853143 0.5285715 0.3392218 0.2937282 -0.000120389974 -0.044970732 0.4360176 0.5919487 -0.19222063 -0.42198193 -0.015905002 0.31183243
falar -0.006946486 0.02044033 0.0039199586 -0.3565518 0.35739857 -0.32835597 -0.28192088 0.34161526 0.061740283 -0.25459534 0.37266436 -0.010989069 0.1735948 0.2399041 0.058177616 -0.30221266 0.092084624 -0.07243608 -0.31442043 -0.12880668 0.11194392 -0.25371596 -0.20832226 0.2406948 -0.071189575 -0.4378209 -0.23070052 0.33793333 0.39356896 -0.0375261 0.183933 -0.0058699087 -0.045409147 0.16681145 -0.014848056 0.22508924 0.16695209 -0.22909772 0.1086044 0.32748514 -0.045792956 -0.17418884 0.5552064 0.1251632 0.069833845 -0.16901396 0.3939445 -0.018796336 -0.32545477 -0.007051285 0.13301235 0.09413628 0.043809865 0.14373903 -0.022351291 0.09816718 0.2097393 0.39462638 0.033677112 0.41731566 0.4275277 0.17902671 0.0331069 0.40020585 -0.45736137 0.1740374 -0.2590387 0.2444371 0.12835741 0.31831333 -0.18737054 -0.12929219 0.21932784 -0.1961993 0.3486507 -0.14169091 -0.29703006 0.20488131 0.40726343 0.027630916 -0.29260716 -0.022409385 -0.065347895 0.6414411 -0.277113 0.24731879 -0.27815625 0.056227922 0.22918664 -0.28116602 0.23946707 -0.26517192 -0.03696702 0.4819484 0.32477066 -0.19081844 0.51443064 -0.0061899405 -0.4016772 0.04950244 0.22325534 -0.2564991 -0.27607274 0.24434176 -0.118728474 0.32299772 0.2772761 0.34544796 -0.5524678 0.092759304 -0.46248618 -0.04268588 -0.007328303 0.014790715 -0.31869113 -0.13333544 0.35691395 -0.12658443 0.278984 -0.03793331 0.04547761 -0.0045489445 -0.009196237 -0.13675809 0.21843095 0.09886838 -0.18073978 -0.30749205 -0.40880835 0.2684601 -0.02090545 -0.19101301 -0.06434095 -0.5913739 0.470723 0.08840484 -0.42458948 -0.3836862 0.17661136 -0.27393255 -0.21214509 0.10804236 0.17376931 0.32149675 -0.37792885 -0.2561762 -0.23692134 0.21128908 0.09035518 0.05296167 -0.14301333 -0.52374125 -0.17335698 -0.23671411 0.042751953 -0.273214 -0.21546143 -0.071153134 0.12884197 0.38415697 -0.014975012 -0.33863363 -0.13546705 -0.02006839 0.08449612 -0.050412904 0.34434634 0.19874446 -0.117464975 -0.04708425 -0.29661104 -0.51866364 0.20056663 0.33229956 -0.32305637 0.081434995 0.4326078 -0.16807286 -0.009777038 0.20403923 -0.18708055 0.2747778 0.032897674 -0.21916768 -0.19850278 -0.13792579 0.20691973 0.7166149 -0.12115259 0.14656372 -0.114331424 0.071284786 -0.08224876 0.045894437 0.4335301 -0.057455245 -0.17864421 -0.06815248 0.26993662 -0.62136894 -0.123056345 -0.038833346 0.20219131 0.35994348 0.20483541 0.025111146 0.16525203 0.25667334 0.19854815 0.11534729 -0.1836904 -0.31294644 -0.24157697 -0.41922826 -0.08174106 -0.095949456 0.11147211 -0.40348363 -0.037030715 -0.32720742 0.21268995 0.20517746 0.026472978 -0.15710399 -0.035686523 -0.11219583 0.4794765 -0.17125733 0.23555343 -0.046101507 0.27125534 -0.04126987 -0.31752396 0.41222784 -0.14918649 0.14037687 0.2698829 0.4970512 -0.29419538 -0.11104981 0.08128305 -0.06990332 -0.30574945 0.0920277 -0.23975527 -0.36553058 -0.25302312 -0.47699028 0.26963475 0.1112458 -0.042643275 0.2874023 0.28996176 0.1999163 -0.45673066 -0.41057122 0.29314324 0.18263668 -0.40466166 -0.09807088 0.45984766 0.057407543 0.051686678 -0.38125837 -0.20725109 -0.25031784 0.1929733 0.12677349 -0.6612767 -0.05216332 0.031287827 0.052166622 0.06465359 -0.10478323 0.29612112 -0.24221826 -0.027544785 0.021343919 -0.11752829 -0.18675089 -0.18872838 -0.08301395 -0.040650032 0.00040146007 0.01445334 0.41000602 -0.28618717 0.32207516 -0.30242574 0.15890494 -0.012665402 0.21879847 -0.0790145 0.30313933 -0.1922842 0.24144657 -0.37135208 -0.01989977 -0.012337596 0.41766542
né 0.04825886 0.45798534 0.12235706 0.039184593 -0.18789802 0.11740494 0.074761786 0.098687224 0.17566368 -0.11237975 0.16505535 -0.296748 0.031141141 -0.11169584 -0.38164583 -0.31905487 0.14855365 0.23088424 0.12209586 0.0031374646 -0.054772854 0.05163194 0.0894579 -0.022720061 -0.025442299 0.33330384 -0.4328305 -0.23410678 -0.33848926 -0.17436524 -0.22192374 -0.28394818 0.044763833 -0.23862594 -0.33306524 -0.114392154 -0.018406345 -0.10378018 0.1945014 -0.001495903 -0.016347023 0.03365209 -0.016150452 -0.2200963 0.057867594 -0.05793687 -0.040030316 -0.032889824 0.09564929 -0.04715355 -0.13696991 -0.14520632 0.06999091 0.055812694 -0.06881135 0.055348855 0.32491335 0.040273413 0.10090669 -0.2953862 0.074017175 -0.4064111 -0.06912927 -0.06883396 0.18713698 -0.18501514 0.036831908 -0.11088423 -0.18310995 -0.2697563 0.29834896 0.15623169 0.18145236 -0.0018945795 -0.24123053 -0.08691119 -0.20881599 0.032010633 -0.28415495 0.15809704 -0.029956363 0.00285275 -0.1758097 0.084455356 0.09444589 -0.16080719 0.11285492 -0.112557225 -0.062299933 -0.107592374 -0.13782963 -0.011578644 0.044412877 -0.07184129 0.12370028 0.12848179 0.023507666 -0.09258179 -0.040147442 -0.08157159 -0.1366231 0.052806895 0.153746 -0.07412619 0.092666134 -0.09215849 -0.060026042 -0.15833919 -0.029708153 0.18146749 -0.008450375 0.03851698 -0.09184081 0.087793134 0.29055205 0.1810805 0.11013124 -0.14147529 0.42580545 0.127089 0.0032888874 0.26081252 0.3577008 0.046018906 0.33901012 0.03613173 0.14562908 0.05316455 0.26468077 0.23199481 0.3081561 0.21101834 0.11346776 -0.32253486 0.030253768 0.0055347094 -0.15308663 -0.022360587 0.0075618434 -0.09423761 -0.050753664 0.0027804298 0.12400416 -0.11179619 0.021419596 0.009370819 -0.3631258 0.059532374 0.06364924 -0.23808348 0.19237304 -0.10062607 -0.2643356 0.009891088 0.15526974 0.065628044 -0.17267026 0.072316766 -0.20231847 0.19204834 0.09912083 0.17776553 -0.18244301 0.18589668 -0.14435264 -0.20904568 0.014945148 -0.106289715 0.28709644 0.112987615 -0.20000021 0.14439918 0.18491104 -0.06355722 0.22351788 -0.1594846 -0.3658372 0.06846657 0.10584006 -0.12044506 -0.10514901 -0.03649188 -0.10954779 -0.25509927 -0.18138543 0.04113722 -0.00066786783 -0.21825475 0.082213014 -0.5186728 0.18890344 -0.00547905 -0.2410434 0.051835638 0.079841994 0.06524345 0.031733517 -0.20899163 -0.04539942 0.18858756 -0.21090119 0.031382546 -0.014583232 -0.09624423 0.08795582 0.18440968 -0.21633843 0.08646127 -0.33457157 0.060997874 0.076191604 -0.22655849 0.060735673 0.13204071 0.17211148 -0.00055323757 -0.15813373 -0.010692186 -0.12249344 -0.28871778 0.00634028 0.00042463024 -0.03374952 0.054419238 0.1364508 0.3097281 -0.026320864 -0.030384237 0.07435365 0.08952348 -0.09857951 0.09342499 -0.008747902 0.011760764 -0.11133369 -0.087159604 0.3911447 -0.053226747 0.35630196 -0.08094296 0.042165037 0.010314126 0.24118656 -0.1394568 -0.124023 0.05652315 0.16405702 0.15842901 -0.017199485 0.0026636529 -0.1726241 -0.018960305 0.053556524 0.14168574 -0.086674295 -0.25397146 0.39527738 0.037658837 -0.040228672 0.25024706 0.08303008 0.11406604 0.15246321 0.24818201 0.033370756 -0.01949023 -0.14946358 -0.0716255 0.0676208 0.09805382 0.0136666745 -0.013893246 -0.30210394 0.03295503 -0.08366909 -0.0948219 0.11866942 0.4420924 -0.021194901 -0.0021576816 0.24704222 -0.21813238 -0.107073486 -0.039253905 0.07451159 -0.017417219 -0.21492724 0.11530474 0.07468415 0.07529058 0.15602034 0.17440017 0.18385056 0.030995782 0.15299615 0.04009337 0.13964123 -0.22321293 0.07657981 0.04516502
senhora -0.029526094 -0.101093836 0.08467261 0.012313865 0.017040119 -0.16592044 0.07678914 0.11544686 0.20750128 0.087770775 -0.0004947303 -0.23232718 0.1298481 -0.25272003 0.05543864 -0.2681007 0.24174248 -0.06993501 -0.039076757 0.016624112 0.115193166 -0.016997458 0.29243743 0.26543707 -0.0678288 0.14555918 0.06526054 0.20816861 -0.29226568 -0.14187689 0.09549767 0.013061288 -0.07141604 -0.12284309 -0.14852023 0.007523092 0.21767145 -0.20049901 -0.053726673 0.34362957 0.011217485 -0.107009776 0.046165336 -0.28016335 -0.046640247 -0.2069988 0.1486344 -0.10030151 -0.024381978 -0.029737534 -0.013897366 -0.22139642 0.057917688 0.029379277 -0.02695781 0.0148582235 0.043046825 0.084141985 -0.10507538 0.16085602 0.09641569 -0.1298847 0.07075068 0.034668308 0.12743916 0.036417134 0.09777646 0.04389893 0.011786629 -0.22136272 0.25885293 0.07416184 0.20699325 -0.14342298 0.13520162 -0.07534942 0.0617749 -0.069779776 -0.061861724 -0.083042584 -0.021969115 -0.13567717 -0.3021604 0.3410348 -0.19913563 -0.10189797 -0.0727231 0.15619342 0.20487495 -0.038208973 0.07095962 0.042344544 0.04665315 0.09824326 0.1366397 0.14558657 0.24412446 0.034234483 -0.10793507 -0.030961225 -0.043852247 -0.040559433 0.25492513 0.2355313 0.20990814 -0.26664355 -0.031563565 0.035173915 -0.11966864 0.06863816 -0.12546103 -0.04733866 -0.10952189 0.19743228 -0.12579496 0.048209555 -0.013516088 -0.09784024 0.37784272 -0.21613793 -0.067105435 -0.05302778 0.17725064 -0.05236066 0.031607952 0.085366175 0.0017053736 0.014026641 0.0011124488 0.08894197 0.23448761 0.19643062 0.13953675 -0.35993174 0.21615838 0.007112846 -0.053920284 -0.049480446 -0.03937205 0.008604056 -0.06928671 -0.1655698 -0.033442542 0.14079368 0.032174435 -0.0805184 -0.043437675 -0.06601727 0.15127671 0.09112532 0.014309489 0.013314302 -0.061493706 -0.1302284 -0.13770348 -0.030531388 -0.39767814 -0.08673945 -0.0245261 0.15064144 -0.007255059 0.11162467 -0.010777774 0.19331577 0.14107826 -0.12685953 0.19469051 0.11530122 0.11256474 0.2628224 -0.14538515 0.07110386 -0.08295769 0.12416705 0.068759024 -0.015203417 0.0058042803 0.06450921 0.24786271 0.07917095 0.0075984513 -0.14695203 -0.051262002 -0.1782438 -0.12626302 -0.07972095 0.13084237 0.19326738 -0.06679502 -0.083481945 0.1852128 0.032122217 -0.17483802 -0.2969429 0.022891803 -0.05441666 0.022941826 -0.21348931 0.29480764 0.005737279 -0.11951702 -0.004745101 0.011476534 -0.28269774 0.007608268 0.0008775679 -0.05653993 0.05858942 -0.11983504 0.041244935 -0.025010712 -0.07355032 0.02552713 -0.15163402 0.040684123 0.046968665 -0.19024608 -0.13831268 0.16111346 -0.2850295 -0.06343925 -0.12405881 0.10013522 0.15227047 0.021180896 -0.044620294 0.1163799 -0.0063167326 0.13925189 0.103044614 0.24143207 -0.04747475 0.14255759 -0.056779023 -0.099241585 0.093300916 0.061183978 -0.083129585 -0.029315922 -0.045159213 0.058665894 -0.31114292 -0.013819926 -0.017307205 0.004353359 -0.17527115 0.14419961 0.21900032 -0.09743157 0.27184275 0.04027093 -0.04079134 0.1838198 -0.018021422 -0.19525063 -0.20037393 0.2579167 0.11271853 -0.03875728 0.16814248 0.16067223 -0.21068871 0.14213577 0.042951558 -0.007157246 0.0067923795 0.27862495 0.17555663 -0.14593434 -0.03164462 -0.1258419 0.015387766 0.11987195 -0.03960455 -0.31310183 0.11207058 -0.052989036 0.27140808 -0.12152115 -0.0479681 -0.06538023 -0.112975106 -0.061989862 -0.08275226 0.0070846383 0.031267174 -0.016871653 0.15301284 0.06638524 0.24436061 -0.099505104 0.08259679 0.0127558755 -0.05645731 0.052308876 0.10172223 -0.044367414 -0.06586985 0.20505065 -0.14547645
tchau 0.11292217 0.81100655 0.2323773 0.08797732 0.16603634 -0.6471532 0.06116082 1.2236109 -0.6191244 -0.8118705 -0.18918641 -0.17570566 -0.39975992 0.054602884 -0.23102166 0.06988398 0.38804138 0.3560149 -0.09260812 -0.14753726 -0.3893091 -0.030488608 0.19979694 0.28234562 0.48022458 -0.20455378 -0.1287874 0.19113095 0.28942347 -0.036418244 0.30783257 -0.5450286 0.2603452 -0.38025856 -0.0034668017 0.3691956 0.04800232 0.082951434 0.6821548 0.2500078 -0.37945548 0.075247064 -0.2792292 -0.3582534 0.8298054 0.10169275 -0.033084694 0.3074981 -0.11626463 0.68722916 -0.23721194 -0.07288013 -0.36026496 -0.06486437 0.12121202 0.332988 -0.33784735 -0.20165429 0.123403825 -0.09426493 -0.57298946 -0.702263 -0.23949979 0.41679958 -0.18963659 0.22852546 -0.1749177 -0.10829063 0.16506004 -0.0019775573 0.0919916 -0.11821601 0.44588017 -0.1498447 0.21440415 -0.21644986 -0.48459563 -0.40757945 0.18884507 0.33445373 -0.092064895 -0.94149363 0.37769958 0.7451335 0.4310659 -0.06643736 -0.16101804 -0.24023494 0.57829833 0.7477311 0.5469524 -0.6617434 -0.043456476 -0.59559035 -0.2818771 0.79019403 0.15446076 -0.5656758 -0.16043068 0.26769486 -0.4387649 0.35104874 -0.12724866 0.11191982 -0.22498663 -0.5611384 -0.24567354 0.63166565 -0.17718911 0.26142013 -0.73212206 -0.34675604 0.43990076 0.24428737 0.07961544 -0.41284993 -0.09367052 0.42856532 0.051366907 0.07944176 0.79182255 0.6063902 0.22559905 0.15544645 -0.21746483 -0.018059637 -0.08487291 -1.0024283 -0.23611508 0.08836116 0.19771709 0.15457568 0.32617328 -0.712506 0.20506579 0.17020974 -0.3142112 -0.571495 0.085476704 -0.2295895 0.3278504 -0.48747668 0.5990239 0.01396813 0.24423636 0.24076945 -0.7570154 -0.11604973 0.2155305 -0.31355885 -0.120610945 -0.8995732 0.13542873 -0.8368183 0.4041196 -0.010129561 0.1522457 -0.23001176 -0.09287102 0.24823245 -0.050139543 0.13276368 -0.53440136 0.5503072 -0.67772514 0.49953595 -0.3290872 0.20175879 -0.22388561 0.6243645 -0.03078579 -0.43146443 0.48482814 0.45100304 -0.015473879 0.4830293 0.11346833 -0.7716125 -0.20801032 -0.10892133 -0.27941272 0.37488896 -0.16960108 0.07771245 0.24421717 0.2786941 0.53112435 0.5250717 0.14647156 -0.2740733 -0.12742153 0.03290369 0.093923174 -0.17144795 0.29165447 0.13042645 -0.33780587 -0.185076 -0.17506519 0.22075316 -0.10711489 -0.38532943 0.36689335 -0.26335797 -0.14054823 -0.044147648 0.39479867 -0.32866207 0.006992094 -0.42993593 0.38964325 -0.49576232 -0.4786744 -0.1641825 0.6550073 0.011935324 -0.19855772 -0.5827291 -0.4190374 0.09257333 0.4335031 0.2536765 -0.19199596 -0.8318983 -0.319134 -0.16306362 0.04583256 0.21587133 -0.29124817 0.40473768 0.28775832 -0.24449733 -0.036354374 0.2592321 0.3359506 -0.39851013 -0.39680594 0.06490135 0.010382641 -0.8076275 -0.32782423 -0.11564457 -0.13259517 0.056362808 0.15244424 0.03524259 -0.20087229 0.19095398 0.47855395 0.028387012 -0.06740512 0.29409263 -0.048334043 -0.41238496 0.18119518 -0.1970305 0.4251839 0.53597003 -0.8710842 -0.598271 -0.32025936 0.21558966 0.24519709 -0.9435995 -0.32868966 0.21984015 0.21587542 0.35514787 -0.4066174 0.077751495 -0.54322076 -0.19063649 0.5212862 -0.5105417 0.58914715 -0.105011575 0.41092548 -0.3205743 -0.35664174 0.12029491 -0.31684735 -0.015847262 -0.3607758 0.7109486 -0.06452213 -0.27523732 -0.5358475 0.33086163 0.6335861 0.2670032 -0.13562982 0.62901354 0.9046046 0.3892237 0.025744898 0.6528046 -0.076569125 0.257876 -0.10288797 -0.42015183
empresa 0.095317595 0.1958815 0.16843311 0.09449137 0.0067256223 -0.16009465 -0.10147098 0.43288213 0.18762663 0.15046729 0.2575722 -0.034164306 -0.28795293 -0.06664795 0.031571466 0.1688466 0.101788476 0.39304337 0.31362808 -0.03492254 0.072766826 -0.32697383 -0.12560892 -0.26751095 0.23648904 0.14651167 0.028981425 -0.3826484 -0.4054361 -0.084266074 -0.06381735 -0.39740092 0.19606578 -0.21146792 -0.29155377 0.09924017 0.064917326 0.0005150037 0.3155976 0.2479633 0.031796254 0.14281887 0.35477346 0.06361028 0.4162209 -0.10749108 0.24287128 0.08135296 0.15560198 0.24519905 -0.13220239 -0.2952416 -0.25289705 0.09818681 -0.264018 0.32296202 0.28605333 0.013374593 0.28798717 -0.32045323 0.11389802 0.13416688 -0.31941363 0.18351328 0.25131837 0.17551991 -0.08881888 0.1367875 -0.40071958 0.022022283 -0.090670794 -0.16726847 0.20259903 0.049580492 -0.23261209 -0.0078948485 -0.27799454 -0.10700894 -0.33028895 0.2748127 -0.046660192 0.033908393 -0.35771093 0.088701054 0.08484224 -0.26020637 -0.031064315 -0.22095008 0.20858572 -0.16318731 0.19028878 -0.22613904 -0.25628933 -0.121819936 0.38050792 0.25228375 0.30251577 -0.367419 -0.2007076 -0.045462362 0.1666027 -0.015829114 -0.09768282 0.069151 0.060906455 -0.19784264 0.28390583 0.1268402 -0.41187716 0.254283 -0.3930609 0.11991242 -0.20832463 0.026992261 0.11967239 0.010991792 -0.018494565 0.33537403 -0.05087319 -0.045592997 -0.17265783 0.21711592 0.5019182 -0.1736298 0.32835138 0.16396749 -0.018942997 -0.5978214 0.032325216 0.41769156 0.105056405 0.21840154 0.020744951 -0.10980342 0.14841977 -0.015092043 -0.4628046 -0.3064662 -0.36143103 -0.2873333 -0.09309818 0.017406382 0.14831215 0.15100864 0.1528573 -0.17056634 -0.20415026 -0.2099441 0.24643244 -0.22824682 0.36250857 -0.5553697 -0.34338436 -0.22143224 -0.0072536194 -0.46748593 -0.45370108 -0.01692479 -0.2582379 0.25265166 0.5878928 0.21742617 -0.1033658 0.062113762 -0.22090812 -0.17621818 0.08605588 0.010424968 -0.36177012 0.20149009 -0.066274755 -0.16430669 0.25346026 -0.045974564 0.1909156 0.015232593 0.01425031 0.07405206 -0.26583317 0.037088074 0.14364085 0.2412578 -0.18083885 -0.295262 -0.17781372 -0.119528845 0.3018381 -0.26409286 -0.007819649 -0.3856689 0.12501541 0.20380266 -0.2125207 0.13450967 0.34096923 -0.055809375 -0.14001167 -0.13942975 0.11081249 -0.25460786 -0.5790118 -0.30970877 -0.08098982 0.25512427 -0.14838937 0.02743199 -0.020476285 -0.064945035 -0.0048436713 0.1605219 -0.27787 -0.30037752 -0.519605 0.12087753 -0.25835308 -0.08486746 -0.16408633 -0.07901215 -0.15021111 0.08543518 -0.017381055 0.007820494 -0.1011443 0.07243161 0.07887877 -0.02385851 -0.03608496 -0.07672469 0.06611671 0.3173134 -0.0031544496 0.16623448 0.16335553 0.298989 -0.25165302 -0.10747512 0.19777009 0.18936528 0.21588875 -0.064003356 -0.065920636 0.09294636 0.2222444 -0.1217039 -0.09200735 0.06652404 -0.20083915 -0.011115235 0.12504953 -0.18556578 -0.29003578 0.046148233 0.2070346 0.23583136 -0.285371 -0.20458932 0.34269118 0.029585872 -0.17447825 -0.040278472 0.28203526 -0.025309835 0.2535959 -0.331619 -0.31994456 -0.14705351 -0.11815381 -0.10041372 -0.17054246 -0.102381065 -0.07323457 -0.039143 -0.20195834 0.07113718 0.08583777 0.14606127 -0.3126067 0.23769544 -0.22046627 -0.37535435 0.42509764 -0.11965458 0.000546809 0.13995089 0.0055767912 0.22985584 -0.1220243 -0.043381114 -0.43593824 0.05766004 -0.21127556 0.18795788 0.016787665 0.25276834 -0.3468446 0.13558492 -0.12664258 -0.14654551 0.10300256 0.0041576894
suporte -0.50504297 0.09410844 -0.22282507 -0.050070502 -0.24877515 0.051461507 0.19574395 0.11595745 0.032218583 -0.1744022 0.2084213 -0.43994212 0.11434108 0.120474964 -0.23808964 -0.4738613 0.13175023 -0.06612928 0.2800797 -0.26795778 0.032080095 0.23385017 0.03792938 0.35566437 -0.15870418 0.06854701 -0.8656318 -0.059379335 0.08912579 -0.39783227 0.11589288 -0.106809966 0.0066837743 0.4524417 -0.3099132 0.37610045 0.24221778 -0.3972879 -0.31505853 -0.13688612 -0.06312222 0.022507932 0.062050644 -0.24437734 -0.15395093 0.22643341 0.27279308 -0.19420567 -0.19104263 -0.050859317 -0.15793931 0.41396448 0.2531386 0.033548873 0.5721025 0.08022501 0.47304785 -0.040653795 -0.19941823 -0.07630991 -0.002911236 -0.10384397 -0.12813395 -0.13505353 -0.03589605 0.14922197 0.05554739 0.038480412 -0.31832394 -0.17556883 0.05544313 0.40266904 0.680971 0.022404263 0.043302324 0.13546269 -0.06728983 0.17541632 -0.43963045 -0.053884927 -0.35047767 -0.23740934 -0.00424185 0.39605463 0.17174588 -0.03233257 -0.06319431 -0.18411708 0.177834 -0.11342367 -0.030076694 0.22386685 0.20801824 0.49503207 0.23118441 0.25550836 -0.12819825 0.16251738 -0.5282706 -0.1828262 -0.38531306 0.105396196 0.29441547 -0.14970331 0.35946855 -0.0045554875 -0.3435118 -0.06452118 0.21854985 0.18430862 -0.043887693 -0.25585675 -0.29800025 0.6087086 0.4688165 0.3543241 -0.05727393 -0.19278745 0.46009788 0.52213633 -0.29833725 0.23648791 0.07278952 -0.010827879 0.2625215 0.0685247 0.24700446 0.00024780637 0.1223252 0.29803 0.36693177 0.25473177 -0.063846 -0.2402984 -0.06161066 -0.10108695 -0.015966931 0.21868946 -0.39864668 0.10948829 0.05109765 -0.13030182 -0.43723214 -0.4836264 -0.45191723 -0.42663318 -0.51601785 -0.06521912 0.47838464 0.17417035 -0.072592795 0.09524574 -0.07695506 -0.09478344 0.32078192 0.28357714 -0.23224802 0.034840383 0.07071257 0.084508754 0.020600557 0.028879358 -0.24779694 0.2607176 -0.43316448 0.038332213 -0.42932117 -0.07158526 0.33826506 0.32193902 -0.21684088 0.41248494 -0.114778236 -0.10884572 0.06663083 -0.18515794 0.17026554 -0.21700683 0.50530714 -0.052479856 -0.40611947 -0.11113567 -0.27787519 -0.18748347 -0.084118105 -0.19686449 -0.0034267607 0.5603507 0.13025485 -0.6118547 -0.032193705 0.022397185 -0.34196368 -0.06517157 -0.17193359 0.037980426 -0.020146722 -0.08479927 0.0036672933 0.33865094 -0.20136644 0.3526812 -0.13568339 -0.41043824 0.30003896 0.40656263 -0.25031796 0.52941585 -0.29940334 0.058706887 0.07398292 -0.19312209 0.28259897 -0.012680821 -0.022726223 -0.028128196 -0.107959166 -0.57888585 -0.33134785 -0.39918238 0.24197595 0.41975993 -0.349179 0.08255972 0.20568594 0.23506476 0.23782735 -0.61174804 -0.3585424 -0.11556363 0.27782637 0.09097345 -0.745089 -0.24696183 -0.5310523 -0.024309712 0.14830336 -0.19708098 0.1866873 -0.6341712 0.34077942 -0.017884249 0.11121019 -0.10190039 -0.10907006 -0.61370385 0.30139402 -0.09539797 0.087737866 0.1144721 -0.08326768 0.31677353 -0.14381705 -0.17814791 -0.5959643 -0.29025808 0.6110097 -0.003608321 -0.53127694 0.038526163 0.11872865 0.40436321 0.17307541 -0.1315872 -0.19602025 -0.37210453 0.25218752 -0.12128741 0.13567193 0.23475164 0.15341434 0.08692916 -0.44618857 -0.024764711 0.5499827 -0.14706728 0.2853814 0.32417402 -0.26147315 0.15706971 0.5754111 -0.010327817 0.04150917 -0.28562447 -0.26013574 -0.051236883 -0.6714171 0.49687508 0.0867197 0.41475245 0.34721315 0.55616826 0.29458255 -0.07158879 0.56488794 0.6554408 -0.33626083 -0.5824437 -0.029392717 0.33091265
hoje -0.20152172 -0.09955183 -0.034917716 0.13508904 -0.10654407 -0.09515108 0.28302237 0.237532 0.28220502 0.1470368 0.19007795 -0.094969876 -0.08939257 -0.010929801 0.015611181 -0.24205056 0.09443734 0.22059603 0.28207356 -0.20146191 0.16022159 -0.16702732 -0.12312467 -0.0035384954 -0.0051711043 -0.0350105 -0.11509721 -0.15515509 -0.31081027 -0.21760929 0.25840798 0.02056162 0.027017158 0.22796665 -0.26561227 0.12835349 0.24792898 -0.42676944 -0.21352635 0.07716646 0.105123654 0.10121483 0.10698006 -0.1956414 -0.096933 0.14160423 0.13957259 0.10055793 -0.019030444 0.0912614 0.049364537 0.12124334 -0.14679891 0.27634156 0.00804823 0.2655346 0.31862336 0.06815054 0.085572876 -0.15811409 -0.03062295 0.14827281 -0.14330706 -0.04735805 0.07207026 0.32508025 0.008768086 0.084267505 -0.555527 -0.29708406 -0.13184784 0.13412866 0.38002872 -0.038747735 -0.18958892 0.093323946 -0.12538491 0.16063334 -0.47944543 0.08281819 -0.10072387 0.004217006 -0.096263155 -0.0488871 0.23445824 0.0026004668 0.09568032 -0.25452876 0.17574638 -0.22031972 0.13468255 -0.013047696 -0.12081411 0.26756445 0.3314605 0.16663295 0.11771569 -0.14170994 -0.30661616 0.00946438 0.09638954 -0.08335141 0.13772665 -0.05625586 0.32196808 -0.12587975 -0.13711797 -0.061877046 -0.12955208 0.10774358 -0.14803372 0.19045046 -0.4187505 0.546858 0.120031014 0.27885485 -0.2303096 0.27725184 0.049516812 -0.007025036 -0.31433177 0.022019813 0.058029667 -0.16846879 0.06242211 0.13883607 0.27366906 -0.30825534 -0.02264163 0.16071907 0.2867606 0.45756724 -0.06745987 0.07830792 0.13560593 -0.020249834 -0.0041199056 0.020544263 -0.5587387 0.03417829 -0.030623801 0.240266 -0.23411362 -0.051050197 0.0061322073 -0.2678109 -0.06737087 -0.39119935 0.29391748 0.1185047 0.06699191 -0.13108817 -0.2556644 -0.029776704 0.071085736 -0.14727943 -0.5545949 0.040751703 -0.05125067 0.16774945 0.31669265 0.14343828 0.17274582 0.0066878404 -0.135752 -0.12893891 0.06401521 -0.27344936 0.009179709 0.1861665 0.07580828 0.11324729 -0.18814737 0.08242194 0.22732532 -0.04566429 0.09844886 0.22577082 0.0016267651 0.18569636 -0.11154636 0.037839293 -0.0758638 -0.1358922 -0.0058265794 -0.08348607 0.24303427 0.26565143 0.14382736 -0.27546778 0.11976523 0.23339991 -0.37816346 -0.042891275 -0.14512904 -0.08938821 -0.20765352 0.0015277835 0.20812796 0.14723961 -0.29954243 -0.07554966 -0.17364919 -0.20179628 0.013447993 0.20833662 -0.14728868 0.29377776 0.049815375 0.2742862 -0.2721878 -0.0702718 -0.14493425 -0.14413051 -0.30149174 -0.12528047 -0.20515256 -0.39000776 -0.095157295 -0.15525243 0.10170363 0.15647279 -0.040456995 0.2454222 0.25313655 -0.114812806 0.04785663 -0.40281302 -0.085692406 -0.11999754 -0.06609869 0.1302721 -0.37065795 -0.060671397 -0.26110092 0.14639126 0.033793636 -0.12139032 0.04955236 -0.41723785 0.23131743 -0.15697339 -0.093455195 -0.044147618 0.23701948 -0.4533217 0.102852695 -0.1258624 0.09970329 0.13499346 -0.3155149 0.14429177 0.02456662 -0.03952356 -0.56817335 -0.1753367 0.65365165 -0.053386874 -0.15338697 -0.2617414 0.31460902 0.017245667 0.3644438 -0.24064544 -0.32694486 -0.14403485 0.24206407 -0.27126116 0.19056588 -0.04987264 0.0038092232 0.21598358 -0.28924555 0.16402866 0.073233075 0.2379986 -0.011377623 0.14421247 -0.38672352 -0.11128982 0.59089935 0.05407488 0.20314038 -0.19136061 -0.05825687 -0.0063038133 -0.31625408 0.16708131 -0.35544285 0.13034296 -0.0921008 0.20380953 -0.075264186 -0.111408055 0.031483326 0.18984881 -0.26839298 -0.101397835 0.009880376 0.13313182
vou -0.024846686 0.13737307 0.051498774 -0.05278447 0.06509193 -0.2737181 -0.053092316 0.34673735 0.39355165 0.042533536 0.073676996 0.020407807 0.024790103 0.055088144 0.10255651 -0.12890348 0.22265933 -0.17846142 -0.003820246 0.0764105 -0.08211594 0.29107636 0.10373057 0.19682823 0.20492539 0.0010202373 -0.23537363 0.5527989 -0.19428043 -0.07477337 0.37612578 -0.040767618 -0.07771202 -0.01850072 -0.2677356 0.13747387 0.13064358 -0.043611508 0.28158894 0.18435457 -0.32127306 0.08630954 -0.008791928 -0.22764008 0.24437462 0.17770992 0.04084412 0.07728759 0.025819495 -0.19244927 0.11953886 -0.04426019 -0.00036137158 -0.2093031 0.28030074 -0.1235164 -0.11791835 -0.0177008 -0.008377941 0.09818932 -0.026902622 -0.53127795 0.06691593 0.43307748 -0.038876325 0.015112509 -0.10382041 -0.09679122 -0.11923028 -0.012286019 0.3058725 0.05010327 0.22613549 -0.2844729 0.3292381 0.004860561 -0.18708332 -0.18128544 0.043458037 0.11377725 -0.21619456 -0.06147415 -0.12533951 0.45896587 0.001811892 -0.20861341 -0.02107521 0.17673837 0.060671594 -0.08493873 0.3590743 -0.08033131 -0.09877552 0.23395455 0.008690292 0.10629794 0.3226915 -0.029058933 0.08653777 0.07706052 -0.15525372 -0.1492899 0.019066205 -0.040866997 0.12161649 -0.19699802 -0.06985102 -0.06222202 -0.027890712 0.06013488 -0.15547764 0.036172826 -0.15909296 -0.10244042 0.2444756 0.17600264 0.16826919 -0.23990573 0.5148135 -0.176507 -0.07838778 0.02679119 0.10351654 -0.119803034 0.01965388 0.0135560315 -0.21699572 -0.27419862 -0.18329869 0.17491487 0.2855184 0.059500676 -0.07860923 -0.42775354 0.2462571 0.12276076 -0.27762407 -0.22538786 0.15604003 -0.23856483 -0.11234639 -0.07300963 -0.067128286 0.25399578 -0.11705498 -0.15495163 -0.24539624 0.2145031 0.23261401 -0.019812876 -0.18162847 -0.15959306 -0.008219432 0.0072913063 0.030555496 0.07898884 -0.018748377 0.0967544 0.096312776 0.19795986 -0.27792263 0.08040753 -0.3019251 0.31033507 0.06428818 -0.086807 0.19936836 -0.040618494 -0.098031715 -0.042074006 0.102717035 -0.23032638 0.1489911 0.3070451 -0.0076392028 0.013475674 0.10016029 -0.04579585 0.23224054 -0.129344 -0.30742967 0.061548617 -0.12747443 -0.12242353 0.20649259 0.20640898 0.108000584 0.21201086 0.10173996 -0.17348059 -0.07597353 -0.07027495 -0.102470875 -0.08480338 0.088236816 0.25015876 -0.054584228 -0.22479309 0.32595995 -0.1381576 -0.21831016 0.287477 -0.10356601 -0.076230615 -0.06906208 0.12605183 -0.37864146 -0.16941024 -0.35106933 0.14173877 -0.050275117 -0.28972542 0.07846722 -0.4902337 -0.05792372 -0.32976517 0.0136165265 -0.33576262 -0.12472266 -0.2111796 0.09855204 -0.10451836 0.3449547 -0.20495683 -0.21505512 -0.046289578 0.36892167 0.06699072 0.1966751 0.26394162 0.08699961 -0.07958382 -0.13972802 0.23946966 -0.24234082 0.061745945 -0.20025446 -0.01959242 -0.07082584 -0.2764121 -0.014254269 -0.08189069 -0.09405324 0.18639873 -0.29844925 -0.07296852 0.12427551 -0.25555658 0.066592924 0.10366783 0.3378356 0.12682772 0.1766247 0.20876162 -0.2004536 -0.47675818 0.1924158 0.38865328 -0.5157294 0.10510408 0.2630647 -0.057773855 0.19477768 -0.21777907 -0.10278271 0.24328795 -0.17641482 0.23764388 -0.33058473 -0.014390732 -0.112104364 0.040004987 0.14502367 -0.032080386 0.04271227 -0.22291766 0.100089476 -0.21661134 -0.15959011 0.19714552 -0.3277533 -0.31013316 -0.46368745 -0.2971503 0.116733 -0.23400554 -0.011101159 0.119423844 -0.080973655 0.3755581 -0.16955946 0.23608227 0.1540727 0.25511643 0.28542072 -0.04970392 0.0027888825 -0.17019641 0.0841409 -0.15182413
gostaria 0.008413155 -0.35419148 0.008070999 0.23090193 0.19697557 -0.42449975 -0.37541738 0.23504981 -0.083708294 0.03768078 0.25538737 -0.30708072 0.20547839 0.34983137 0.3355605 0.032771453 0.08404369 -0.22501257 0.098780625 -0.27877983 0.040847063 -0.22336528 -0.08691801 0.276434 -0.11852395 -0.123009205 -0.025998676 0.18223484 0.08076851 -0.07770944 0.23438732 0.07569466 0.27297226 0.3536059 -0.0034189983 0.30211326 0.21816671 -0.28582728 -0.25500077 -0.046448443 0.24372293 -0.03479975 0.38017282 0.14850824 -0.058812663 0.13136779 0.20061047 0.10713833 -0.6751723 0.11326342 0.039001986 0.15042658 -0.295016 0.047922604 0.048493475 0.16215685 0.06381447 0.14476235 -0.30282027 0.25275463 0.18845022 0.57366824 -0.047583558 0.09711253 -0.20627828 0.3747 -0.013514608 0.27501974 0.071606025 0.31068808 -0.6039568 -0.1915368 0.34137252 -0.06738372 0.2877157 0.18129623 -0.26727143 0.0458654 0.085660934 -0.33363834 -0.014333614 -0.20641005 -0.23092203 0.5158937 -0.31531313 0.40059334 -0.20350404 -0.038253274 0.48897862 -0.24252129 0.25040185 -0.122590505 -0.16033562 0.34198138 0.24451098 0.11324269 0.047732264 0.11608457 -0.4358717 0.13107781 0.29316172 -0.18527476 -0.18814321 0.13985097 -0.04117186 0.12968928 0.31629285 0.04147897 -0.46438706 0.071967505 -0.55904496 -0.11517755 -0.12785152 0.39043504 -0.30909088 -0.06631193 0.036158316 0.009835544 -0.26484329 -0.06881911 0.037059985 0.00130422 0.084971845 -0.19227216 -0.13844013 0.20357546 -0.25440937 -0.4075587 -0.3120769 0.011298103 -0.0137398355 0.011030912 -0.019595403 -0.276631 0.5059464 0.06997145 -0.1923041 -0.10483149 -0.39723969 -0.12955277 -0.19570827 -0.026593164 -0.11757578 0.33638301 0.00045807275 -0.29358056 0.06334794 -0.06474215 0.25344267 0.46524978 0.0537484 -0.3255319 0.04690545 -0.21379943 -0.14512189 -0.1743405 -0.35404277 -0.1816595 0.30891237 0.24467975 0.1735869 -0.14087518 0.18443805 -0.23574093 -0.0035990332 -0.090810314 -0.011592623 0.14662623 -0.1495224 0.3374559 -0.012966216 -0.1732468 0.2090693 0.14920518 -0.44146317 0.11019803 0.43324336 -0.2441165 0.1142591 0.34833252 0.021937307 0.20138595 -0.16060598 -0.31788123 -0.10615156 -0.5052827 0.33155578 0.5025982 -0.31968543 0.30865824 -0.0792111 0.06315178 -0.36861336 -0.27305135 -0.015016256 -0.21948084 -0.18363002 0.023676202 0.26559436 -0.539405 0.08509643 -0.2819084 -0.028854962 -0.033838183 0.050794344 -0.19572513 0.19647376 0.47350362 0.18827589 0.17007092 -0.18267812 -0.16698256 -0.36841992 0.16461189 -0.27993944 -0.10973363 -0.17500703 -0.53704345 -0.0741079 -0.2488582 0.37464687 0.12627527 -0.249851 0.19514628 0.13789108 -0.42399162 0.29476976 -0.37783143 -0.0052124653 -0.121837884 0.59658176 0.24995498 -0.24766396 0.22823471 -0.094946705 -0.08083355 0.091463834 0.48706633 -0.09104236 -0.29352158 0.11812392 -0.27901626 -0.37810636 0.07073726 -0.005629133 -0.4985063 -0.346333 -0.18335406 0.2580345 0.08542553 -0.2069793 0.16744156 0.2867712 -0.5036056 -0.3285035 -0.05832409 0.19427778 0.08212954 -0.18816143 -0.3253172 0.44516677 -0.060092293 -0.1678245 -0.4605784 -0.07582625 -0.2494591 0.47110352 0.274601 -0.45003143 -0.17602839 -0.123024955 -0.00080809987 0.018170914 0.077582695 0.23150033 0.21903767 -0.29417783 0.029855754 -0.33079723 -0.10646979 0.39823112 0.101728424 0.11774367 -0.0018216419 -0.055060066 0.44684032 -0.13806103 0.030841732 -0.30991966 0.21608545 -0.0365766 0.23789486 -0.052253325 0.05298092 0.13845903 0.4644488 -0.45825595 0.0015552595 0.120519266 0.15087755
alô 0.44152403 0.7046048 0.38022026 -0.12127819 0.08079798 -0.17342688 -0.09493761 0.8421711 -0.33457285 -0.46349138 0.059076317 0.10696312 -0.041682146 0.32380235 0.052035343 -0.23777382 -0.14415544 0.4784154 -0.38425428 -0.41318005 -0.068254896 -0.3614252 0.5379277 -0.25074136 0.045739375 -0.28901383 -1.1310067 -0.18706277 0.15628758 -0.089516565 -0.2603847 -0.24910769 0.42237148 -0.64427173 0.37893215 0.28201896 -0.3910269 0.0714946 0.43941623 -0.014866363 0.0045719794 -0.12187148 0.11803973 0.23083062 0.22061597 -0.25321877 0.32094175 -0.21699283 -0.22788183 0.4321693 0.34061924 0.34190178 -0.3199919 0.54060733 -0.010941039 0.30722034 0.5437871 0.28409183 0.29218474 -0.21271972 0.019638885 0.03322097 -0.049027137 0.07272661 -0.43397596 0.55321 0.5255876 0.2939739 0.044467177 -0.27691263 -0.0839517 -0.273914 0.321477 -0.15489791 -0.24985112 -0.37609884 -0.63813215 0.5257135 0.40301603 0.6746479 -0.32987502 -0.22102603 -0.5196705 0.85355073 0.20986049 0.5318331 -0.24408576 -0.020038337 0.3038545 0.3991732 0.0807048 -0.42468783 0.3192354 -0.42510325 0.48183796 0.6221644 -0.13549867 -0.31148323 -0.7000865 -0.088547386 0.25823367 0.024035428 0.16561009 0.41761652 -0.20835648 0.09556238 0.14064461 -0.19291034 -0.43472776 0.4424382 -0.6223735 -0.14849609 0.5230108 -0.17139743 -0.23593864 -0.04024079 0.11791155 0.26693657 0.17199415 -0.5487758 0.51755476 0.88618326 0.75637305 -0.08475326 0.104665816 0.28308257 0.44758233 -0.07084788 0.3046233 0.033224236 0.37948632 0.2255092 0.48873925 -0.47321215 0.2109071 -0.089849666 -0.006723808 -0.31382176 -0.10152954 -0.7342098 -0.6249746 -0.34232053 0.30587205 0.33133683 0.080136664 0.5031243 -0.98841137 -0.48443204 -0.20865142 -0.54625136 0.5055609 -0.86248636 -0.7899514 -0.46672142 0.71301633 0.19278406 -0.29511297 -0.2609196 -0.31298712 0.055518426 -0.2816209 -0.23995693 -0.707507 0.3704046 -0.46720344 0.17626043 0.06572306 0.29238576 0.19024166 0.79098195 -0.76862097 -0.1864963 0.31223002 0.1733063 0.039622273 -0.19315343 0.18039633 -0.56756353 -0.008668494 0.14232554 -0.29979128 0.49600312 -0.34380364 -0.52751666 -0.53613913 -0.5586424 -0.2661031 -0.18538563 -0.37737617 -0.5214662 0.1437924 -0.23523918 -0.3373272 0.12293438 0.48602343 -0.61433953 0.39615902 0.37606892 -0.11215748 -0.18814543 -0.34522495 -0.13568713 0.28746065 -0.13552748 0.70719856 -0.4167696 0.22639765 0.61143076 0.06228397 -0.38434225 -0.08689757 -0.8439398 -0.35179123 -0.009172528 0.7728081 0.2207033 -0.6358005 -0.35918203 -0.46890438 0.13126467 -0.44413885 0.47920898 -0.62183666 -0.32860678 0.032577746 -0.13592099 -0.44999453 -0.40714726 -0.0074854624 -0.43447194 0.3047795 0.19602488 0.75989014 0.39387003 -0.6145617 0.6014446 0.4846301 0.1607234 0.32912475 -0.9396842 0.67021644 -0.27214462 -0.27809185 -0.1623249 0.17596957 -0.100296296 -0.46246445 0.6021673 -0.10419196 0.30001444 -0.22243762 0.013753031 0.51571316 0.2717126 -0.7215703 0.40548682 0.518054 -0.34464425 0.0795712 0.3234498 0.39442745 0.42803302 -0.32967424 -0.5713141 -0.33923975 -0.22281228 0.20083717 -0.037437283 -0.53914714 0.24705335 -0.3469799 -0.043091733 0.06745505 -0.022209287 0.54234505 -0.16249174 1.0949819 0.09826647 0.024443012 -0.12817919 0.5354289 0.22550131 -0.046313696 0.66220593 -0.3093178 0.4524103 -0.47088966 0.0046361806 0.26065654 -0.36263892 0.0034552931 0.53778696 0.6474903 0.38581538 0.06727266 0.6908604 -0.32416695 0.25186762 0.5244748 -0.39589065
tots -0.11412647 -0.2518955 -0.013659313 -0.3486168 0.11733536 -0.17167653 -0.12331142 0.30241203 -0.15546381 0.06339306 0.123733476 -0.16526033 -0.056833215 -0.08205496 0.058906984 -0.09610454 0.045202807 0.08617503 0.18884866 -0.07080321 0.2757149 -0.28980958 0.18935221 0.14726225 -0.08581037 -0.07186458 -0.015294259 -0.17265305 -0.04175911 -0.20509996 -0.20319815 -0.27682492 0.08820222 0.010490027 -0.037578754 0.1072614 0.14521554 -0.12682596 -0.04286962 0.28744426 0.08028206 -0.11875413 0.33989108 0.0042865113 0.042405512 -0.14103492 0.42056888 -0.20272289 -0.0060963854 0.37433168 -0.2068245 -0.18674673 0.20901836 0.11901987 -0.16873601 0.39099637 0.16315301 0.10626721 -0.010816727 0.12223417 0.12391643 0.43376777 -0.13372895 0.05104675 0.14935985 0.22354469 0.046528537 0.28386918 -0.17383534 0.1947682 0.03499009 0.2794646 0.30578175 -0.18849728 0.14300632 -0.16323604 0.121100254 -0.1554075 -0.23705578 -0.034113143 -0.13981256 -0.11656822 -0.400772 0.61744213 -0.32696003 -0.34659806 -0.3620907 -0.1328493 0.2805964 0.035238396 0.059623353 -0.022589058 -0.124446504 0.017721958 0.4027064 0.19727945 0.43790892 -0.15832195 -0.49303582 -0.019755207 0.105349384 0.085395865 -0.08012114 0.4544778 0.19285017 -0.043868635 0.08749652 0.2917579 -0.53097504 0.26989594 -0.44972607 -0.19441608 0.05946969 0.23583598 -0.024773765 -0.102796815 0.031432834 0.13580771 0.060842168 -0.06781917 -0.059132196 0.05265147 0.25907826 -0.05601591 0.14703715 0.031547055 -0.0031526017 -0.2852087 -0.13239115 0.19420075 0.10507517 0.013603577 -0.018457675 -0.20807274 0.18637311 -0.09762668 -0.37609488 -0.23128074 -0.34616765 -0.075794175 -0.04817267 -0.34123152 -0.07181261 0.20969188 -0.1295349 -0.3495588 -0.12368215 -0.1324321 0.3064905 -0.05048152 0.16716021 -0.28982687 -0.20218721 -0.47963 0.0087670665 -0.40034094 -0.28154296 -0.23967856 -0.23815152 0.4374323 0.3468121 0.1552388 -0.14183971 0.1677494 -0.22435099 -0.0764683 -0.12914486 0.26367158 0.00525025 0.27734536 -0.43114072 -0.038469378 -0.023572542 -0.1673132 -0.02613541 -0.20459068 0.41390988 -0.09617759 0.22600648 0.10940153 0.14013106 0.054042473 -0.13710342 -0.357625 -0.30696902 -0.40405217 0.26089206 0.25188932 -0.093932934 -0.088427305 -0.0029948815 0.26458296 -0.18053488 0.25305498 0.13091649 -0.13767567 0.017160214 -0.27393174 0.28779677 -0.22098045 -0.30800998 -0.07466253 0.09070893 0.067818835 0.1786656 -0.049481135 0.3994712 0.36707947 0.29488194 0.012937649 -0.16819729 -0.27309698 -0.16460149 -0.04194334 -0.19477858 0.21156885 -0.11367021 -0.24900348 -0.10465922 -0.0028722116 -0.084845446 0.15419668 -0.43898866 0.08023984 0.03655889 0.13842893 -0.17610644 -0.17891926 -0.17530681 0.05855573 0.41826874 0.0898954 0.048991304 -0.027175099 -0.31132168 0.01903302 0.042394742 0.08334708 0.1699381 -0.08198143 -0.09150481 0.0173163 0.22160959 -0.16468154 0.06100793 -0.09996218 -0.15678588 0.06445299 -0.04330174 0.16524313 -0.10320983 0.16755226 0.06759727 -0.003196239 -0.45786864 -0.3509532 0.22766925 0.11185886 -0.12145665 0.0973965 0.16592504 -0.079318255 0.06687751 -0.18778221 -0.22887908 -0.3462133 0.25531417 0.18649821 -0.09282002 -0.08544003 0.017738169 -0.053777523 0.018831523 -0.08268218 0.20759195 0.28726706 -0.20738544 0.45520192 -0.19545367 -0.44993523 0.16722833 0.18437256 0.22509053 0.20962621 -0.23572211 0.46764284 -0.02586653 0.23770608 -0.2303429 0.0010193569 0.04434421 0.31194153 0.050936077 0.17558952 -0.22522299 0.37911955 -0.27477127 -0.091522165 0.2566185 0.118631974
dia 0.16926402 0.62429667 0.219809 -0.08309159 0.343142 -0.3698178 -0.23327559 0.71359485 -0.66436905 -0.5755788 0.09978661 0.10327129 -0.2068802 0.25000593 0.11630056 -0.01384753 -0.013481636 0.29524392 -0.3081082 -0.2550163 -0.0016900385 -0.41030878 0.09451024 0.22255372 0.06777267 -0.4368459 -0.18725204 0.0023141569 0.538118 -0.0081928605 -0.16015217 -0.37539992 0.079883166 -0.33452564 0.3088163 0.47945225 -0.04973061 0.1503237 0.41563416 0.26383832 -0.03430323 -0.30690613 0.17933947 0.020338222 0.36732885 -0.30977666 0.14592929 -0.019701248 -0.17891635 0.57153213 -0.1795655 0.08458799 -0.24216644 0.20107651 0.1394232 0.21968907 0.030882942 0.07459831 0.092502974 -0.07770128 -0.05940996 0.013548034 -0.19088991 0.26429442 -0.4245062 0.47384486 0.10950602 0.22382328 0.3307352 0.14128906 -0.1962381 -0.11290175 0.2778092 -0.03707286 0.030645084 -0.30499446 -0.31445178 -0.09160032 0.31405866 0.35028115 -0.22505504 -0.6319827 -0.18830031 0.5942339 0.19060206 0.23812886 -0.41713697 -0.1011248 0.5045257 0.44672376 0.0732106 -0.5303321 0.14376259 -0.3427889 0.15596895 0.6522643 0.01804576 -0.49752098 -0.6271126 -0.046089508 0.006553156 0.24732117 -0.25306964 0.5161809 -0.12077178 0.014929671 0.028711272 0.60949993 -0.41412467 0.24369971 -0.74795836 -0.46530715 0.5504815 0.040992722 -0.27841455 -0.44714287 0.102089696 0.17509204 -0.057273604 0.14375396 0.46176496 0.49986514 0.27384663 0.004197192 -0.05129579 0.05392738 0.018338548 -0.2794398 -0.061332487 0.0077005117 0.018445175 -0.06306056 0.33613577 -0.5985071 0.25251868 -0.12502787 0.011559743 -0.42016345 0.011268464 -0.12261687 0.0066884463 -0.43291667 0.36190525 -0.028853914 -0.06160764 0.24644631 -0.61764574 -0.09363376 -0.07903396 -0.2666558 0.22217147 -0.71412337 -0.14529322 -0.87219983 0.3077379 -0.1573856 -0.054726366 -0.29133478 -0.24469501 0.24777186 -0.09531293 -0.19643699 -0.3957901 0.26209965 -0.50892204 0.19598435 -0.22854069 0.47565013 -0.034961283 0.5705009 -0.45685977 -0.3532679 0.28954753 0.31414825 -0.2569175 -0.043341074 0.40785533 -0.5661694 -0.09186233 0.015587545 -0.17842261 0.3593283 -0.27941665 -0.1830103 -0.2993445 -0.18923108 0.15314749 0.32993218 -0.0037451955 -0.09444342 -0.0023028494 0.01827447 0.019621244 0.09003258 0.48782158 -0.16352576 -0.11275876 0.06391559 0.041149817 -0.19615585 -0.23852332 -0.6112049 0.3895733 0.08938131 0.11678104 -0.2873335 0.47532764 0.078483105 0.2458246 -0.4442263 0.105032235 -0.4090169 -0.46753612 -0.04063403 0.6144808 0.22500245 -0.41064683 -0.3835715 -0.20419067 0.19295925 -0.06652403 0.49008736 -0.44171634 -0.5994307 -0.024130626 -0.13975388 -0.21069993 -0.06112462 -0.25150573 -0.013799272 0.41875508 -0.009515316 0.17089763 0.24816406 -0.16922958 0.057929713 0.031733755 0.28476605 0.046085436 -0.46518102 0.019444373 -0.23814298 0.0011029743 -0.17976892 0.109744586 -0.06630789 -0.41500583 0.29557323 0.2559761 0.117866956 -0.37116814 0.063628465 0.1881376 -0.11613565 -0.062128242 0.084868684 0.16475148 -0.06707271 -0.34394562 -0.12021738 0.059078176 0.30491582 -0.054848813 -0.71322167 -0.2730234 -0.14950201 0.3487263 0.28090817 -0.40067282 0.29755297 -0.07891717 0.042809635 0.3784618 -0.3957289 0.6381292 -0.07121787 0.3531546 -0.058868553 -0.03592872 -0.10517004 0.0074714418 0.19058414 -0.11761034 0.73942256 -0.31646726 0.24006347 -0.5446651 0.40973157 0.2332326 0.005156098 -0.04388294 0.43422326 0.54284286 0.5969238 -0.3587105 0.7601552 -0.48963994 0.12289888 0.29359686 -0.260849
algum -0.15231001 -0.44415185 0.40269655 0.55370134 0.26603454 -0.6639535 -0.012359405 0.4062595 0.23247899 0.40612566 0.07358591 -0.47214946 0.21419963 0.12916759 0.5544289 0.0042872913 0.53078413 -0.20710438 0.06405832 -0.18687202 0.041335043 0.23206735 0.3059128 0.49065605 -0.14660582 0.43499175 0.35675472 0.6166161 -0.38732207 -0.12707296 0.7826371 0.14688873 0.22189361 0.4694565 -0.2839465 0.201052 0.46365726 -0.4938486 -0.36707452 0.34579244 0.015044236 0.08828169 0.25928962 -0.1325657 0.13811328 0.07720325 0.07850488 0.21144311 -0.6192879 0.09242686 0.3873461 0.007513837 -0.44486782 0.019837579 0.120824166 0.2154115 -0.013531567 -0.014629404 -0.121942244 0.5083483 0.16034746 0.12441735 0.0025326782 0.009153781 0.07721504 0.28455138 -0.05113801 0.2239053 -0.21970408 -0.1033704 -0.15819417 -0.3266032 0.4987647 -0.10644542 0.4129213 0.15843566 -0.12308702 0.162289 0.082465775 -0.45243105 0.024152914 -0.19535953 -0.22436051 0.6092757 -0.12134118 0.4491445 0.011519578 0.23501492 0.73432404 -0.38066372 0.637534 -0.0047443844 -0.09484956 0.41547814 0.076093666 0.0839661 0.2905594 0.1967161 -0.34043553 0.29723912 0.20413548 -0.3393105 0.20472515 0.04228007 0.09362133 -0.29091167 0.28722662 0.042204566 -0.12672652 0.024129603 -0.5972233 -0.054412875 -0.3322571 0.359023 -0.33426264 0.022599464 -0.28602582 0.0427072 0.17962055 -0.44653967 -0.04802337 -0.26145348 0.058634747 -0.38664737 -0.09258057 0.12162246 -0.2826213 -0.7580069 -0.21225119 0.027237037 0.24039492 0.47583082 0.17824744 -0.44600537 0.6410342 0.18539794 0.055050533 0.078797534 -0.32412446 -0.18485843 -0.3362265 -0.0491729 -0.39784357 0.3037596 0.17313936 -0.33226874 0.08191188 0.17651004 0.53166926 0.6932093 -0.23768544 -0.1984339 0.080907606 -0.21983579 -0.23994152 -0.064505346 -0.7233126 -0.21257 0.25050262 0.087698005 0.22567397 0.032860212 0.4194936 0.13145043 0.15105006 0.06259542 0.47038844 0.12048046 -0.27971372 0.4501364 0.0625207 -0.1216444 -0.13336246 0.27183577 -0.14582679 0.2352139 0.17489284 -0.33195043 0.029884532 0.37792167 -0.066290334 0.090764716 -0.11675755 -0.2619192 0.22954291 -0.42726976 0.40650648 0.83674896 -0.42415667 0.22161447 0.21185595 0.22154573 -0.2108165 -0.9182065 -0.37114954 -0.28812587 -0.05869054 0.007940181 0.61263067 -0.30661765 0.23623367 -0.0021090778 -0.09996362 -0.4720821 0.15757577 -0.14322361 0.06691812 0.44959927 -0.28278828 0.07924692 -0.25098124 -0.3818958 -0.3223343 -0.1157578 -0.40259385 -0.38740966 -0.23399112 -0.4877385 0.20944177 -0.66929233 0.38764143 -0.11884432 0.033712022 0.26382318 0.14860366 -0.37677783 0.58255327 -0.08281396 0.280619 0.016991176 0.512707 0.044088427 -0.07096769 0.21648626 -0.105464935 0.03614919 0.052714784 0.4329344 -0.18549807 -0.60724413 0.3912079 -0.5108221 -0.5504699 0.4254299 0.17846498 -0.4787179 -0.00046771887 -0.2395087 0.15639633 0.26246408 -0.14131367 0.011106608 0.3136867 -0.60304284 -0.73434895 0.012337908 0.31664357 0.14378774 -0.25747937 -0.44371536 0.6157142 -0.34663567 0.09908283 -0.5729319 -0.011347072 -0.34025708 0.55099934 0.09692488 -0.6014751 -0.5276213 -0.58167726 0.15904497 0.25442946 0.17434305 -0.27412334 0.047660507 0.026058564 -0.17962141 -0.46322078 0.22825316 0.10447031 0.020246092 -0.12426328 -0.3433072 0.33924708 0.07689898 0.09786735 0.13932735 -0.09345381 0.32051143 -0.29463595 0.06418798 0.008507443 -0.13929841 0.48293507 0.20665342 -0.34939367 0.0444957 0.054888703 -0.12918004
falo 0.053608462 0.042515185 0.07419366 -0.27359474 0.25696126 -0.31881034 -0.11110172 0.48973483 -0.50791115 -0.2285763 0.20313314 -0.016948316 -0.0146991955 0.11405774 -0.07953782 -0.09937659 -0.07746155 0.18452659 0.16981217 -0.2800617 0.09974846 -0.5147748 0.29890883 0.1354952 -0.12170599 -0.25273708 -0.11608648 -0.32226235 0.17445807 -0.27023035 -0.27586606 -0.29501987 0.26612902 -0.014200413 0.38685092 0.05251837 -0.005349157 -0.11311358 -0.08791475 0.18248916 0.09621838 -0.31203178 0.31592497 0.1410717 0.011964139 -0.09625874 0.2945598 -0.16796075 -0.012968154 0.63166285 -0.15341277 -0.059978325 0.0006464304 0.31382266 -0.36200392 0.5431858 0.1612623 0.14854775 0.10641004 0.0883414 0.19282834 0.6256657 -0.14990276 0.015228575 -0.1525594 0.33028692 0.11387416 0.14535211 -0.037568215 0.3676156 -0.2858001 0.1304782 0.18144369 -0.19006601 0.12710875 -0.15507868 0.02631519 0.034515552 -0.08285299 0.14239505 -0.13693467 -0.3298485 -0.49660861 0.7055565 -0.29957134 -0.08471163 -0.47917798 -0.12471548 0.499135 0.25086933 0.0006404732 -0.3297908 -0.092360586 -0.27436802 0.4297113 0.3513635 0.29333624 -0.2135935 -0.60348403 0.20805842 0.11146775 0.061363388 -0.21398675 0.6230476 -0.07317014 0.06575734 0.065016404 0.2929382 -0.7793924 0.3942475 -0.6331575 -0.25577876 0.34470165 0.16954826 -0.2370251 -0.1813348 0.10943814 0.31747583 -0.12424125 -0.17410962 0.20966579 0.21856882 0.29051486 -0.08594079 -0.16624878 0.12266739 -0.13996667 -0.24304456 -0.2952808 -0.031860046 -0.020926407 -0.05250637 0.08332213 -0.12551208 0.22789589 -0.12509629 -0.27951705 -0.35109836 -0.24205145 -0.21703476 -0.052433066 -0.44525895 0.14175254 0.15640143 -0.022277413 -0.20862806 -0.20362362 -0.079298995 0.012021605 -0.24827565 0.17395397 -0.52077603 -0.1688384 -0.7777271 0.10818517 -0.38989553 -0.30213326 -0.38282222 -0.28375363 0.53130984 0.3247038 -0.118911974 -0.23465076 -0.112190776 -0.22730951 -0.092344895 -0.3171966 0.30902988 0.12748908 0.45962253 -0.6739048 -0.10821773 0.09100956 -0.07491221 -0.17793038 -0.14304753 0.33453372 -0.3550622 -0.032941796 0.1527408 0.06972066 0.17686765 -0.119408995 -0.33231252 -0.49820852 -0.5131547 0.36064804 0.2781615 -0.1639324 -0.045464635 0.15924644 0.11350927 -0.17537095 0.37274045 0.3737946 -0.39273494 0.11894917 -0.12185359 0.17316595 -0.4438259 -0.24972053 -0.3319467 0.21262868 0.31878418 0.28319746 -0.2630889 0.5496238 0.5018142 0.5527612 -0.1475783 -0.036511105 -0.36694014 -0.34815773 0.11873269 -0.080104455 0.20304883 -0.19096044 -0.465199 -0.32914603 0.10140962 -0.071427144 0.19828066 -0.5884886 -0.002027654 0.08812705 0.028422143 -0.45481023 -0.12916772 -0.31320977 0.04730826 0.37560552 0.17862809 0.117168866 0.20697218 -0.15802209 0.060396854 0.16973116 0.14847328 0.17800619 -0.25762904 -0.07853155 -0.15144414 0.108254164 -0.10273122 0.068496674 -0.13994102 -0.30243328 0.16779155 -0.04430936 0.27274856 -0.26354408 0.14289103 0.029601287 -0.10959984 -0.3806755 -0.1460196 0.13332713 -0.07838218 -0.11554218 -0.2243004 0.12269369 0.13796958 -0.27600792 -0.3590516 -0.24553649 -0.44321984 0.39488378 0.3706217 -0.22998491 0.028193988 0.023782844 -0.12453888 0.16156372 -0.189204 0.54986656 0.34089243 -0.012900275 0.30185285 -0.08096061 -0.3199202 0.22296411 0.3516681 0.37569758 0.50036263 -0.25177398 0.61749995 -0.16940252 0.3609097 -0.20164002 -0.31762442 0.19083135 0.4031516 -0.009986374 0.34762612 -0.24359834 0.59785277 -0.29479456 0.01895713 0.24561465 -0.0032573654
caso -0.2892048 0.13308376 -0.30426204 0.3532557 -0.030554928 -0.25355777 0.24011606 0.35889244 -0.26107866 -0.38449636 -0.051733155 -0.5972728 0.2317144 -0.015501577 -0.053779893 -0.31585526 0.2512586 -0.09383483 0.25537792 -0.24154945 -0.27616075 0.032401964 0.07725126 0.35959122 -0.25593996 0.06724803 0.012289527 0.10078913 -0.014795775 -0.3743737 0.08209437 0.34278783 -0.12106296 0.14631195 -0.13257614 0.22027335 0.39224586 -0.45067427 -0.29570284 -0.017979072 0.19613943 0.08835739 -0.3385062 -0.26710686 -0.037539404 0.4375192 -0.056883547 0.21630383 -0.40225387 -0.18275435 -0.32281792 0.29215324 0.09992018 0.11958638 0.35028058 0.16627668 -0.03989393 0.026619956 -0.49684614 0.33759338 -0.11094664 -0.18294926 0.24958439 -0.46418244 0.006451589 0.10914086 0.09699095 0.2587797 0.118500076 -0.20313405 -0.03805539 0.25535107 0.25179482 -0.34185886 0.21817861 0.46573952 -0.050108664 -0.25965104 0.15782179 -0.27544054 0.03865756 -0.47882316 0.20326401 0.42618042 -0.090481974 -0.060641613 0.0923061 0.30064902 0.43598077 0.20970027 0.17533202 0.19293557 0.11942261 0.35415402 -0.30076823 0.09068254 0.025930706 0.18686877 0.051878948 0.09937368 -0.22535028 -0.106330164 0.42886576 0.08542825 0.4329207 -0.13589221 -0.13940445 -0.21455045 -0.06554448 0.059561796 -0.0033589175 -0.19187498 0.04578341 0.47719333 -0.22412194 0.07221611 -0.20870072 -0.081704214 0.32089922 -0.25539923 0.033819504 0.23695228 -0.33260146 0.18185093 -0.52548635 0.28863448 0.22244641 -0.14640921 -0.092399664 -0.24879432 0.5207311 0.14260647 0.04908963 -0.19230051 0.2859148 0.43422028 0.5685148 -0.020127293 -0.2892738 -0.10523805 0.2323799 -0.48613328 -0.29987344 0.17117181 0.0016406145 -0.00928758 -0.22762497 -0.26549387 0.3662293 -0.013313328 0.041173436 -0.06948886 0.47053215 -0.09279378 -0.233518 0.4338191 -0.20772655 -0.034380708 0.04932591 -0.11795315 -0.34901893 0.28752223 0.033834722 0.008508005 0.015549044 0.2862101 -0.05036688 -0.2403486 0.17641613 0.45829347 -0.13029096 0.25393775 -0.15569632 0.28238627 -0.10055982 0.0028613675 -0.11643596 -0.20612086 0.46792522 0.32176155 -0.14496233 -0.23298064 -0.3326017 -0.08506969 -0.15373309 0.20094144 0.2351817 0.5341646 0.17533408 0.057383373 -0.24564831 0.0023289407 -0.35538584 -0.31998417 -0.4184008 -0.12709872 -0.32974035 -0.30494544 0.28300068 0.23848194 0.23400691 0.2062386 0.2707305 -0.8279448 0.04095631 -0.08350958 0.10810279 0.1515862 -0.11994485 0.13440692 0.056808755 -0.15055843 0.27187562 -0.2787377 0.2845608 -0.14568658 -0.16882569 -0.41886842 -0.034255788 -0.55858237 0.4013738 -0.052691404 -0.15701623 -0.007015864 -0.2670494 -0.45204872 0.21862495 -0.12277175 -0.1185396 -0.088715665 0.25924006 0.037952237 -0.19219287 -0.2373503 0.25762373 0.075405605 -0.41109985 -0.16983539 -0.16340527 -0.49341005 -0.04304029 -0.4824107 -0.34676635 0.11527182 0.2789631 -0.69336987 0.1616256 -0.19742765 -0.039451484 0.42217764 0.39100382 0.14449598 0.0050786724 -0.6687362 0.08210918 0.045512337 0.40832493 0.14799185 -0.5647214 -0.29148945 -0.26273677 -0.25163436 0.09458924 -0.37200817 0.01922161 0.36398777 0.60639364 0.5950445 -0.069086656 0.10819866 -0.3736826 -0.15955365 0.14096478 0.0066915727 0.113010496 0.5711694 0.19505967 0.19104917 -0.30149022 0.12925805 -0.077799946 0.12884365 -0.0016593251 0.074517004 0.021386184 -0.054636825 -0.5696128 0.16921513 0.69365776 0.6516558 0.20495807 0.4794147 0.19552547 -0.36855385 0.66412026 0.40773207 -0.11327808 0.09481613 0.27957445 -0.23701943
ah 0.14737016 -0.016648505 0.041235834 0.10503775 0.0005254297 -0.15113585 -0.14155692 0.04943068 0.1928168 -0.15418896 -0.025663806 -0.14117976 -0.090453215 0.06343194 0.007912222 0.014963865 0.07998965 -0.14121029 -0.1387587 -0.0017097571 -0.07708594 0.009903881 0.012794872 0.20950213 0.23073173 0.18625996 -0.219312 0.34411633 -0.13178116 0.046339203 0.033559587 -0.119990535 -0.20314345 -0.11276526 -0.14991759 0.17168248 0.015429762 -0.06302853 0.3116945 -0.070591256 -0.21824926 -0.12642454 0.06260589 -0.028238783 0.32795906 -0.054509882 -0.089506015 0.28321168 -0.19943783 -0.08196887 -0.08798733 -0.04226283 -0.1407855 -0.030214742 0.03449913 -0.19654664 0.015264441 -0.05569959 0.03165772 0.026250906 0.15086038 -0.19346887 0.07398745 0.18979652 -0.08362235 0.18963344 -0.19625929 -0.09655864 0.17393725 -0.14584401 0.1871686 0.15358447 0.14289263 -0.09887442 0.2415354 0.0045912694 -0.31460235 -0.0088894125 0.00018625229 -0.13879047 -0.03442031 -0.064448155 -0.12639496 0.29141474 0.022745464 -0.031311948 -0.03211282 0.12361143 0.35458165 0.04273972 0.07823074 0.12510155 -0.004296067 0.018987644 0.035790294 0.20870988 0.16336808 -0.022846296 0.019787176 0.22851679 0.010700939 -0.039502036 0.05590237 0.10419184 -0.1419596 -0.1589768 0.05428534 0.013654987 -0.17288087 0.039239217 0.013047724 0.009866353 -0.007997229 -0.11906918 0.018667484 0.027645966 0.17897645 -0.19539236 0.3882005 -0.122561924 0.15214217 0.27266595 0.055868454 -0.15307464 -0.10689366 -0.017219054 -0.09426351 -0.03762419 0.010168568 0.1664013 0.14961639 0.08101529 0.12192761 -0.47663108 0.23308985 0.21480526 -0.15900227 -0.24109282 0.098510206 -0.0899581 0.04557493 -0.02674312 0.090553924 0.24128671 0.056746244 -0.058208015 -0.18071117 0.10925876 -0.21388882 -0.015333484 -0.053607415 -0.1141826 -0.1996373 -0.09725815 -0.10539194 0.047744274 -0.23830996 -0.09695718 0.16884866 0.30056438 -0.12917352 0.063404806 -0.19602756 0.12080986 -0.12159559 -0.2179678 0.16128717 -0.05266452 0.11584787 0.21464987 -0.0074520754 -0.12147371 0.33889398 0.103357315 -0.007755734 -0.07123858 -0.0047435565 -0.31432772 0.12241234 -0.1888331 -0.09676781 0.19151999 -0.2835359 -0.36719102 0.09681881 0.13465437 0.00016274373 0.06594845 -0.04381592 -0.17512612 -0.1272316 -0.12006657 -0.2472873 -0.05910675 0.30569783 0.066599205 0.02806184 -0.21485394 0.3031063 -0.115609035 -0.13752806 -0.048000798 -0.069460556 0.043082993 0.03355512 -0.075342834 -0.3636552 -0.13194084 -0.1109568 -0.025707468 0.19950722 -0.20098126 0.026112212 -0.08861956 0.072005115 -0.20915356 -0.15905043 -0.30215493 -0.09122415 -0.25484386 0.20352744 0.1719342 0.1406258 -0.06823493 -0.12433334 -0.12075373 0.24089548 0.18415114 0.17160901 0.19887508 0.27219275 -0.11669812 -0.11784051 0.295061 -0.03337375 -0.065142244 0.017871572 0.10807286 0.104405865 -0.107655734 -0.17198592 -0.020345036 0.096564285 -0.12751272 -0.0468695 -0.005187843 0.08218441 0.17379515 0.19320688 -0.010975722 0.037444405 -0.037487753 0.30577627 0.04311799 -0.20963664 -0.224861 0.15032898 0.08750593 -0.15044783 0.10889765 0.17946523 0.12011947 0.11493349 -0.10588847 -0.20787735 0.13783158 -0.1247885 0.45844212 -0.2991068 0.06719835 -0.01794401 -0.15785299 0.038773675 -0.008031216 -0.10406124 -0.041840505 -0.039596073 0.18361695 -0.21064287 0.038093604 -0.09920113 -0.06510458 -0.24405208 0.13284503 -0.002962907 0.040303446 -0.12894829 -0.06636133 -0.099933095 0.21836731 -0.18163264 0.04426579 0.31293225 0.1827331 0.1427551 -0.032565575 -0.0013249263 -0.079081915 0.2436578 -0.06989388
entrega -0.24487758 0.8423491 -0.134139 0.7114275 -0.51224893 -0.09956603 0.48631755 1.0410893 0.33397317 0.01784221 -0.037716202 -0.25606024 -0.2319897 -0.27153546 -0.018143075 -0.5050447 0.24161473 0.3786985 0.6007697 -0.4361147 0.11466013 -0.5317809 -0.16108474 -0.40751743 0.365318 -0.16321418 -0.05175825 -0.9063705 -0.87236345 -0.33478037 0.2251138 0.110071816 -0.011874967 -0.38005072 -0.3235388 0.02353155 0.0637386 -0.5012305 0.2531729 0.06687173 0.2113196 0.5483334 0.14711632 -0.058836225 0.16656773 0.15817857 -0.11738797 0.16127886 0.34471154 -0.2444199 0.0390591 -0.12661058 -0.2976507 0.6056478 -0.112171054 0.45804107 0.48570463 -0.12114429 -0.10401662 -0.64678234 -0.20849834 -0.052270524 -0.09546595 -0.18189497 0.1245015 0.38510454 0.1092435 0.22718516 -0.70902157 -0.56136453 -0.20613119 -0.12737302 0.20053338 -0.22921488 -0.3293274 0.41455516 -0.6657921 -0.111508004 -0.8381168 0.71353406 -0.0022399456 -0.413441 -0.28732997 0.2182068 0.5167846 -0.26848945 0.27652127 0.01305282 0.24597375 0.015878214 0.7241367 -0.35379776 -0.31512043 0.26480106 0.4134425 0.615811 -0.014248856 -0.4577154 -0.088644706 0.07652172 -0.16954991 0.021911595 0.37536958 0.06611058 0.26632383 -0.37764224 -0.36510333 -0.46866524 -0.4864468 0.29063308 -0.33010656 0.40750465 -0.4045289 0.5042723 0.43765965 -0.058578286 -0.07432633 0.5636696 0.2367436 -0.30016193 -0.24260268 0.5319891 0.33843923 -0.16451767 -0.07978675 0.6621821 0.37488827 -0.6483499 0.13987517 0.2998316 0.73043776 0.6842755 -0.39874688 0.21899097 0.07125021 0.16521543 0.29926968 -0.19466497 -0.7752375 -0.461209 0.022957653 0.037491348 0.16043256 -0.12425032 0.26793754 0.15100966 -0.62895817 -0.98403645 0.6883229 -0.6745648 0.53012455 -0.6660715 -0.51148003 -0.016660213 -0.06566134 0.057741392 -0.92088556 0.2633182 -0.2996448 0.10964033 0.36802346 0.37860784 -0.070990555 -0.22006226 0.3673017 -0.12830856 0.04755738 -0.4576987 -0.3257418 0.5367448 -0.2055992 0.3073127 -0.010205739 0.25341547 0.3260507 0.10961181 -0.3857248 0.67369664 -0.06409873 0.38629243 0.22389415 -0.24788281 -0.61438084 -0.32179406 -0.53285795 0.390022 0.5169334 -0.40917847 0.4358953 -0.77610976 0.44569573 -0.18328774 -0.8741485 0.124541685 0.22456951 -0.43534976 -0.36525548 -0.32170966 0.08032133 -0.09415811 -0.69112873 -0.34789857 -0.14308551 -0.4614508 -0.35218748 -0.09886829 -0.29318765 0.040711816 -0.0018790484 0.7100231 -0.6074303 -0.13022973 -0.4589521 -0.3074281 -0.14086778 0.10049232 -0.38377 -0.41035354 -0.61582613 -0.18851519 -0.20821701 -0.018891275 0.034117743 0.14739425 0.011991113 -0.25055742 -0.1726201 -0.45811477 -0.11165978 0.35212725 -0.3709145 0.17835945 0.25064984 0.08737072 -0.066443086 0.20245789 0.14076819 -0.5459726 -0.0049192654 -0.5535341 0.061605807 -0.239054 0.07169296 -0.13041942 0.3969447 -0.62220323 0.13056353 -0.0748205 -0.18556432 0.18649559 0.20628321 -0.0010402086 0.39218453 0.49305755 -0.2839178 -0.36553136 1.2357417 0.048176777 -0.54629534 -0.1567615 -0.15154064 -0.19797109 0.3287373 -0.48483568 -0.8232496 0.26535103 0.5063533 -0.3370716 0.39198455 0.1958455 -0.79173666 -0.07119363 -0.770966 -0.013806009 0.2867734 0.91001993 0.006805315 0.3673667 -0.50046366 -0.5396776 0.6076411 0.07750852 0.15060428 0.22999644 0.23700339 -0.07642821 -0.69284165 0.22531384 -0.4048722 0.417823 0.0062745577 0.73232114 0.117280446 -0.20012508 0.22109143 0.18469323 0.2136418 -0.084398724 0.22619522 -0.47415432
falando -0.2576903 0.1747789 -0.08131208 -0.12426687 0.04844871 -0.024867063 -0.021625234 0.18603282 -0.18834192 -0.28518152 0.12509277 -0.11123565 0.1535638 0.05934179 -0.07503968 -0.3884443 0.107492015 0.0283381 -0.03007771 -0.20094086 0.12550342 -0.18184598 -0.03983664 0.330196 -0.18266776 -0.1894906 -0.15947382 -0.014436262 0.3131883 -0.049226467 0.0061086873 -0.029971428 -0.09831942 0.13032168 -0.12506154 0.3949795 0.19869283 -0.22155252 -0.03774241 0.17549245 0.11773992 -0.18836609 0.27639365 -0.2202603 -0.012940989 -0.23097135 0.102674864 -0.07464484 -0.15705183 -0.038210418 -0.23109572 0.20221081 0.08550867 0.108763695 0.38332975 -0.020793166 0.23580264 0.083893955 -0.2826158 0.051794957 0.06871054 -0.04774257 -0.10141799 0.021171153 -0.3146535 0.14562427 -0.057070926 0.12765887 0.13854182 0.03286938 -0.13571326 0.123162456 0.25258955 0.045768697 0.15358888 -0.071741946 -0.06705698 0.04638585 0.0010114033 0.07414057 -0.2242251 -0.41049868 -0.20309818 0.33785442 -0.030427411 0.07804093 -0.18289931 -0.104933016 0.25839645 -0.023848075 -0.08183378 -0.15566562 0.12851742 0.29078886 0.09641321 0.27426878 -0.053404693 -0.008805126 -0.34970787 -0.15470941 -0.2784441 0.0827954 0.069613874 0.1660788 0.1437835 0.114633866 -0.25052318 0.16866957 -0.034539632 0.16228299 -0.18072614 -0.49082243 -0.015192434 0.3377062 0.05545169 -0.091662325 0.055392783 -0.10070444 0.25877166 0.4606714 -0.09600381 0.10330225 0.045802362 0.035420753 0.09834917 0.04620807 0.0411123 0.040219832 -0.01337392 0.09537575 0.08139737 0.0058726743 0.03145371 -0.39388067 0.19586857 -0.2077096 0.16638066 -0.02907215 -0.0077745905 0.21327643 0.111074276 -0.111859426 -0.13869238 -0.388285 -0.37210265 0.010410547 -0.3374629 0.13752313 0.29478735 0.08017539 -0.052919548 -0.043539397 0.09506844 -0.32325608 0.07834124 0.06169168 -0.11616417 -0.044944026 0.04374949 0.013920688 -0.04402788 -0.1382722 -0.037622046 0.10852877 -0.1684053 -0.06013149 -0.21571887 0.20397727 0.13120086 0.2516537 -0.14479251 0.030418094 -0.03632968 0.148641 -0.27089152 -0.11192522 0.30014175 -0.14165053 0.16555215 0.10669259 -0.23720115 -0.17505956 -0.2028206 -0.1149884 -0.25472823 -0.14912212 0.008210098 0.37971604 0.08588908 -0.21461603 0.10954358 -0.033397455 -0.112581015 -0.042426977 0.15193795 0.086902104 -0.10483364 -0.06339705 0.06806122 -0.048330598 -0.118530564 -0.15666719 0.19917597 -0.073767476 0.04121201 0.07855644 0.012970947 0.18185663 -0.08311568 -0.070971146 0.0148797585 0.0075554736 -0.0012763003 -0.10567404 0.19991931 0.24425352 -0.12298019 -0.22779529 -0.010754589 -0.22686145 -0.00095310545 0.28853557 -0.094996445 -0.04955889 0.083858386 0.16318095 0.26176244 -0.25744966 -0.11226068 -0.06053555 0.25360364 0.054591652 -0.34347165 -0.09600936 -0.24077691 -0.044431172 0.24011771 -0.090744145 -0.06078369 -0.21851677 0.026023831 -0.21416974 0.069390595 -0.22874878 -0.094277345 -0.3051063 0.033911813 -0.1376524 0.15388069 0.11363273 -0.2052894 0.14149062 -0.07074257 -0.09704821 -0.10583794 -0.17140399 0.1628409 -0.004739931 -0.39077392 0.03259412 -0.013220256 0.13514835 -0.015372177 -0.117975384 -0.1525374 -0.18480183 0.45036352 -0.004625281 -0.112519786 0.36291593 0.107955374 0.12308183 -0.084209494 -0.18411373 0.2917341 0.0060817297 0.056264117 0.17004101 -0.0070882016 0.080798365 0.09855395 -0.1306151 -0.015364711 -0.06930086 -0.24914218 0.03747243 -0.4554472 0.5300962 0.107612416 0.30611253 0.21361259 0.41448998 0.17643926 0.05646394 0.008908475 0.48101088 -0.39149255 -0.21863458 -0.012336572 0.23842509
ok 0.096206635 -0.058679637 0.093635805 0.078150384 0.05671959 -0.20576748 0.05288734 0.26614642 0.21834719 0.14720066 0.046687223 -0.0029752373 -0.26791227 -0.17089215 -0.0870075 0.33484858 0.29560578 0.15985772 -0.023077143 0.18102857 -0.119356304 0.36822712 0.37635657 -0.047221556 0.3164855 0.41744426 -0.054809712 0.39274806 -0.13742262 -0.13644126 0.28243133 -0.3402489 -0.042365994 -0.08346501 -0.2181268 0.21817517 0.17515437 0.09366394 0.2301079 0.40707147 -0.15047292 -0.06317831 -0.0072101494 -0.4286414 0.51430726 0.007212525 0.20369755 0.16172582 0.37825087 0.1376711 0.01146727 -0.35165438 -0.016516747 -0.17847903 0.07348702 0.15869118 -0.057979926 -0.11939744 0.28758028 -0.15492876 -0.06330558 -0.42182577 -0.3289702 0.3905717 0.28847325 -0.1191473 -0.03749113 -0.25245166 -0.014110254 -0.06251313 0.17679584 -0.04235853 0.5155129 -0.06425415 -0.04118819 0.07636759 0.011955829 -0.18735719 -0.12410321 0.17749377 -0.03699408 -0.043897547 -0.20599253 0.25497252 0.06420075 -0.12855516 -0.12243496 0.040376667 0.22715819 0.1924216 0.16452117 -0.057995174 0.0678396 -0.24734089 0.059690714 0.39315507 0.36519206 -0.22893827 0.059569288 -0.07826903 -0.18770997 0.03267426 0.14574003 -0.016016634 0.27400368 -0.4580999 -0.00076017727 0.186114 0.09077304 0.11835421 -0.17579642 -0.18752736 -0.1209964 -0.018594688 0.0492282 0.35189018 -0.20333207 0.17240904 0.26632547 -0.13641083 -0.14990015 -0.005320043 0.4121755 -0.0997068 0.09143489 -0.120185375 0.026085801 -0.4325262 -0.034908697 0.26440793 0.05735754 0.19822937 0.24742137 -0.22590902 -0.025696436 -0.14183885 -0.13661869 -0.16707107 -0.061275464 -0.15863687 -0.093787424 -0.40441748 0.018689984 0.10374727 0.27391347 -0.107242405 -0.16848347 0.118396595 0.10955884 0.07712209 0.06508698 -0.3317408 -0.0076321918 -0.2714009 0.12756418 -0.13057356 0.0047010276 -0.12922707 -0.15624939 0.023930095 0.17442876 0.17981778 -0.4114894 0.53000456 -0.31275257 -0.074105665 -0.022023896 0.2591638 -0.25232828 0.17167495 0.24967363 -0.15284128 0.12151156 0.10699776 0.024710026 0.059668858 0.1885972 -0.24392192 -0.09188975 -0.42435682 -0.16178586 0.16878903 -0.12292014 0.020961741 0.22559589 0.043350548 0.14769287 -0.027948642 -0.14260936 -0.24941157 0.19778465 0.06945321 0.13201497 -0.22669458 0.23052675 0.32759333 0.09802181 -0.23347569 0.13854457 0.0625446 -0.46207163 0.13506745 -0.15528102 0.011468498 -0.17545466 0.10459638 -0.23599601 -0.2927876 -0.61571527 -0.12507007 0.03470521 -0.14956471 -0.033675 0.0015018529 0.015506891 -0.20581087 -0.011393835 -0.10475737 0.10475691 -0.122605905 0.036152534 -0.15019229 0.18142791 -0.124978036 -0.22917652 0.08003832 0.06470781 0.2117308 -0.1363888 0.5476154 0.13130449 -0.05524542 0.027794493 0.28274718 -0.34389967 -0.10727615 -0.28384984 -0.18600886 0.06895329 -0.16081083 -0.116973266 0.013745282 0.08669575 0.03462212 -0.43444395 -0.0024822892 -0.064449094 0.3211169 0.091192245 -0.07122794 0.0025145495 -0.033718877 0.12475544 0.039702915 -0.016254466 -0.05826831 -0.088325635 0.18492392 -0.31180438 -0.09472528 0.3108885 0.052814454 0.20806852 -0.2487982 -0.1782544 0.09380768 -0.2678294 0.15416737 -0.37070543 -0.13769783 0.011226011 0.113075145 0.15615524 -0.20988323 -0.18268918 -0.26184344 -0.09043774 0.015914513 -0.0050388165 0.23535095 0.07049778 -0.28686076 -0.42528954 -0.0292836 -0.06821233 -0.22323987 -0.09175608 0.011956308 0.18353201 0.3953648 -0.26220298 0.034190286 0.08229111 0.24335538 0.08557108 0.19674319 -0.12336822 -0.3348309 0.08141734 -0.23860626
totos -0.03055652 -0.06518665 -0.019958936 -0.33251917 0.100006804 -0.18115881 0.042729054 0.2706962 -0.04346992 0.042493664 0.18809764 0.18083358 -0.22244322 -0.020738302 0.14509273 0.011056265 -0.06673915 0.3103687 0.23770057 -0.19912443 0.28782228 -0.31611297 0.03649986 -0.09038008 0.031281672 -0.16239813 -0.17053059 -0.23519802 -0.051750608 -0.24924824 -0.18708338 -0.24226618 0.027236354 -0.022114 0.1601711 0.09054205 -0.0035336409 0.13229048 -0.05035252 0.09422837 -0.0151723195 0.0074616577 0.044535425 0.08971763 0.03315398 0.18787698 0.3576696 -0.01146202 0.045822207 0.48597232 -0.14432146 -0.07524758 0.016585205 0.18707664 -0.31712282 0.45325488 0.28521726 0.23732764 0.3142056 -0.024536448 0.13161379 0.6206913 -0.1825563 0.008518964 0.07981692 0.30963644 0.017057242 0.064588554 -0.49097815 0.013241362 -0.16575357 0.18341258 0.2429842 -0.2423971 -0.113140635 -0.19271432 0.043692462 -0.043239594 -0.3442116 0.06892404 -0.14030324 0.16176711 -0.25574714 0.24526267 -0.029453857 -0.22379187 -0.27654734 -0.229496 0.18549733 0.1270435 0.12394364 -0.044858836 -0.17040731 -0.10661227 0.47790202 0.30725825 0.21671523 -0.28991783 -0.5668255 0.012012294 0.27053633 0.024804907 -0.0872266 0.28156608 0.24458572 -0.041977108 0.16200341 0.34281763 -0.42130917 0.23962821 -0.32321006 0.08903389 0.13509534 0.29379603 -0.047456954 -0.035899434 -0.1315247 0.41523263 -0.14749788 -0.20566845 -0.0003360112 0.16129369 0.1738084 -0.023973087 0.092954665 -0.05764641 0.13148266 -0.30195472 -0.10312997 0.051576704 0.065340124 0.21035512 -0.10184645 0.08889518 0.10464232 0.0035097706 -0.24760363 -0.17680083 -0.38787046 -0.02080709 -0.040283043 -0.18287759 -0.10761281 0.1532809 0.13017516 -0.22731751 0.036159974 -0.42966273 0.10468215 -0.1486727 0.20513448 -0.23490304 -0.33355835 -0.46354035 0.06345509 -0.47134995 -0.31531128 -0.30577287 -0.42737126 0.32079986 0.2525387 0.08357268 -0.103448994 -0.0051166755 -0.45797795 -0.046546765 0.015740473 -0.006564252 0.11345755 0.28516445 -0.34239465 -0.030552268 -0.17358072 -0.09775111 0.27240482 -0.118873425 0.37147233 -0.08400284 0.09286757 0.055452757 0.08844087 0.2678028 -0.02824004 -0.34144834 -0.074088104 -0.37976503 0.112518586 0.20106883 -0.015378459 -0.050513893 -0.06756851 0.3441656 -0.14222164 0.34379217 -0.0032871962 -0.24770425 -0.06756678 -0.025212 0.18275034 -0.013194828 -0.3358559 -0.036819905 -0.08581667 0.019970244 0.28482586 -0.09065299 0.3519458 0.34203827 0.50382704 0.047481526 -0.25129363 -0.2303238 -0.2542788 0.00014369676 -0.14299424 -0.009625329 -0.13542488 -0.5241067 -0.3346071 0.2048761 -0.055146948 0.3303723 -0.5793146 -0.03401078 0.16701394 -0.12086821 -0.41112798 -0.34300593 -0.3428032 -0.022819446 0.2138916 0.11370179 0.08364073 -0.093653806 -0.39502922 0.080146775 -0.14106718 -0.0014946207 0.2793591 -0.39772034 -0.007307079 0.0947091 0.1858166 -0.109849565 0.19915992 -0.13988328 -0.17341465 0.19791839 -0.08393705 0.18912365 -0.30131713 0.12277208 0.014372953 0.18484464 -0.44603258 -0.0144753205 0.286075 -0.017955529 0.14239475 -0.13331908 0.2568792 0.15532096 0.0883402 -0.37969574 -0.18852474 -0.3635678 0.008897887 0.08924162 0.122944325 -0.0782028 -0.047399443 0.08593882 -0.02039905 -0.098996036 0.37658185 0.21416153 0.0529042 0.2835811 -0.12416178 -0.48385042 0.24959326 0.40428588 0.26955134 0.2305371 -0.28929138 0.31017068 -0.18507934 0.07905989 -0.2547809 -0.34344277 -0.1991021 0.25089064 0.06089944 0.33569273 -0.2368047 0.23235412 -0.20480074 0.016175793 0.23764919 0.053961392
